989 75
the 0.05255194 -0.009645419 0.015854927 -0.056492146 -0.04460206 -0.07791496 0.00085054076 -0.09286072 0.032447726 0.04209369 0.042776123 -0.06251893 -0.045179773 0.014883813 -0.021441052 -0.06848591 0.00095731043 0.02079713 -0.06426791 -0.010927933 0.0058222734 -4.881533e-06 0.057691973 0.0025952975 -0.1118176 -0.09137604 -0.038946975 -0.015302166 -0.13864347 0.07505631 0.030250184 -0.041423507 -0.0010351998 0.03767334 -0.031218236 -0.02258389 0.014026135 0.015936408 0.00569603 -0.042389862 0.0016558499 -0.005757614 -0.010374281 -0.0087879 0.06279778 -0.0935555 0.060312606 -0.003923881 -0.037888605 -0.09114983 0.0062561813 0.004202725 -0.048719797 0.034311302 0.014012599 -0.021535596 -0.0065271785 0.03246344 -0.021675676 0.038061406 -0.02545112 -0.00830767 -0.030470926 -0.021993533 0.0024463336 0.085173726 0.049097717 -0.06404488 0.059425265 -0.028977932 0.029177744 -0.019788083 -0.06520674 -0.026016759 0.009639326
of 0.010221269 0.054641206 0.020995192 -0.04827731 -0.036502704 -0.13144796 -0.01901858 -0.09256882 0.064768866 0.076427214 0.012444552 -0.03451022 -0.076575264 0.0073804148 -0.024985889 -0.021126758 0.008568776 0.008332775 -0.08254227 0.03807797 -0.009395855 0.0069997027 0.08027469 0.008660327 -0.086730115 -0.09667265 -0.027489653 0.050522357 -0.17603533 0.070887715 0.020327033 -0.077844225 0.0028026828 0.06959411 -0.026363662 -0.031114541 0.03385029 0.057661593 0.01436659 -0.057920605 -0.010612406 0.027414788 -0.046537414 0.043558188 -0.0020406712 -0.05879547 0.02541648 -0.013849743 -0.004523977 -0.11501288 0.038420986 0.0136873005 0.025061978 0.01305985 0.005157425 -0.007819459 -0.020098548 -0.030741142 -0.04987885 0.006601486 -0.0067563513 0.009603058 -0.017187536 -0.02428294 0.010194318 0.020078769 -0.011483745 0.00086728064 0.023437794 -0.00948803 0.045167517 -0.05070446 -0.077430904 -0.024919564 -0.06704171
in 0.023320371 0.03929895 0.036358926 -0.06549572 -0.087304555 -0.06606434 -0.007007723 -0.09280909 0.038494248 0.05883687 -0.074211866 -0.029042188 -0.010611399 -0.030920025 0.002241288 -0.06951043 0.05313573 -0.014166812 -0.050472133 0.0062536225 0.06256185 -0.0150693115 0.091257155 -0.041354965 -0.05960989 -0.06040289 0.020059437 0.0019861758 -0.10546705 -0.011761542 0.009136994 -0.051999707 -0.01766339 0.026084412 -0.05795568 -0.030405825 -0.012319639 0.074525155 -0.013516468 -0.02594645 0.001218564 0.038150735 -0.039442744 -0.017561942 0.00094013044 -0.06827312 0.01567897 -0.049163893 0.014386485 -0.0976646 0.033095665 -0.045532107 -0.035866063 -0.022666175 0.10478622 -0.029801311 -0.061615214 -0.00027061408 -0.0042153117 0.008955253 -0.07312067 0.0014355128 -0.032149035 -0.064294636 0.03379644 0.08077757 -0.021317514 -0.050514452 0.054735854 0.028510459 0.031750016 -0.052155565 -0.068938956 -0.03289907 -0.07241081
and -0.0056547374 0.032520365 0.017470725 0.010650421 -0.09531686 -0.14687727 -0.03233973 -0.10959378 0.019769454 0.115745604 0.021245355 -0.057108197 -0.13402633 -0.01665434 0.024381915 -0.028910566 0.043847967 0.029957913 -0.10411424 0.0028463067 -0.018924844 0.008015538 0.03914623 -0.026461467 -0.08367829 -0.099548064 -0.038172048 0.110661894 -0.15833013 0.024408786 0.013664055 -0.014817066 0.05602733 0.11274436 0.029481446 0.014410152 -0.021025125 0.01582729 -0.06951233 0.021542704 0.0027687608 2.0908896e-05 0.02939317 0.01732283 0.022891713 -0.022943703 0.017848717 0.041143533 -0.0025169754 -0.03867845 0.030911334 0.02534427 -0.010188222 0.030863497 -0.009707607 -0.0061190114 -0.027431095 0.0683479 -0.04950952 0.018300468 0.02139576 -0.025376042 0.04283406 -0.01588144 -0.0072958833 0.054701522 0.01681012 -0.016792437 0.047243305 -0.04132718 0.023523107 -0.0017983686 -0.04237822 0.0015303226 -0.014730902
to 0.10144827 0.028441964 -0.08599984 -0.009246084 -0.013131367 -0.04207203 0.03980973 -0.09435865 -0.037229776 -0.017418174 -0.016311333 -0.019761179 -0.0721327 -0.020983718 -0.005264343 -0.01917107 0.085497566 -0.006966007 -0.020719139 0.026811257 0.038696464 0.0014600588 0.054395303 0.04555607 -0.009117145 -0.05262296 -0.02733561 0.07145765 -0.07310761 0.025230309 0.018430762 0.035997007 -0.014748281 0.03764397 0.004533053 0.01397023 -0.051372305 2.4122159e-05 -0.010684565 -0.04382713 -0.00625719 0.007965242 0.0024870732 -0.03753203 0.058546387 -0.021233438 0.048667256 0.018859098 -0.012942497 -0.013203438 0.046741527 -0.03296131 -0.0580636 0.054033853 0.007634737 0.0061215125 0.055936813 0.03476943 -0.04319108 0.06699233 -0.036733504 0.06012457 0.035296906 -0.0053310334 0.020065578 0.05439015 -0.0029912388 -0.05463233 0.04429383 -0.02978826 0.0010940937 -0.03558258 0.0109252725 -0.056329887 0.03115154
a -0.020420346 -0.0004788998 -0.010586806 -0.002319725 -0.034783617 0.028659279 -0.027369525 -0.03195036 0.014277179 0.055166163 -0.010490854 -0.07407624 -0.11859248 -0.025606498 0.0017676277 0.009549753 -0.007039175 -0.037333887 -0.086009674 -0.065783955 -0.025730792 -0.02528032 -0.0022137056 -0.040048003 -0.040640652 -0.0056706634 0.011570463 0.03977689 -0.06090059 0.050987575 -0.022847995 -0.025520544 -0.00016167013 0.0029878302 -0.011442786 -0.024702007 -0.027934631 0.06989192 0.013385166 -0.0568658 0.032245353 0.011537989 -0.022254411 0.037153922 0.00508946 -0.09945198 0.027911866 -0.047273062 -0.006510763 -0.084963605 -0.012415552 0.013487301 -0.03436191 0.025501631 0.015019355 -0.07068191 0.012411364 -0.023967467 0.033601597 0.0075100116 -0.029600704 0.012456192 0.008730605 0.010687379 0.021311903 0.06402917 -0.005750533 -0.06317418 0.014837458 -0.0010047927 -0.022370424 0.018976972 -0.0034981032 0.023052802 -0.04287165
on 0.0714906 -0.0020825937 0.010989651 -0.063918784 -0.04510034 0.019032791 0.014883342 -0.024163458 -0.00894745 0.015972096 -0.02681818 -0.07414862 -0.09637432 0.018512214 0.037984114 -0.060171768 0.03158345 0.01852764 0.009132016 -0.05687401 0.08692177 0.0077117644 0.06227386 0.094899766 -0.08738647 -0.1006298 -0.044462483 -0.0052312175 -0.10124858 -0.002454392 0.014370274 -0.026402492 -0.026139628 0.033592045 -0.023416787 0.0058064535 0.007858625 0.046390157 -0.017591689 -0.07342675 -0.0057938527 0.074858494 0.0056239823 0.005910838 0.008089651 -0.06724161 -0.021587612 -0.030669639 -0.027456995 -0.025335979 0.0024902432 -0.0064641903 -0.053759787 0.024571523 0.011310841 0.006028112 0.0543336 0.03979754 -0.053699017 -0.030786319 -0.014040156 0.0076584704 -0.050372336 0.02651163 0.02060748 0.04706055 0.0043419967 -0.033829667 -0.020726565 -0.04520182 -0.078332566 -0.05111698 -0.032979883 -0.059375815 0.02218471
for 0.07864139 0.07205743 0.030925108 -0.016850421 -0.014473866 -0.0009927282 0.011238306 -0.09104817 -0.007726566 0.08600685 -0.041810796 -0.036237046 -0.047764476 -0.054976225 -0.0070307553 -0.010186846 0.04083987 0.029491248 -0.06402766 -0.06658895 0.008391319 -0.015803007 0.030454135 -0.050452527 -0.035436474 -0.11309375 -0.11888512 0.067059204 -0.075182565 0.046454582 0.02123021 0.05537281 -0.014466227 0.024744596 -0.0050263437 -0.03554925 -0.023849934 -0.037653662 0.027206002 -0.005100305 0.0044717803 0.031032594 -0.067804374 -0.0019573474 0.030023498 -0.099862754 -0.020804744 -0.05086338 0.027417274 -0.08623784 0.026703047 -0.004865315 -0.07666536 0.019887356 -0.011057973 -0.020843942 0.09735345 -0.013610159 -0.02269391 -0.010174929 0.039920803 -0.048591368 -0.023639577 -0.016314868 0.034535114 0.03469677 0.030412182 -0.019943302 0.031755146 -0.053963743 -0.003923561 -0.03286533 -0.012983667 -0.04746745 -0.024109803
as -0.006334838 0.06097184 0.0071240366 -0.01969359 -0.073540255 -0.047974728 -0.012252177 -0.04072784 -0.016219968 0.08294771 0.018765496 -0.030807074 -0.058897264 -0.039237022 -0.0010138976 0.0063683847 0.01814363 -0.024756525 -0.053908113 0.010054625 -0.030085176 0.009759818 0.029871458 -0.10068649 -0.024993693 -0.0382445 0.038323995 0.05876382 -0.108151995 0.0076273615 -0.016046263 -0.04215963 0.1116829 0.018985914 0.001320067 -0.049924105 -0.06312871 0.017326469 0.05295999 -0.02647726 -0.002685604 0.01874021 0.031309273 0.009807509 0.032520264 -0.07278338 0.026825985 -0.012940231 0.046938732 -0.0064378306 -0.008197696 0.01908073 0.017537722 0.06869094 -0.0041422066 0.01252797 0.016519085 -0.016910218 0.004880248 -0.02864297 -0.0016025275 0.041601475 0.023654282 0.014032163 0.017296925 0.06546986 -0.00031263632 -0.044137433 0.08350755 -0.023079054 0.005210446 -0.003011481 -0.011852465 0.013568926 0.036718708
by -0.00435556 0.04236593 0.023633435 -0.006127351 -0.050058007 -0.08798059 0.041522443 -0.105405286 0.027793806 0.050804302 0.022350356 -0.04950012 -0.09328773 0.010711475 0.026834508 -0.027872568 -0.0073820087 0.0211948 0.0052614296 0.026842687 -0.0043845093 -0.05537924 0.0635394 0.033924576 -0.06576208 -0.08843183 0.0022088394 0.04096494 -0.11616336 0.0073327385 -0.041536488 -0.043404374 0.06572774 0.015361291 -0.01828522 -0.007509697 -0.02929929 0.003989575 -0.020548498 0.021306917 0.049911294 0.03438661 -0.041067436 -0.06149701 0.010239433 -0.047255613 0.025213877 -0.05356205 -0.013924462 -0.047400255 0.021656951 0.023150107 0.0036339567 0.02795748 0.00095109746 0.012495148 0.029645536 0.025806332 -0.08413174 0.018120212 -0.00013526934 -0.016551184 -0.016227122 0.027869144 -0.0005968806 0.07480159 0.03264037 -0.058239534 0.029768728 -0.029829638 -0.013014207 -0.048551556 -0.033700958 0.030621244 0.028812734
that 0.04799906 0.051540885 -0.11300461 -0.023038687 -0.01960928 0.00061304594 -0.043810878 0.005391969 -0.06172215 0.05492382 0.02783581 -0.060387332 -0.15223886 -0.010773761 0.0026431966 -0.060676854 0.06980486 -0.0021069814 -0.061373506 -0.0038260836 -0.039330103 0.023066437 0.04595998 0.010427843 -0.06186279 -0.03996927 -0.061458096 0.025493553 -0.086996086 0.057025317 0.042737857 -0.07127395 0.018327694 0.002911503 0.020831633 -0.014004068 -0.08072959 -0.006827604 -0.020071674 0.015179301 0.051482573 0.05545589 0.029303063 -0.0028849535 0.04217443 0.007007164 0.06709398 0.0005714242 -0.084164284 -0.00986511 -0.03615685 -0.0067985407 -0.030822963 -0.019926995 -0.037954416 -0.003256396 0.12839489 0.014846196 -0.019198107 0.026519272 -0.02000276 -0.06763833 0.0108754495 0.040081013 0.048195962 0.08922939 -0.0058844006 -0.045326404 0.0013105755 -0.017844005 -0.004524162 -0.019619768 -0.011578124 -0.0065720053 -0.0015732202
it 0.04018899 -0.015107459 -0.018210635 -0.10614301 -0.006877082 0.13536379 -0.04957272 0.02955844 -0.09278608 -0.0071889223 -0.061189067 -0.09685025 -0.14830251 -0.04933773 -0.006772987 -0.03346581 0.035390817 -0.029304711 0.01664159 -0.039401073 -0.038921352 -0.032421477 0.124867976 0.0055068047 -0.064896315 -0.021652957 0.0059656603 0.03811629 -0.07492803 -0.0013405592 0.01076208 -0.102749616 0.0016056369 -0.018527484 0.008783763 -0.0022016873 -0.06986061 0.05569599 -0.025908697 -0.00645874 -0.030810395 -0.04072993 -0.045919742 0.048016127 -0.014366501 -0.019535193 0.013680441 -0.026967278 0.013332126 -0.046370868 -0.0027119208 -0.0047992337 -0.009791853 0.0034387626 0.06904937 -0.0233329 -0.025831573 0.010646099 -0.015984189 0.08457719 -0.031092115 -0.031593908 -0.046777613 0.018306978 -0.062124323 0.11987759 0.014767114 -0.06217022 0.020534027 0.05624704 0.010765467 -0.014778861 -0.016153423 0.030286087 -0.010130753
with 0.028975915 -0.011051709 0.015802436 0.05363255 -0.057845045 -0.01938839 -0.022558065 -0.06517805 0.010344441 0.043181345 0.012547767 -0.055022903 -0.0065159183 -0.022050317 -0.0040469016 -0.047618996 0.017061645 -0.011042415 -0.04852411 -0.0257676 0.002365051 0.027101444 0.03509514 0.0060838507 -0.07011763 -0.01332102 -0.021889556 0.07787919 -0.109243564 0.06517509 0.01629133 0.01720203 0.08847825 0.06001099 -0.018706512 -0.010566865 -0.03549185 -0.01242859 -0.06853302 -0.03284336 0.015523261 0.029784005 0.0005125458 -0.030551504 0.08007847 -0.018723773 -0.010923482 0.061567403 0.033727065 -0.034919642 0.043312993 -0.024079105 -0.02077666 -0.025814027 0.012150394 0.041622147 0.050710786 0.05813744 -0.02094975 -0.0030013206 0.03502109 -0.01290181 -0.0060563735 0.0019152641 0.012156433 0.08719539 -0.002279813 -0.042374823 -0.017701713 -0.04297079 0.007324461 0.01723538 -0.03241762 -0.04522917 0.011361554
from 0.032129396 -0.0064729294 0.029659253 -0.06582872 -0.09958264 -0.06893924 0.028856913 -0.07913365 0.028876841 0.061039347 0.024217423 -0.02394092 -0.089924484 -0.017938163 -0.023854354 -0.04102445 0.03166673 0.047351383 -0.061586652 -0.0114326915 0.044693947 -0.03948701 0.06942031 0.024750965 -0.08073354 -0.111439586 -0.010411926 0.00069829123 -0.14278246 0.037473205 -0.02548133 -0.05017877 -0.0010648943 0.021854755 -0.0021517014 -0.0090859 -0.036002476 0.062710054 -0.056486174 -0.00987489 0.034533586 -0.008962131 0.045069017 -0.023598509 0.04823618 -0.017458776 -0.009898832 -0.0060087424 0.018061463 -0.08373615 0.044459097 -0.029693568 -0.026786316 0.006495315 -0.037807897 0.008778694 0.01839628 0.014895797 -0.048905797 0.022896927 -0.0012895215 0.060834352 0.010645615 0.013453358 -0.017217213 0.03142223 -0.030868096 -0.044708572 -0.01890356 -0.01898119 0.008739083 0.002288609 -0.06554054 -0.025109006 -0.019927949
at 0.083370455 -0.006921109 0.067918174 -0.005414626 -0.043956313 -0.0076663294 0.00958965 -0.069740236 0.024568085 0.030347545 0.0068246624 -0.04538631 -0.067487314 -0.04420415 -0.015926458 -0.062394146 0.07095431 -0.023891319 -0.065001965 -0.0668222 0.16007765 0.04176766 0.099358715 0.0067453054 -0.04588252 -0.057131965 0.030478287 -0.020350127 -0.12158722 0.020880636 -0.048279412 0.00083801115 -0.04245951 0.0050931093 0.032324627 -0.014018613 0.00464903 0.02790914 -0.07149294 0.0037561727 0.008756155 -0.0009553382 -0.09348877 0.0059510283 -0.021620372 -0.02660356 0.050852954 -0.0479937 -0.008733755 -0.007294046 -0.00825907 -0.05542621 -0.05446445 0.002174086 0.0060293726 0.041234143 -0.00043755834 -0.013187265 0.018118488 0.0034302864 -0.02124854 0.0086809285 0.010371556 -0.02429715 -0.021981955 0.025844108 0.07199096 -0.02331961 0.098610826 0.023725305 -0.026647516 0.05537522 -0.015106164 -0.056492943 0.026161138
he 0.030084629 0.0047867247 -0.08175084 0.09299078 -0.023615863 -0.042973302 0.041865047 -0.14749357 -0.012864072 0.020919591 0.007267138 -0.03203171 0.026389074 -0.04962748 -0.024037004 0.012388192 0.025186235 0.046480764 -0.10243512 -0.020707745 0.08641239 -0.0544564 0.05114359 -0.057432488 0.005134544 -0.037169613 0.035735212 0.0402764 -0.068313584 0.014738117 -0.08973298 -0.027603794 0.01002819 -0.09811655 0.06508597 -0.047361556 0.04939981 0.011290226 -0.038974658 -0.009090792 -0.018385574 -0.04053426 -0.05153463 0.025364943 0.06064688 0.05688196 0.033066135 0.036171593 0.021867622 -0.02085714 -0.0063204435 0.011323836 0.021772662 -0.011711651 0.059900835 -0.02867419 0.027666822 0.03537266 -0.0017701152 0.016437186 0.019477697 0.021804046 -0.05091989 0.00039851584 0.011536305 0.09526023 0.0156106185 0.051157225 -0.032417383 -0.009763062 -0.014620141 -0.040876642 -0.039812326 0.0043194625 -0.029453585
this 0.06008352 0.03961821 -0.031084092 -0.06907556 0.08116717 0.1404027 -0.07029663 0.06368832 -0.06725302 -0.061498873 -0.085163824 -0.067022525 -0.043920785 0.028718036 0.06388147 -0.030158188 0.057298668 0.031934876 0.015232631 0.008355713 0.07706166 0.010164364 0.093078874 0.07543116 -0.023195716 -0.010671838 -0.03723574 0.0052274726 -0.0370719 0.028357971 0.0048124017 -0.004004357 -0.014214279 0.06344006 -0.10955423 0.010682594 0.026073374 0.020680547 0.017008485 -0.078091115 0.016133746 0.051789977 -0.0091988295 -0.02382461 -0.010866532 0.030875586 0.036639564 -0.037608203 -0.079538904 -0.07548763 0.07848219 -0.10011937 -0.10183743 0.0057825106 0.06706651 0.009730985 0.090495095 -0.015175326 0.027263602 0.015836183 -0.04211733 0.020927886 -0.059332415 -0.013849046 0.03231369 0.09922086 -0.042512998 -0.08814748 0.038824745 -0.034456823 -0.012834673 -0.06916961 -0.026690489 -0.04441476 -0.004186578
be 0.04352899 0.005236119 -0.055785332 0.03473645 0.042518623 0.05160942 -0.029751524 0.012245885 -0.07050168 0.012661753 0.03046239 -0.06762979 -0.09181505 -0.062239166 0.0007443057 0.025298744 0.028421387 0.020727914 -0.026152456 -0.023782372 -0.028681671 -0.0024471872 0.028269373 0.010666079 -0.024011843 -0.06555803 -0.04818511 0.012346927 -0.07990844 0.050549563 0.08233222 -0.012086367 -0.011972501 0.030130139 0.006940501 -0.0029367527 -0.05849698 -0.02879041 0.044938616 0.002272013 0.022707023 -0.013820054 -3.383881e-05 0.042106118 0.042946488 0.023054112 0.019237118 -0.0736495 -0.0028950903 -0.028958004 -0.019839102 0.0045956606 -0.036897436 0.021988457 -0.0047919233 0.012836587 0.085294284 -0.018034594 -0.034502465 0.06683286 0.019539211 0.011714252 -0.012282149 0.06339311 -0.017409816 0.09399633 0.021633005 -0.066544235 -0.0021200588 0.008543574 -0.032578435 -0.003585987 -0.041627586 0.007639068 -0.0064945323
his 0.025229825 -0.00039397285 -0.076753594 0.11678978 -0.005355907 -0.07076369 0.02219525 -0.16288272 0.004567903 -0.0010014566 0.040537167 -0.020504534 0.07145112 -0.03848847 -0.012446409 0.0008558587 0.031746663 0.015874382 -0.08536061 -0.031988792 0.0634496 -0.006650383 0.03358898 -0.022068094 -0.005626991 -0.006964331 -0.0183387 0.085812666 -0.05699524 -0.013754622 -0.088012 -0.07721003 -0.011066457 -0.11249532 0.023912894 0.00076602557 0.02988228 0.0074948305 -0.0031180177 -0.03148427 0.01367647 -0.022882668 -0.029213775 0.02655202 0.050632752 0.04309464 0.05021127 -0.0023335044 0.0027914164 0.01933828 -0.01407026 0.017483115 -0.029866667 -0.021982338 -0.027016062 -0.0034055265 0.10595 0.044203334 0.011465697 -0.03798527 -0.004704795 0.04655327 -0.095462 -0.0057113385 0.02075297 0.005750549 -0.022031952 0.08245652 -0.030768769 -0.037630852 0.03778602 -0.014480226 -0.031701267 -0.037635602 -0.017439647
not 0.06303944 0.045450427 -0.11210112 -0.020256521 0.0028490478 0.084929176 -0.017739547 0.030226199 -0.10583348 0.030653778 -0.015041823 -0.07176955 -0.08885927 -0.05653785 -0.0038750316 -0.0029705903 0.046545915 -0.01138282 -0.054652054 -0.028525142 -0.010575122 -0.02205504 0.017392175 -0.036624502 -0.045500062 -0.033660393 -0.035685718 0.04639663 -0.09139675 0.048914008 0.036102574 -0.018101692 -0.01948411 0.036434215 0.01440314 -0.023886994 -0.06824081 -0.020406075 0.0138637815 -0.008781963 0.08419501 0.0311226 0.051149588 0.022942154 0.05265072 0.0040789526 0.02156789 -0.048706774 0.027081892 -0.01260997 0.013399188 0.03629078 -0.04275528 0.025036769 0.050157405 0.013607324 0.10474118 -0.016469352 -0.03318535 0.014480194 -0.023429 0.014485203 -0.013030955 0.013156314 -0.0019696832 0.104803436 0.004540056 -0.048525568 -0.017867062 0.078409284 -0.033550996 -0.011550853 -0.025110574 0.0118843755 0.051756047
or 0.01839684 0.0076491125 0.041858744 -0.039644588 -0.029862257 0.017081458 0.008637401 0.06216128 -0.025353964 0.061036516 0.057019517 -0.017193617 -0.101770245 -0.10683596 -0.021641374 0.07343416 -0.034493666 0.04161031 -0.12402662 -0.037322007 -0.025738155 -0.019252354 -0.040212248 -0.018674957 -0.05554219 -0.055155475 -0.075432844 0.0025875927 -0.0035285682 0.06768901 0.04484258 0.036492478 0.014034435 0.06665217 -0.0635186 -0.031367466 -0.04461923 -0.005866436 0.06731786 -0.027483337 0.058297373 0.013227965 0.020738628 0.009330455 0.06052959 -0.041825328 0.028478842 -0.051170938 -0.0034074988 -0.07937485 0.01736178 0.006924543 0.014587567 0.05564157 -0.039207723 0.045168452 0.011011928 0.076709114 -0.0014001012 0.03945118 0.033075266 0.008855581 0.013657665 0.09389468 -0.028576814 0.030126562 -0.0054851556 -0.021440882 0.00871122 0.049748134 -0.049019855 0.040910553 -0.07598236 0.012378038 0.00023900066
talk 0.096079774 0.0057541695 -0.060260307 -0.07053088 0.025789708 0.19129845 -0.044845592 0.12424837 -0.1085332 -0.024796113 -0.056671865 -0.1238025 -0.13740598 -0.06894854 0.047411382 0.034124788 0.025837366 0.008854602 -0.004608305 0.011847953 0.099217705 0.011304188 0.0627531 0.06779942 -0.011501912 0.017813215 -0.03005926 0.0459927 -0.0938763 0.016867187 0.046922635 -0.024601806 -0.04623493 0.03901389 0.035786103 -0.0007906976 -0.020302646 -0.014674692 -0.007434461 -0.040678784 0.0031679668 -0.05724929 -0.05214889 0.0053927763 0.048151914 -0.019734826 -0.00438352 -0.013770379 0.022889754 -0.039708357 0.012549197 -0.055135828 -0.029345026 0.072929464 0.024765914 -0.03222277 -0.021624932 0.03811154 -0.009101407 -0.0030144725 0.046941336 -0.021803902 -0.007973987 0.0108948825 0.019873999 0.042388316 -0.017237803 0.006763778 -0.006462191 0.01576976 0.029989215 -0.037452217 -0.008072543 0.028258154 0.014101973
which 0.032612447 0.0075219986 0.10041213 -0.03907156 -0.026632126 -0.013972923 -0.0563734 -0.051181503 -0.0025489233 0.055719752 0.014936168 -0.0045798393 -0.103706144 -0.007438941 0.011231416 -0.048224878 -0.04983283 0.033365667 -0.06440457 -0.064837955 -0.049413927 -0.04104467 0.052087504 -0.01614287 -0.08659837 -0.064779215 -0.038827978 -0.021804603 -0.076853156 0.060801204 0.060065918 -0.068256944 0.042995308 0.006328487 -0.0358492 0.0055334806 -0.045792785 -0.050213248 -0.0007271045 -0.0421952 -0.016869025 0.019077687 0.022328697 -0.0023482554 0.034815468 -0.09305968 0.079442084 -0.011200365 -0.054360397 -0.0415834 -0.012693858 0.004085326 -0.027282622 0.03900633 0.0015179168 0.0066668335 0.0030334378 0.012107086 -0.047071908 0.05327791 -0.011209325 -0.041888572 -0.039092675 0.00791984 -0.013805045 0.100451864 -0.0025124678 -0.042273797 0.028414603 0.027663127 -0.0205034 -0.0109757995 -0.08412923 0.009226505 -0.011186486
also -0.0531014 0.049732257 0.07276764 -0.03430493 -0.11415089 -0.023972264 -0.01228584 -0.008463234 0.027447883 0.073371224 0.0046744836 -0.014281592 -0.038145874 -0.08477188 0.038152818 -0.018324073 0.019051682 -0.0021545151 -0.08575884 0.009482122 0.02588089 0.014773886 0.015477934 -0.055949945 -0.076266 -0.07562572 0.014923402 0.10259836 -0.097574845 0.0017196917 -0.020237194 -0.026750868 0.09267685 0.001735564 -0.0040586283 -0.043189142 -0.017933663 -0.009387992 0.069896676 0.043271556 0.0078113303 0.011693128 -0.023084385 -0.013808457 0.021961607 -0.12541565 0.025318798 -0.023574017 -0.008674931 -0.02085196 -0.016458182 0.05819975 0.033147104 0.054567117 0.03721883 0.032526854 0.0011466582 0.0438194 -0.07965643 -0.07814623 -0.053758956 0.0048701554 0.0076135607 -0.001648986 0.006235585 0.08808338 -0.0049092257 -0.06799857 0.13838917 -0.0313502 -0.010918505 0.014625773 -0.11042092 -0.054458983 -0.013828492
but 0.09764421 -0.047924727 -0.13399737 0.031506132 -0.012061594 0.09120635 0.008632584 -0.024494926 -0.10549933 0.052084014 0.051765386 -0.11742978 -0.12106006 -0.043959934 -0.011901327 -0.00036999682 0.03040319 -0.014919148 -0.07879331 -0.029770944 -0.012864646 -0.008378873 0.08979738 -0.07592579 -0.040378224 -0.026940478 -0.031753194 0.06904003 -0.11012703 0.037632246 0.050304882 -0.03615607 0.020425456 0.022265878 -0.0011557436 0.002107227 -0.069990024 -0.009937449 -0.04751724 0.0046265097 0.025941266 -0.07342946 0.057646368 -0.010406716 0.05198591 0.037406303 0.037612338 -0.007095586 0.026941305 -0.0128122615 0.021904234 0.008451986 -0.03195809 -0.020151883 0.025398824 0.0145034725 0.05378202 0.016449906 0.07796485 0.061628364 0.020860152 -0.004060548 -0.03310862 0.0029195042 -0.0302987 0.10509659 -0.0071638976 -0.026600717 0.00255661 0.029048333 -0.022491815 0.005472554 -0.00189 -0.006790391 0.012661217
have 0.032741375 0.047327124 -0.063154325 -0.025262099 -0.03350608 0.06646748 -0.012965114 0.01449339 -0.062930204 0.05652544 0.01916867 -0.08699809 -0.0536579 -0.033218604 0.036309127 0.0046749697 0.06528606 0.04762336 -0.08463504 0.016158057 0.020128127 0.016973495 0.017780723 -0.017103044 -0.08749099 -0.09910338 -0.069401786 0.029476708 -0.14189269 0.09597408 0.027731404 -0.026091756 0.020673731 0.08068764 0.037464786 -0.013420511 -0.08336759 -0.08075526 -0.05200942 0.06334004 0.07254106 -0.0008274137 0.038409043 0.015840996 0.05611974 0.034491174 0.017581457 -0.09229354 0.042087696 0.003170256 0.020909226 -0.029309336 0.030388635 -0.0047994205 -0.012010695 0.0048274477 0.09875208 0.052302185 0.003271031 0.06514742 0.051638957 -0.09277445 0.033485748 0.05639281 -0.024530085 0.026458463 0.021721737 -0.046413798 -0.01782861 0.0078080595 -0.052218497 0.023306817 -0.04273036 -0.03362672 -0.059724115
one 0.046870165 -0.0029356198 0.008194571 -0.028146934 -0.011689606 0.05979471 -0.030059623 -0.028357377 0.009008674 0.05138766 0.02964941 -0.11192073 -0.024854705 -0.034626774 -0.04000587 -0.016611993 0.06802515 -0.028710963 -0.052770145 -0.036584835 0.029991757 -0.037726007 0.03130117 -0.045159537 -0.020765575 -0.06838678 0.021021293 -0.0013642064 -0.11809184 0.028624687 0.012764454 -0.022424586 0.0061312118 0.020112174 0.031970795 -0.05671207 -0.046470076 0.025348164 -0.035906456 -0.028738184 0.02397654 0.017229866 -0.03473629 4.2715696e-05 -0.019639546 -0.028297327 0.047206033 -0.0737178 0.018638985 -0.06079424 0.04471842 0.031446204 -0.01704344 0.03097813 0.017152116 -0.064574786 0.0982308 -0.012055285 -0.062993504 -0.008750494 0.02457589 -0.005434929 0.010479592 0.025997015 -0.008423419 0.04634855 0.04415314 -0.064080976 0.03303526 -0.021652447 0.010401011 0.045907903 -0.067606814 0.00011572739 -0.028398655
new 0.06582228 0.046888586 0.04915772 -0.1272402 0.01021485 -0.09018914 -0.012250489 -0.10296577 0.054805618 0.04888977 -0.06025438 -0.06643225 -0.049145207 0.00024211881 0.013558749 -0.09711947 0.012947242 0.006435884 -0.033085115 -0.042567108 -0.05267592 -0.009981441 0.04034941 -0.010747572 -0.030163294 -0.0677596 0.002698485 0.026787177 -0.11998786 0.0066559203 0.035830773 -0.014845509 0.0339121 -0.0034586664 0.03824113 0.025697075 -0.03499809 -0.019740244 0.029304419 -0.04068635 0.040356953 -0.11839296 0.027305823 -0.042183228 0.053750504 -0.017689042 0.04348162 -0.030413186 0.017428732 0.011038608 -0.016536457 0.025467645 -0.08374857 0.012642432 -0.02941443 -0.034863725 0.043763272 0.02830921 0.0042767944 0.036094233 0.05636763 0.07144414 -0.031071993 -0.06734572 -0.028109087 0.02756266 0.026435269 -0.06844275 -0.0056137955 0.029083584 0.03664975 -0.02885447 0.0031762377 -0.09121356 -0.009486947
first 0.03732769 0.002731764 0.026839294 -0.0010401694 -0.044406533 -0.034381352 0.027576322 -0.13809471 0.06846223 0.11988192 0.009682083 -0.06987235 0.034463804 0.016974643 -0.07650639 -0.018062707 0.027413068 -0.032087244 -0.05423858 -0.06446066 0.08420442 -0.02542014 0.07219225 -0.04430712 -0.016123174 -0.05149115 0.0035478664 0.028354324 -0.14711621 0.0046305535 0.011546137 -0.072098725 -0.014916063 -0.018533627 0.015112402 -0.08673011 -0.044793893 0.0547953 0.028634096 -0.051036306 0.0048137796 -0.034784734 0.03824832 -0.017170155 0.06989263 -0.072320886 0.10304423 -0.036838315 0.008447074 -0.042235643 -0.04268454 0.063790105 -0.01867708 -0.049439088 0.051280316 -0.06615514 0.050215397 -0.024591925 -0.05534726 -0.02385227 -0.0052902224 -0.030995198 -0.055993408 -0.0047007524 0.009587187 -0.023896763 0.08241439 -0.05990981 -0.048430964 -0.021387246 -0.087712675 -0.08089245 -0.020872574 -0.014799123 0.005125413
page 0.07353705 0.01001998 -0.033488363 -0.06254367 0.052608266 0.13879742 -0.0074005798 0.10542807 -0.04510387 -0.05140107 -0.026474474 -0.09120643 -0.05363381 -0.04052606 0.040765736 0.008275501 0.0643974 0.0047425316 0.0054370146 0.004545632 0.06513036 -0.018902423 0.026167776 0.055345606 -0.027217805 0.039520536 -0.008560316 -0.0043008127 -0.075651035 -0.07345153 -0.013491131 0.009522513 0.01893116 -0.03548524 -0.0062824646 0.0074652573 -0.0519643 -0.04873982 0.0040006856 -0.0036085784 0.018724158 -0.050746623 -0.017115887 -0.06058733 0.035045616 0.012673634 -0.0036837312 -0.026041772 -0.008908945 -0.008120975 0.036970463 -0.009189858 -0.030276593 -0.039026655 0.046535242 -0.009701363 0.025807764 0.0070538735 -0.03531004 0.0058504576 -0.02768663 0.009473457 -0.024415394 -0.0032265815 -0.007749236 0.017039895 0.0012087952 0.023329232 0.05910755 -0.028593544 0.015502958 0.023950659 -0.01318765 -0.05028729 0.04242856
no 0.06904592 -0.033530176 -0.028141905 -0.06824703 0.10511913 0.009622745 0.008411097 0.0044401414 -0.06486054 0.105246484 0.031089477 -0.020707402 -0.08282307 -0.048689228 0.0136769945 0.0056758667 -0.024560653 -0.0142837325 0.024222601 -0.04905681 0.085558966 -0.14625446 0.06422649 -0.011968604 -0.06499606 -0.039310195 -0.054416973 -0.015619058 -0.045049336 0.029914957 0.015923537 -0.011551884 -0.040907077 0.08993076 -0.039537188 -0.0037474735 -8.847059e-05 -0.061342195 0.05076332 -0.0077415346 0.066575795 0.031991065 -0.004782991 0.003950148 -0.010910818 -1.2974009e-05 0.02123983 -0.002466467 0.02377094 -0.047525212 0.051582128 -0.009688871 0.024774136 -0.04870533 -0.0039847745 -0.010548471 0.07822743 0.0032404428 0.03945149 0.009478098 -0.032823205 0.0541521 -0.036204163 -0.009020524 0.0032048903 0.04843029 0.0063036927 0.026019946 -0.019475065 0.0046743513 0.009193287 -0.03244172 0.008518169 -0.015195993 0.001591145
you 0.098144196 -0.03838357 -0.016820986 -0.02850234 0.012525105 0.20045233 -0.050363354 0.17010468 -0.0926612 0.0016750412 0.03748463 -0.081792094 -0.14022999 -0.09307191 -0.021199279 0.024212828 0.0149748 0.018828878 0.009294684 -0.037251417 0.008958473 0.012249953 0.050204735 0.05529176 0.027910188 -0.08257588 -0.039368115 0.028746367 -0.026835555 0.009785091 0.027380956 0.008244795 -0.061102346 0.07326814 0.06351268 -0.018646112 -0.00025534935 -0.09421951 -0.0623693 -0.017957257 0.004034114 -0.067590006 -0.033052407 0.02378716 0.030612884 0.05568452 -0.029255819 -0.04826525 0.033960696 -0.0029878656 0.026830554 0.0012378931 4.267408e-07 -0.009214083 0.041519903 0.0075970553 0.012275462 0.047615282 -0.11685908 0.038077448 -0.035987567 -0.056806933 0.0068282876 0.00093390286 0.00011086122 0.047631755 -0.008233836 -0.03290657 0.0765822 0.013899578 0.0072381943 0.051898163 -0.0026322815 -0.009768378 -0.0009992092
they 0.08079038 -0.05107434 -0.08832039 -0.011538117 -0.12605663 0.03560308 0.042992864 -0.04176404 -0.051122796 0.042186607 0.012746614 -0.061055325 0.046907302 0.0051026624 -0.029797163 0.026607487 0.07153592 0.021640956 -0.049719207 0.053970102 -0.027647143 -0.027542425 0.00489634 -0.024367137 -0.018600779 -0.1273833 -0.05346893 -0.0130151585 -0.081551276 0.029241685 0.0925828 0.06942132 -0.023622978 0.10620461 0.08068582 -0.009899768 -0.06374767 -0.124865614 -0.09195758 0.03991285 0.06827314 -0.024410432 0.10038119 -0.020751147 0.048823476 0.13828966 0.013255659 -0.07568526 0.052062973 0.027172668 -0.03263863 -0.005944904 -0.003378264 0.011332259 0.05330716 0.028535414 -0.018346073 0.09612064 -0.03246739 0.08263378 -0.032778554 -0.06748745 0.036124773 0.021173693 -0.081725016 0.036016103 -0.019174132 -0.087514766 -0.000328993 0.08211708 -0.0025068268 -0.0018061623 -0.056862887 -0.015890412 -0.01801044
article 0.056365702 0.043298297 -0.046106618 -0.11560457 0.029077206 0.14539266 -0.029936822 0.12885664 -0.060869828 0.013783887 -0.03798882 -0.10774809 -0.0766998 -0.04255337 0.061319545 -0.0261144 0.07159196 -0.0047209724 0.023432106 0.03227887 0.091924965 -0.043237075 0.042323023 0.0012045454 -0.00040246677 0.041038506 0.020786116 0.0015292733 -0.12363276 -0.027078714 0.04058778 -0.099852085 0.043928795 0.00069641595 0.0010072622 -0.03550969 -0.0518111 -0.01949618 0.02648874 -0.027978435 -0.016325446 -0.03694804 0.00030086288 -0.021628762 0.048646763 -0.077335395 0.039636083 -0.058467593 0.017737532 -0.052028727 0.048004866 0.013430073 -0.035653774 -0.017247219 -0.0029108908 -0.06786493 0.023616474 0.028288074 -0.05744306 -0.010522866 0.008209445 -0.037619993 -0.046749856 0.040424157 -0.03208823 0.027952598 0.030697588 0.06098637 -0.019301414 0.0588152 0.027769359 0.0090777725 0.030556196 -0.047832698 0.058325015
who 0.04871263 0.0188094 -0.11026721 0.027034936 -0.0769413 -0.036751166 0.07943325 -0.113087334 -0.028890233 0.047894232 0.001099326 0.029294426 0.026212389 -0.036534123 -0.039447855 0.040030412 0.118167974 -0.04720668 -0.09011315 0.11181298 0.042285025 -0.03056019 -0.047065925 -0.03291609 0.06052357 -0.06897577 0.08594653 0.110944584 -0.09259728 0.023679702 -0.15621667 0.016106004 0.103168264 0.005617964 0.08165107 -0.036161482 -0.05001894 0.013007074 -0.004232926 0.041406453 0.06358639 0.026105048 0.010684335 -0.019261807 0.042684022 0.08982968 0.0382166 -0.065479085 0.07586783 0.013439826 0.0015684671 0.07305244 0.03817975 0.04836565 -0.0005551551 -0.027486758 0.13046186 0.037540663 -0.031306215 0.030221052 0.017401157 -0.008309262 -0.0044995765 0.063119814 0.019262545 0.037753895 0.062013127 -0.01846674 -0.019056978 -0.01954658 -0.08821354 0.039800394 0.010618082 0.012220177 0.040982585
all 0.109315224 0.014733955 -0.0057985205 -0.06710289 0.008360383 0.08177201 -0.056053516 -0.03905551 -0.011422008 0.014495839 -0.012837785 -0.06480138 0.0044616656 -0.018090313 -0.062486283 -0.03710301 0.04494176 0.017440991 -0.07355041 -0.027820738 0.016674273 -0.0399721 0.051394098 -0.019822994 -0.06873505 -0.113101445 -0.009349977 0.0018903313 -0.13367763 0.029539 0.07059182 0.086119756 -0.006654729 0.13005464 -0.014960799 -0.049666293 -0.013724515 -0.032438733 -0.006328784 -0.035227768 0.017316956 0.08282861 0.047415104 0.0289517 -0.018258933 0.020223422 0.0020322446 -0.07870926 -0.022824194 -0.07932334 0.06961202 -0.020923015 -0.0013118893 -0.010515842 0.051562935 -0.09402545 0.08570051 0.0039909524 -0.053116567 0.036907487 0.018125644 -0.017052002 -0.02669916 -0.041670684 -0.008653302 0.082569316 0.03514384 -0.047824144 0.026320757 0.048537318 0.073877156 -0.04979467 0.032949135 -0.012605461 -0.013400693
their 0.10530308 -0.037403334 -0.051879685 0.023497477 -0.06787907 -0.06484099 0.01448832 -0.10684794 -0.003762863 0.06483727 -0.017576817 0.0058554923 0.12605712 0.041969296 -0.03919561 -0.03396949 0.048152626 0.038230333 -0.08397578 0.03376327 -0.081407495 0.0011833 -0.016054368 -0.031029107 -0.06228494 -0.12648225 -0.12067685 0.070719056 -0.10179709 0.03696145 0.075848415 0.06423051 -0.00608552 0.14340796 0.028151065 0.007939033 -0.023179827 -0.106376134 -0.038736563 0.02622037 0.06526253 -0.00021115862 0.11551921 -0.00506771 0.06428798 0.09359401 0.010197518 -0.04955833 0.0670387 0.013698283 -0.08507536 0.0076750065 -0.040049303 0.008436672 -0.004464202 0.030685397 0.051863022 0.09714354 -0.017736148 0.03345778 -0.016082462 -0.02948249 0.031573582 0.0009304017 -0.03698575 -0.022347746 0.018494973 -0.035554588 0.017461682 0.001746766 0.017689439 -0.007894764 -0.057065245 -0.044557985 -0.0066687157
there 0.065826304 -0.017366359 0.0035227987 -0.05836462 -0.012065467 0.09358846 -0.099516965 0.03334377 -0.06940577 0.0524473 0.026217213 -0.09362892 -0.10960836 -0.057760496 0.021607893 -0.02432342 0.07977404 -0.0034823648 -0.022019928 0.021555183 0.07934294 -0.023702633 0.022198709 0.012654187 -0.029654428 -0.1277438 -0.012383624 -0.03846016 -0.10005265 0.024197783 0.0081472555 0.039630383 -0.03046489 0.087879606 0.006772865 0.0053320727 -0.08260667 -0.005222053 -0.011716888 -0.0052657565 0.0013790275 -0.02683772 -0.03981162 0.0006554301 0.017456345 -0.009983267 -0.001391399 -0.0769558 0.023832927 -0.040189616 0.015328531 -0.0807227 -0.014852717 0.017333385 -0.023451257 -0.07074101 -0.0012052333 0.030283736 0.027047623 0.06784121 -0.00993622 -0.015918761 -0.0024173758 -0.046681944 -0.020654676 0.045806985 -0.02824675 -0.027236242 -0.017000187 0.025694903 0.015299231 0.05842523 -0.07044924 0.006245199 -0.03778391
its 0.07555869 0.030731536 0.044388432 -0.06252348 -0.009197197 -0.08490716 -0.025715522 -0.06815414 0.038720056 0.031743545 -0.04520713 -0.084628455 -0.038891505 0.02281309 0.027461633 -0.06561909 -0.021799147 0.030351669 -0.051019084 -0.06283996 -0.105869025 0.021600012 0.1099878 -0.0558736 -0.10581158 -0.024044245 -0.050509743 0.031783246 -0.08573302 0.11821786 0.045966696 -0.0596064 0.074827194 -0.06817357 0.004939311 0.05748452 0.008782811 0.041138463 0.03190265 0.0026435705 -0.06505306 -0.02410396 -0.013894584 0.059628565 0.005911065 -0.06774959 0.028913423 0.010856845 0.0280918 -0.023436548 -0.05922096 -0.0027046767 0.028817285 -0.0021100205 -0.0010167331 -0.012310782 -0.019249544 0.04966083 -0.033435453 -0.006843917 -0.013931273 -0.011982823 0.08911102 0.047093958 -0.06843945 0.042119153 -0.013527615 0.0012708146 0.017056484 -0.012754469 0.01628013 -0.039018106 -0.05648517 -0.013198133 -0.01563271
people 0.12023928 0.017577615 -0.01834 -0.1280638 -0.12988077 -0.04499933 0.023046773 -0.0021205675 -0.028616816 0.11420863 -0.061585926 -0.016564623 -0.015581503 -0.03807118 -0.032069054 0.0036606467 0.060462277 0.012616474 0.016188787 0.12032137 0.09112561 0.0019472705 -0.0073329764 0.01881107 0.04923338 -0.086063795 0.09461278 0.021523716 -0.05113748 0.017837623 -0.028285025 0.0054558725 -0.05785485 0.035726413 0.00319279 0.022628918 -0.05001483 0.05530194 -0.03981227 0.057790224 0.038221017 -0.04521497 -0.02638911 0.020446748 0.035553824 -0.00626136 -0.027584508 -0.05851274 0.054071132 -0.05072037 -0.018820034 -0.06584963 -2.7423748e-05 0.04501356 0.08528175 -0.06009691 0.0012653858 0.056526303 -0.07438802 0.07946507 0.07234566 -0.053135805 0.046997134 0.005749545 0.040024802 -0.030833762 -0.014556141 -0.050621666 0.087766886 0.07628944 0.043951396 0.006967245 -0.053946584 -0.048418567 -0.094692945
may -0.022903917 0.04884063 -0.07314389 -0.013559927 -0.041687064 0.07996514 0.029886136 0.05982225 -0.03665227 0.078566454 -0.015509825 0.0032054652 -0.068591855 -0.057153806 -0.014480109 0.042793307 0.043592904 -0.010573647 -0.010948824 -0.03600596 0.11891001 0.032971814 0.040927682 0.014438157 -0.058861706 -0.064777255 -0.040320456 0.04366893 -0.095993094 0.02425394 0.009261119 -0.0271097 -0.023326067 0.036340013 -0.03328209 -0.0036027837 -0.017932348 0.0072361752 0.047857888 -0.05102555 0.011230132 0.003919391 -0.031906884 -0.044969782 0.013718873 -0.108794585 -0.01828052 -0.009818115 0.06277871 -0.08221601 -0.05548629 -0.03049289 0.017509641 0.033960678 0.01005762 0.026612777 0.023259722 0.016994713 -0.046564493 -0.0055418867 -0.025076304 0.008318019 0.040216796 0.01407096 0.012651665 0.053636793 -0.0021724598 -0.057547126 -0.008645133 0.06560448 0.0118165575 -0.059998207 -0.038628146 -0.040866822 0.023441182
after 0.078144886 -0.0683957 -0.11624414 0.06454078 -0.0879986 -0.1037806 0.092355765 -0.16964343 -0.033352014 0.008813719 0.025716614 -0.00814714 -0.025546692 -0.039881606 -0.06596637 -0.05580427 0.040122617 -0.041737568 -0.030282037 -0.06714106 0.08305723 -0.019505793 0.12783648 0.0074248407 -0.027059397 -0.09658439 -0.006344396 -0.01940858 -0.10895286 0.012692401 -0.027434994 -0.070524395 -0.041087274 -0.073490106 -0.0077711367 -0.01981665 -0.036814533 0.022296332 -0.008923366 -0.057428215 0.010584207 -0.12057256 -0.02353723 -0.107631266 0.09342955 -0.02078763 0.0134552885 0.006110284 -0.0010171909 -0.026281519 -0.03405892 0.013435636 -0.041147646 -0.055155348 -0.019620974 -0.02318446 0.04971413 0.0043396116 0.038418192 -0.032340262 -0.04973695 0.0039550397 -0.045667708 0.028699514 -0.0016159579 -0.00842523 0.012668056 0.021479802 -0.0024962085 -0.00047279458 -0.007782799 -0.032803413 -0.09070686 0.011756927 0.019335916
other 0.04299547 0.035016738 -0.0014875301 -0.071349554 -0.071054645 -0.013809637 -0.023921264 -0.048058964 -0.027023382 0.07475297 -0.029512778 -0.04788043 -0.07166906 -0.023058355 0.008692256 0.010339736 0.050792877 0.025860077 -0.09360354 0.04615737 -0.011879898 -0.028744914 -0.0068984693 -0.015256698 -0.045313433 -0.12200971 -0.05500565 0.07171653 -0.145435 0.023948163 0.032348882 0.048161805 0.065629885 0.09383681 -0.035925016 -0.024216138 -0.07414894 -0.0748469 -0.05221173 0.06671076 0.055009786 0.020505138 0.057419453 -0.04832829 0.02695453 -0.038197037 0.07536991 -0.027815841 0.0098582385 -0.04206877 0.030717192 -0.0065920325 0.014543314 0.07240959 0.016787874 -0.015800709 0.038000945 0.07240696 -0.07831139 0.044789497 0.048209522 -0.00037084546 0.06744602 -0.0048863487 -0.031896546 0.026376897 -0.047673058 -0.06131438 0.048644833 0.015097531 0.017355585 0.025255347 -0.10026547 -0.02647483 0.037183166
should 0.08388222 0.01811633 -0.0772189 -0.0030383582 0.031461503 0.060429413 -0.03363854 0.058426734 -0.093497224 0.024068424 0.014330653 -0.06000442 -0.0631267 -0.0677549 0.0241899 0.030691452 0.045537673 0.042419326 -0.009862724 -0.014630221 0.0075050276 -0.026468351 -0.013009002 0.021152122 -0.04092656 -0.033196636 -0.044968426 0.03241112 -0.038395263 0.020051144 0.050088897 -0.0049264156 0.012786215 0.014990178 0.036241718 0.008987612 -0.02339954 -0.065590985 0.016132405 -0.003842925 -0.012582092 -0.020462854 -0.007854641 0.042446215 0.10116535 0.0015453246 -0.00044435874 -0.03969846 -0.0034931374 -0.006462605 0.035177767 0.04789755 -0.046406176 -0.0010166431 0.01688211 0.007826557 0.03200159 -0.010153736 -0.014443259 0.04384339 0.012320236 -0.027724147 0.023557214 0.029753895 -0.047323126 0.07263076 0.047523115 -0.009126625 0.034961686 0.014319264 -0.02403999 0.015132759 -0.005453303 0.014447677 0.0006347508
two 0.02238003 -0.03349913 0.0006968522 0.057768766 -0.048217684 -0.006395106 -0.0119965235 -0.07105176 0.039956823 0.03013004 0.08478855 -0.082358174 0.010303151 -0.014171336 -0.066243544 -0.053443886 0.027681356 -0.058115188 0.000632693 -0.04716802 0.04022744 -0.0056947214 -0.022129634 -0.07425652 -0.04508194 -0.069935925 0.0033727644 -0.058558017 -0.10233507 0.038421176 0.056721877 -0.007550448 0.04248763 0.050278995 0.008787764 -0.030495865 -0.060986314 -0.05285869 -0.041193526 0.0053073526 0.015354674 0.045803417 0.048752747 -0.044777837 0.052059136 -0.0784951 0.020693533 -0.022628888 -0.05086806 -0.03148217 0.04481852 -0.030546473 -0.0144133 0.023286896 -0.0038996448 -0.044499055 0.015117529 0.049332842 -0.07651134 0.020680495 0.023233037 -0.033528622 -0.023296375 0.008123883 -0.08530374 0.043004423 0.025219938 -0.04290767 -0.018912978 0.007301629 -0.026469558 0.011149802 -0.09369045 0.009767179 -0.026895909
score 0.028816357 -0.025425348 -0.012696114 0.14284831 0.0053884154 -0.0037869606 -0.03041549 -0.07705108 0.043041993 0.029930007 0.043629277 -0.10311235 0.13058186 0.0064439294 -0.07674749 -0.061488926 -0.007571386 -0.04422057 -0.007769361 -0.03815073 0.06200402 -0.01510372 0.07785291 -0.061828203 0.0024443797 -0.07197462 -0.05605375 0.036707945 -0.020358887 -0.039205093 0.021404179 0.011564878 -0.017225761 -0.0820564 -0.07872945 -0.0051151426 -0.0033213156 0.020370223 -0.03661631 0.066149384 8.101252e-05 0.027224734 -0.0064291805 0.03349794 -0.08320835 -0.12050307 0.108469814 -0.01069454 0.06330262 -0.055848386 0.021259248 -0.00214537 -0.05727257 -0.022385564 0.010306104 0.0102832075 -0.02116584 -0.023201197 0.036614683 0.0048877816 0.026042696 0.03366482 -0.046716146 -0.027510878 -0.049057752 0.016755285 0.051915094 -0.013060366 0.008002795 -0.065948546 -0.07976123 -0.038021173 -0.021430407 -0.016185509 -0.06856936
her 0.008880617 -0.06580241 -0.00091789704 0.08876451 0.013425428 -0.12456108 0.022816379 -0.15189274 -0.03656352 0.00042725366 -0.04627974 0.12394572 -0.050071586 -0.025220662 -0.07697353 0.011778929 0.259193 -0.091936596 0.10398065 -0.06300054 0.072702244 0.06633286 -0.021414757 -0.037656397 -0.04185246 0.13511316 -0.090939224 0.034485634 -0.031292588 -0.00036665495 0.054685898 -0.02169739 -0.028449308 0.03593985 0.063734844 -0.029172901 0.009534322 -0.03989351 -0.04428505 -0.024492308 0.06657285 -0.03506269 0.083021216 0.019529747 0.04278611 0.010886589 -0.049538985 0.03622107 0.0059959977 -0.034430575 -0.02715533 0.021444242 -0.006361757 -0.03159508 -0.029206663 0.010437693 0.012700853 0.011002109 -0.015303735 0.0059750574 0.016554084 -0.006035748 -0.0016630894 0.054649424 9.4101044e-05 -0.037961707 0.01698481 0.027306242 -0.021986648 -0.025685165 0.033861138 0.015668433 -0.032889567 -0.05960317 -0.015498229
can -0.025823973 -0.025452102 -0.00766027 0.036084305 0.032437384 0.060978264 -0.056064248 0.07427128 -0.06071271 0.04951439 0.05589265 -0.037495777 -0.15695041 -0.024132125 0.024604473 0.020202674 0.03498253 -0.003012155 -0.13757324 -0.02255126 -0.050908804 0.04022145 -0.026780168 0.0063286163 -0.031447947 -0.098166 -0.10477744 0.032955166 -0.07848491 0.05262556 0.05030877 0.10824399 -0.050824635 0.0782695 0.004158187 -0.023798812 -0.014654603 -0.033493236 0.021124452 0.0019763059 0.01681844 -0.03355138 0.003881146 0.00886087 -0.00010718627 0.025643319 0.023220904 -0.046885584 0.041907217 -0.03796322 0.026082115 0.012972982 -0.045300554 0.043973662 0.0054094093 0.014702304 0.030778054 0.06051982 0.029935742 0.044601686 0.0012378271 -0.02349219 0.016053518 0.056603212 0.0045934054 0.055363595 -0.005042245 -0.05236769 0.029029775 0.009652945 0.01307729 0.047034875 -0.04185176 -0.0049596475 -0.0041920487
would 0.17725484 0.0015291672 -0.11184744 -0.0014137181 -0.015373152 0.014513148 0.027392203 -0.030409394 -0.061669167 0.02448091 0.024703909 -0.08568311 -0.033566575 -0.037671063 -0.028680047 -0.015945803 0.03394114 -0.0057524517 0.004655646 -0.012502812 -0.017438967 -0.0232344 0.06316894 0.00056462403 -0.060452968 -0.065080136 -0.09002404 -0.0017139674 -0.07455339 0.070040874 0.034576245 -0.063071035 -0.017549649 0.036622167 0.042975694 -0.01643988 -0.049647268 -0.054735966 -0.032944556 -0.008694174 -0.0053287065 -0.049471963 0.0062685604 -0.02695624 0.06529856 -0.01796302 -0.0066180844 -0.07795392 0.01195188 0.002843649 0.010487646 -0.0058380035 -0.04759017 0.021378545 -0.010563361 -0.042477187 0.14752644 -0.019248342 -0.057117023 0.011762072 0.019887103 0.007502688 -0.08177204 0.04537123 0.014966409 0.053660713 0.009425649 -0.046940807 0.05417298 0.039002106 -0.025589896 -0.02290939 0.043947678 -0.0029002193 0.06626827
more 0.054597322 -0.0028833682 -0.029566014 -0.0071644704 -0.030028637 0.015984423 -0.06529823 0.00085993327 -0.046343558 0.083078824 -0.025239024 -0.100180164 -0.026841855 0.006402904 0.0371478 -0.029899193 0.0035509549 0.03783826 -0.034353465 -0.020531686 -0.027146572 0.01462952 0.032698054 -0.06844325 -0.0183605 -0.022829957 -0.053048633 0.10568313 -0.08241226 0.012921972 0.026458351 -0.01973959 0.0071667465 0.044250414 0.017185718 0.012550827 -0.03252123 -0.009702589 -0.005695695 0.050618242 0.026067961 0.006527802 0.038428653 0.079631686 0.028022554 0.013580467 0.045371346 -0.03561682 0.055409145 0.01777621 0.030948503 -0.008049212 -0.00759371 0.012387401 -0.03239077 -0.05594239 0.071694694 0.03842872 0.012642807 0.032031562 0.015575415 -0.00300183 -0.01177882 0.017948296 -0.0151845915 0.022648849 -0.038878657 -0.052518904 0.081196845 -0.007397319 -0.0043832143 0.068130836 0.012450752 -0.009848089 -0.02405519
if 0.051626157 -0.035587534 -0.10642051 0.0075637824 0.032043103 0.15706033 -0.04138583 0.065425284 -0.13725947 0.015135207 0.093873665 -0.0638869 -0.1472204 -0.049287833 -0.020607922 0.029750925 0.0981775 0.06867342 -0.077342056 -0.09750474 -0.050801966 -0.04676483 -0.033559337 -0.04265029 -0.05513785 -0.05795828 -0.03431711 0.010410135 -0.056024764 0.07429711 0.087033875 0.015785009 -0.090865985 0.014473862 0.02449732 -0.06650378 -0.093655385 -0.029950654 -0.022191204 -0.06310279 0.0068241293 -0.0052373023 -0.047942556 -0.028756443 0.02682259 0.07583271 0.053638063 -0.045423344 -0.0057924343 -0.068057224 0.021851761 0.005398968 -0.08422962 0.011245748 0.025120486 -0.009061092 0.05115369 0.018469023 0.035187144 0.07643696 -0.0022451454 -0.03410724 -0.014052546 0.044897985 -0.015033367 0.043962717 -0.007890284 0.07066501 0.021849966 -0.0046867533 0.004111698 0.045694698 -0.010322987 -0.044389233 0.022960251
she 0.018157836 -0.055803634 0.012942117 0.063865475 -0.00991703 -0.1192729 0.05062047 -0.15439835 -0.051159352 0.045835353 -0.079235256 0.09143144 -0.06872766 -0.013569099 -0.06963189 0.026711889 0.24617803 -0.052453354 0.09539898 -0.07690517 0.11503027 0.03717134 0.011619582 -0.083102226 -0.010344948 0.106188215 -0.033990182 -0.006637103 -0.0437612 0.012798072 0.0581094 0.0026097377 0.0133897485 0.035624813 0.09611805 -0.035028834 0.026264464 -0.008876274 -0.05588105 -0.01859703 0.031899497 -0.05025045 0.05009835 0.021327788 0.03112877 -0.0044903564 -0.042084906 0.05707779 0.008250133 -0.072341494 -0.040862653 0.010370125 0.042666595 -0.034827434 0.020166058 -0.03045563 -0.02383103 -0.010616757 -0.0043333564 0.03645773 0.03949091 -0.037040293 0.04108023 0.034390807 -0.00058479136 0.023723528 0.048961107 -0.010590977 -0.031063695 0.005555062 -0.032993004 -0.0036376177 -0.034510255 -0.04814578 -0.02242801
about 0.06307933 -0.0007027125 -0.0028507072 -0.12097438 -0.054482967 0.005452815 -0.046165656 0.04550094 -0.085431635 0.028521353 -0.024393544 -0.038275037 -0.20145248 0.000206845 0.034335658 -0.07373508 0.08297716 0.044087738 -0.02039799 0.0673802 0.06969836 0.026057381 0.05524347 0.0049887677 0.014395847 -0.04532674 -0.015760861 -0.023077957 -0.08329291 0.036697127 0.0004895063 -0.056762714 -0.050236832 0.045827433 0.018083375 -0.020826686 -0.06987547 0.054141477 -0.08705201 0.077207856 -0.0012329294 0.06666744 0.027229602 0.041288234 0.05344016 0.018777136 -0.006088189 -0.051732115 0.0027145692 -0.032619566 0.027827011 0.003892777 0.015650896 -0.015824063 0.0028245845 -0.024637705 0.033966273 0.037174318 -0.08656504 -0.016605658 -0.011042301 0.022968363 0.03733281 -0.00800313 -0.053767547 0.011842677 -0.008565728 -0.032840256 0.015049707 0.0058460017 -0.0009700912 0.044565164 -0.0058941804 -0.0036349944 -0.07264993
when 0.085089326 -0.069917165 -0.08191183 0.06466747 -0.055172212 -0.071966685 0.056704342 -0.11893812 -0.0917868 -0.0019018243 0.084013864 0.0016649358 -0.12686703 -0.048320554 -0.05608446 0.00910178 0.03432022 -0.013851292 -0.039938107 -0.052996423 0.0077338363 0.0058151465 0.034204938 0.00062756275 -0.010372287 -0.050752416 -0.039346647 0.03920652 -0.08101113 0.027225833 0.01799599 -0.037435893 -0.035730664 -0.040831596 0.029701747 -0.057620645 -0.035920985 0.04382484 -0.07561073 -0.012439406 0.020819519 -0.065829664 0.03815456 -0.108993866 0.10066112 0.06677585 0.017238965 -0.015302323 -0.068010524 -0.009988418 0.02128844 0.012784279 -0.040357817 0.0060675237 0.011814553 0.029457878 0.0037294049 0.03754057 0.0689648 -0.02071655 -0.035067286 0.05719252 -0.06453206 0.019037325 0.082016066 0.047473833 0.028552137 -0.010099352 0.02776764 -0.0011585997 0.046800517 0.0066806115 -0.06350109 0.008648974 0.031951725
time 0.08381058 -0.034688096 -0.02548108 0.034470074 0.0019036172 0.026820742 -0.00067574566 -0.07734802 0.00044334587 0.022808261 0.031225953 -0.09867313 0.0075416844 -0.002164975 -0.06135999 -0.045360032 0.08195403 -0.042658214 -0.03207709 -0.05971444 0.029187676 0.009927215 0.09281452 -0.022120297 -0.043913573 -0.13533188 -0.028002165 0.06451495 -0.12621477 -0.0047169747 -0.034773346 -0.04006915 -0.10576664 -0.016167702 0.020771721 -0.023568194 0.012435344 0.05826964 0.010996812 0.008275013 -0.011834211 -0.041800093 0.0095250895 -0.06958565 -0.010187008 0.022354813 0.012651295 -0.07688134 -0.012935558 -0.057361547 -0.0027351896 0.063571244 -0.07523309 0.061203294 0.011136779 -0.054022934 0.022360232 -0.005294439 0.09655281 -0.033036463 -0.0103950845 -0.0057438402 0.01003114 0.015988005 0.02195685 0.07690279 0.022433478 -0.04444999 -0.002204022 -0.010389607 -0.05316727 -0.012868447 0.007179511 -0.056787413 0.03554942
team 0.06718828 0.008467698 -0.13004434 0.065098315 -0.09060334 0.04043805 0.12880509 -0.16241713 0.011675523 0.08898174 0.037422273 -0.10128656 0.1616869 0.0029543398 -0.12434808 -0.06397606 0.10719201 -0.11682069 -0.14341338 0.064937264 0.107296415 -0.00022966076 0.11670324 -0.06594513 -0.011514554 0.025561478 0.11723467 -0.014698775 -0.024686413 -0.032557514 0.012159536 0.010241837 -0.031193858 0.0022971253 -0.029756028 -0.0190036 -0.031489704 -0.037602607 -0.03513755 0.073007725 0.03345635 -0.023112798 0.014469142 0.02062728 -0.051724486 -0.01795376 0.10079103 0.032715905 0.011034322 -0.02315929 -0.06087623 0.07991538 -0.005817198 -0.051390365 0.053322017 0.010042183 -0.087979615 -0.0048549953 0.040361006 0.0073290626 -0.039744 0.0584169 0.0064196433 -0.045885824 0.052023504 -0.018131655 0.020376602 -0.00042027753 0.0030552312 -0.046337515 0.048060615 -0.02695002 0.05378183 -0.08479892 -0.07677595
such 0.025771819 0.045222647 0.06755761 -0.011088965 -0.07482748 -0.084802225 -0.049688797 -0.04457464 0.009242357 0.10645165 -0.0015475792 -0.047409005 -0.06951342 -0.014430204 0.047905557 0.004544798 0.0036825114 0.05118122 -0.06626714 0.031202516 -0.07432446 -0.01461845 0.016049553 -0.014704077 -0.013004211 -0.10489242 -0.049343545 0.053389903 -0.07038945 0.020590413 0.043584745 0.0027928224 0.019564714 0.060203042 -0.025919309 0.0012537827 -0.07246637 -0.019014679 0.016096504 0.029439293 0.035482023 0.032503493 -0.048489016 -0.007575475 -0.0063637053 -0.04528887 0.031858377 -0.049848158 -0.022448622 0.0012217609 0.005404986 0.0047192224 0.0059081707 0.0693999 -0.02181986 0.02011613 0.01230571 -0.0018033428 -0.030805938 -0.0045900894 -0.0052455543 0.010760237 0.05197786 0.06288003 -0.0058616833 0.034255423 -0.041845214 -0.018140256 0.100096144 -0.00059002114 0.003038329 -0.0014220984 -0.06246214 0.002500112 0.005902749
do 0.16810217 0.030149274 -0.02952479 -0.060023848 -0.014853087 0.066759184 -0.08517694 0.039830316 -0.10860652 0.065295175 0.05889325 0.0014202255 -0.0827209 -0.004548429 0.008273723 0.039912872 0.019256944 -0.027665501 -0.08120772 0.020172173 0.027106943 -0.04052239 0.00036536867 -0.03411614 -0.046810508 -0.07824565 -0.009049854 0.039735004 -0.0353991 -0.031600572 0.02871252 0.00066764397 -0.03885837 0.016965708 0.12696956 -0.008698954 0.008228865 -0.09212714 -0.07407435 -0.073949985 0.08957253 0.010842618 0.021818973 0.09400531 0.07565416 0.011797361 -0.056345236 -0.034829713 0.10085899 0.09578248 0.14931622 0.029106116 0.02436067 0.016470423 0.13823576 0.027524278 0.0033912605 0.00867215 -0.023378054 -0.061483443 -0.12051475 -0.0582987 0.008366847 0.08902432 0.02248486 0.060097065 0.009429922 -0.09096761 0.014274885 0.049847655 0.0030102325 0.01585565 0.017736424 0.01802026 0.053265225
discussion 0.07426079 0.010957194 -0.07829983 0.0017749841 0.041562147 0.0755243 -0.06049343 0.0537531 -0.07914892 0.003277888 -0.005121209 -0.07414644 -0.034636486 -0.043084264 0.032709304 -0.031353835 0.056140237 0.006323593 0.022559375 -0.018305914 0.02877455 -0.0041136537 0.031911653 0.032653812 -0.010389672 0.03174208 -0.025220012 0.0023060269 -0.012634078 -0.044102833 -0.0042630904 -0.0070615653 0.03991809 -0.02384888 0.049465902 0.030702379 -0.022959197 -0.09960388 0.009419477 0.017905356 -0.04019347 -0.055101823 -0.030286573 -0.0030413964 0.056207266 -0.032325726 0.004227508 0.0029922428 -0.038579233 -0.014317844 -0.03880745 0.0033666445 0.02432484 0.039651725 0.0004576029 -0.02918339 -0.05017948 0.0038566305 -0.014937051 0.001430376 0.016722541 -0.028640902 -0.006784389 0.00043330272 -0.0119337635 0.0204604 -0.015406581 0.050631855 0.020565985 0.024315849 2.7041115e-05 -0.02182507 0.0051042177 0.014293412 -0.042234328
only 0.048474956 -0.014650171 -0.08641252 -0.03141634 0.008421883 0.09464533 0.0036432615 -0.028409129 -0.060609348 0.03825392 0.0055894563 -0.10807725 -0.057158437 -0.0335735 -0.065968424 -0.02645501 0.06854472 -0.067154385 -0.06958348 -0.06298807 -0.011134812 -0.029566288 0.03370855 -0.025214255 -0.039032977 -0.11114274 -0.022867793 0.026532551 -0.12519725 0.040401485 0.04738866 -0.020647746 -0.014105753 0.03252155 -0.01574558 -0.037257 -0.10569709 0.000273522 0.033340886 -0.042076297 0.019200858 -0.0032049774 0.061358947 -0.041399658 0.030178828 0.006959896 0.03225938 -0.10310677 0.055297565 -0.079529375 0.0650937 0.054408934 -0.0742018 -0.0029965015 0.011298025 -0.0121698445 0.12799253 0.02945894 0.020592084 0.028114816 -0.0046645263 0.04639983 -0.01145091 0.006720577 0.011057168 0.09867565 0.052075583 -0.011831611 -0.0018569716 0.018193452 -0.062087517 -0.007929856 -0.04888985 -0.012399117 0.009116971
some 0.06891203 0.006129715 -0.0030532703 -0.051008996 -0.04230911 0.043917183 -0.06653401 0.032290578 -0.031671252 0.061175603 -0.02926181 -0.093349 -0.070267774 -0.023512674 0.05035031 0.012141964 0.013213466 0.048000503 -0.04642474 0.025285905 -0.0169191 -0.041441273 0.04500259 0.00249771 -0.015946753 -0.09556682 -0.07613577 0.058709845 -0.10661401 -0.016831852 0.03144742 -0.0055670734 -0.026206864 0.08807318 -0.030176764 -0.025272267 -0.100033745 0.014614615 -0.05662227 0.07799391 0.04152193 -0.025865076 0.029549139 0.0256895 0.01309534 0.036540214 0.022334445 -0.015326908 0.025465593 -0.028729038 0.02374724 -0.02121556 -0.013609484 0.03944956 -0.017731149 0.0015377215 0.059993107 0.053889256 0.014113731 0.03139676 -0.0020152729 0.023301382 0.036012616 0.03539095 -0.0075825755 0.027503928 -0.05445058 -0.09484707 0.01607881 0.017359257 0.003974885 0.012106518 -0.050143514 -0.012419491 -0.02443027
up 0.10100778 -0.059626315 -0.0089402655 0.013606116 -0.10500214 0.03838782 0.026634125 -0.058265127 -0.06666108 0.03380486 0.004982575 -0.08029174 -0.054270294 -0.03503945 -0.016686186 -0.040653117 0.040526353 -0.032528765 -0.05768013 -0.016961671 0.027218478 -0.011823407 0.06597621 0.029087478 -0.044823505 -0.036948875 -0.00064201595 -0.03924442 -0.0635377 -0.0024698977 -0.03615678 0.06232219 -0.042779516 0.07364193 -0.005723473 -0.056565195 0.025111854 0.0007184026 -0.10252605 -0.04602576 -0.02829474 -0.083173685 0.08422095 0.016724769 -0.011026771 0.010841556 -0.005709382 0.0090298895 -0.027646933 -0.039605748 -0.007897313 0.026633482 0.014603291 0.047788147 0.01813504 -0.01623615 0.03347384 0.061799545 0.030422265 -0.03306312 0.021046977 -0.00586654 -0.009547823 -0.020260131 -0.07795228 0.0021304635 -0.0046872604 -0.0079196105 -0.012891117 0.014164618 -0.00066901126 0.023884093 0.04682989 0.048519563 -0.020631926
see 0.04620322 -0.021946648 -0.0069096074 -0.10984035 0.02210143 0.12190161 -0.029720513 0.09126577 -0.041853137 0.013930074 0.056140702 -0.057359222 -0.15327795 -0.089322895 0.014105063 -0.017054193 0.060498007 -0.05690822 -0.02970963 0.030849539 0.109381154 0.01966168 0.07058737 0.053091876 -0.014505409 -0.048537906 -0.016161045 0.047127627 -0.11227834 0.06841659 0.021065552 0.0017592072 -0.009118494 0.06714857 0.010885386 -0.055110723 -0.019782605 -0.0061763795 0.013982112 -0.02901912 0.010148738 -0.0071295276 -0.029472647 -0.027184954 0.040875714 -0.03648533 -0.039140046 -0.017841812 0.041616634 -0.005096061 0.074207075 -0.018807987 -0.023223804 0.033405352 0.120356925 0.040188406 -0.00071029965 0.08988984 -0.030680498 -0.02899546 -0.06473041 0.023271346 -0.014817618 -0.047891486 -0.035245094 0.03286883 -0.03067085 0.029517468 0.100918226 -0.0072022486 0.09155258 0.042493094 -0.017121846 -0.06487904 0.005785492
into 0.07992409 -0.08155314 0.012932711 -0.01971754 -0.052610066 -0.12462476 0.014447621 -0.08293553 0.0036579405 0.03136207 0.055696014 -0.029971428 -0.10808078 -0.0014715038 -0.015449569 -0.05458541 0.007014111 -0.020762404 -0.09270152 0.038114514 -0.025633672 -0.025015984 0.044227544 -0.010038155 -0.025690278 -0.04596657 -0.009987476 0.00020916926 -0.058599852 0.008283308 -0.0019920224 -0.013628336 0.020960452 0.004989089 -0.06091722 -0.030725343 -0.024090497 0.01785495 -0.04119197 -0.043381207 -0.01357888 -0.09411239 0.121978365 -0.007235437 0.018645948 -0.029162025 0.06872463 0.019281663 -0.035994925 -0.04449225 -0.027993474 -0.0435532 -0.014978338 0.0032227985 0.03865651 -0.07314183 -0.014520184 0.08915908 0.007779725 0.062470276 0.015328984 -0.014449775 0.003393619 0.07084826 -0.08866562 0.109242976 -0.0016065582 -0.009023628 -0.012464012 0.05725814 0.061643094 -0.054596316 -0.06318155 0.0786348 -0.013892177
school 0.05016817 0.09026089 0.049530704 -0.10438476 0.0039602066 -0.11503291 -0.068609245 -0.09376378 0.03001476 0.09104537 -0.08535622 -0.0029239133 0.06321414 -0.11866423 -0.09471844 -0.037219156 0.08735792 -0.07849799 -0.07093161 -0.04414544 0.15381393 -0.034152765 -0.033341244 -0.043299135 0.025285102 0.0072021824 0.12543789 0.031087236 -0.084768385 -0.04698734 -0.12852618 0.08171608 0.025646342 0.0028278339 0.0671507 -0.02993155 0.03116296 -0.016840484 0.0012193363 -0.014081848 -0.068031974 -0.039552838 0.0012925385 0.056421958 -0.0066654547 -0.019991191 0.0329202 -0.024838079 0.042835087 -0.027111514 -0.012697183 -0.06622176 -0.03563218 -0.043780964 -0.03082367 0.034720104 -0.042615633 0.011933257 0.07227242 0.009409368 0.035032455 0.036941122 -0.057325203 -0.020317174 -0.06913224 0.010014157 0.01237608 0.01369246 0.066720895 0.007856655 -0.029683467 0.0355023 -0.08480705 0.038091764 -0.022497812
so 0.06376036 -0.11043552 -0.03599445 -0.012541102 -0.0049187113 0.11769223 -0.042644314 0.040382423 -0.15761372 0.015832167 0.09235799 -0.09991128 -0.12667044 -0.06585662 -0.010148219 0.03691783 0.014035517 -0.044477798 -0.04758265 -0.033401802 -0.024180254 0.019653264 0.078996345 -0.03915666 -0.012913797 -0.045332346 -0.078296594 -0.0018914627 -0.08622679 0.052390825 0.0116236 0.014524925 -0.040190253 0.07313717 0.062195264 -0.023464853 -0.036855042 -0.039141417 -0.046846826 -0.006093457 0.045800064 -0.053311426 0.05713483 0.03348739 0.014073363 0.04344197 0.022455476 -0.07307633 0.03871812 0.0009643182 -0.010966104 0.023303848 -0.013754961 0.027703624 0.08520905 -0.06416661 0.08016468 -0.009549837 -0.033845033 0.04953001 0.03095272 -0.0008211715 -0.01784267 0.041196484 -0.002708878 0.016545301 -0.033069782 -0.031301662 -0.008461351 -0.009747541 -0.018465258 0.056285664 0.051790986 -0.0117985625 0.014851061
world 0.04599309 -0.06779983 0.030676894 -0.06488934 -0.019328171 -0.07061315 0.020160867 -0.14514259 0.045085147 0.08645039 -0.0877797 -0.058196142 0.0590214 0.12609614 0.038608603 -0.10211245 0.02555183 -0.0064512077 -0.0945499 0.051021438 0.05004594 0.007555981 0.08818514 -0.016218796 -0.008624561 -0.0021725355 0.0068530063 0.012146018 -0.08380039 0.05019953 0.0909289 0.015076161 -0.07633771 0.039917428 0.013532972 -0.04898391 -0.032721087 0.07216526 0.002504909 -0.012978397 -0.024812637 -0.017114807 -0.032090586 -0.0069759493 -0.019572994 -0.043971118 0.11456325 -0.022605678 -0.04430768 -0.08496202 -0.025821155 0.07024103 0.0012124683 0.0019279472 0.087350346 -0.13251542 0.08195275 0.0032663387 0.021554854 -0.019635422 0.013690358 -0.048323307 0.08281678 -0.071386434 0.008474711 0.08285434 0.11725521 -0.06064137 0.007369625 0.059280787 6.1869345e-05 0.060344636 0.04225917 0.028397838 -0.04149154
during 0.088678844 -0.05895983 -0.05707591 0.06632342 -0.13377863 -0.22217298 0.057751186 -0.19823329 0.052066565 0.024876414 0.0044784825 -0.0008858157 0.04929135 0.036084674 -0.023101637 -0.06347642 -0.03246236 0.059764527 0.011809737 -0.04459701 0.10405318 0.034128692 0.06879942 0.0032812771 -0.06985561 -0.093827575 -0.0521366 0.010035998 -0.13298507 -0.022577602 0.036783244 -0.07036284 -0.020390116 -0.021376833 0.006360604 -0.0012833073 -0.01044103 0.045680556 -0.047395 0.020205053 -0.060537633 -0.04900447 -0.010241267 -0.041098535 0.042122565 -0.06036088 0.0021973425 -0.019002313 -0.034620956 -0.06679293 -0.04874578 0.0025771551 -0.039501064 0.01630105 -0.006840176 -0.015705377 -0.0054166284 0.0037244984 0.059894767 -0.019481685 -0.07250312 0.05339307 0.008124767 0.032635666 0.06902944 0.013516928 0.022514794 -0.017001266 0.013403621 -0.0050088293 -0.045932125 -0.049638573 -0.092490055 -0.00299376 -0.039862785
out 0.12240206 -0.09727346 -0.054424915 0.0334603 -0.09150014 0.013732074 0.017232876 -0.06965217 -0.070630774 0.021148052 0.042738277 -0.062812775 -0.10253181 -0.02777909 -0.028121684 -0.03832757 0.015353875 -0.032177474 -0.06457681 -0.011693062 0.009011945 -0.020507889 0.052388366 0.047073286 -0.0016311643 -0.03222877 -0.0041918242 -0.0208707 -0.05513067 -0.030828172 0.032354176 -0.0020973398 -0.024802601 0.0022780297 -0.005562642 -0.06333677 0.002997941 0.009002282 -0.106661044 -0.03190654 0.028583467 -0.03600998 0.033967 0.027908206 -0.027637878 0.01934176 0.007604168 0.014539766 -0.043316174 -0.02521069 0.0076997713 0.021697719 0.017919565 -0.003970765 -0.016281072 -0.07809085 -0.0032010518 -0.008001217 -0.0064162244 -0.027391545 0.039152898 -0.0024815262 -0.028969906 -0.022528082 -0.056156542 0.044644702 -0.003579735 -0.022597145 0.05531302 0.04245378 0.02718082 -0.0159647 0.006802096 0.04095327 0.010760929
state 0.03030284 0.13082354 -0.056489322 -0.1317673 -0.12675238 -0.17656241 -0.050620493 -0.08089882 0.005671691 -0.013936205 -0.005362778 -0.049383283 -0.012307264 -0.026214916 -0.1397895 -0.040288188 -0.0039133728 -0.0029710492 -0.03849748 -0.02803076 -0.011875112 -0.01231696 0.045890406 -0.030911818 0.041871633 -0.022616649 0.011106994 -0.051357202 -0.10170545 0.1146483 -0.106878206 0.028802965 -0.05461024 0.026487855 -0.061238218 -0.05163797 0.046817888 -0.087460384 0.0026480313 -0.0955842 0.030506305 0.00452152 -0.046544377 0.024659768 -0.055662237 -0.07886719 -0.01847629 -0.0469613 -0.010821791 -0.04413959 0.10105011 0.050723538 0.054886073 -0.11185429 0.012378633 0.06075011 -0.08017257 0.006575651 -0.06463123 0.019479038 0.028674603 0.061467342 0.02054613 0.017439213 0.022914326 0.048363794 -0.0035479525 -0.020985408 -0.09413596 0.09073612 -0.012213228 -0.09725822 0.067254715 0.05796071 0.048270702
national 0.08968879 0.12409927 0.044615347 -0.06313712 -0.10545482 -0.13072558 0.04954863 -0.12046617 0.029994123 0.1596474 -0.09583712 -0.07703653 0.046645056 0.04228644 -0.07819415 -0.029409604 0.014709339 0.018076599 -0.06108442 -0.023910971 0.052974466 0.007964122 -0.002238613 -0.0328786 -0.065895766 0.04496914 -0.04002334 -0.057200234 -0.11268718 0.08713216 -0.07190765 0.038404286 -0.0105068935 -0.06425503 -0.04427807 -0.026582217 0.027414924 -0.02109409 -0.022248939 0.06429869 -0.066879496 0.0114270365 -0.070389666 0.027469214 0.016331043 -0.112981 0.036291417 0.00947452 -0.009869886 -0.09273546 0.037485078 0.024307422 -0.018611237 0.012668791 -0.010134299 0.0074774493 0.030798435 0.00967326 -0.011701216 0.031472523 -0.011099787 0.02187125 -0.02901337 -0.027641807 0.020082697 0.00016712937 0.046539217 -0.025327405 -0.013214994 0.021345891 -0.0056918217 -0.038746852 0.034534898 -0.015728775 0.008094993
year 0.08508486 0.027410783 0.020021787 -0.030523786 -0.039761156 -0.021546135 0.034131598 -0.13951193 -0.0015056577 0.05117458 -0.040451508 -0.0026109505 0.10061782 -0.05415344 -0.100898065 -0.030583626 0.09563684 -0.006277745 -0.034159794 -0.07839293 0.05935606 -0.0011536934 0.09765382 -0.08505737 -0.07166625 -0.08879065 -0.051020864 -0.014262964 -0.09011544 0.022146974 -0.011277352 -0.061573304 -0.07847965 -0.0054050633 0.030611148 -0.058796003 0.00059459265 0.032023847 0.008332667 -0.012784854 -0.03408373 -0.032354943 0.009509984 0.04061244 0.03718393 -0.035394795 0.0144150155 -0.074746 -0.02895136 -0.084959425 0.0050473427 0.045224108 -0.08387364 -0.06947995 -0.031905625 -0.06696661 0.01979286 -0.06678799 -0.005590161 -0.040634472 0.04517689 0.0041696047 0.0042130933 0.03216165 0.012584269 0.035231598 0.0076267067 0.010142356 -0.0023899556 -0.06335234 -0.024539271 0.017645214 -0.010640225 0.028332833 0.02508294
most 0.046581272 0.013753312 -0.0021716813 -0.030289631 -0.0910343 -0.026391016 -0.064377315 -0.04251854 0.011422267 0.11547121 -0.04982584 -0.099936545 0.016038854 0.018566204 -0.005694431 -0.012558026 0.008513894 0.0477887 -0.09671535 0.012419398 0.008718854 0.013166125 0.06366798 -0.07076413 -0.032457013 -0.067654975 -0.067858204 0.0690497 -0.17738569 0.028414907 0.031432584 -0.046924815 0.03466818 0.01846765 0.012315601 0.0080524925 -0.04944207 0.055629436 -0.0082140565 0.07787631 0.015344825 0.030443108 -0.0029648675 0.032368887 -0.01871772 0.0028751362 0.09498224 -0.06496632 0.06668263 -0.038507696 0.0659823 0.0086834775 -0.0019153676 0.072735146 -0.0048236684 -0.03397501 0.08767065 -0.015929542 -0.018793708 0.053625964 0.034015093 0.02043338 -0.0014975767 0.023938436 -0.0055401972 0.044137597 0.032214522 -0.0591191 0.017826553 0.012673744 0.0077405344 0.037093572 0.030259797 -0.029097533 -0.011170293
city 0.17721373 -0.02199774 0.006035981 -0.13714443 -0.10557079 -0.1274387 -0.04438196 -0.055240702 0.06347855 -0.025762664 -0.053659838 -0.017822193 0.034682013 -0.0629252 -0.016508348 -0.11957638 0.100707434 -0.06184209 -0.06848516 -0.060877424 -0.0042668767 0.017588813 0.0746839 -0.031455863 0.002389908 -0.09606884 0.11921548 -0.06621657 -0.123694725 -0.009149248 -0.0415451 -0.08437205 0.0552231 -0.04096656 -0.008165459 -0.045594227 -0.018282894 0.032184172 -0.0030881632 -0.035764128 0.0604315 -0.02385445 -0.08285122 -0.023795202 -0.028598243 -0.010373608 -0.053840898 0.03422067 0.065863594 0.015771378 0.031301912 -0.06530318 -0.063866206 -0.014875028 0.019663764 -0.025093526 -0.048219427 -0.07915398 -0.07185697 0.013985668 0.059186123 0.030711021 -0.0031960658 -0.045304414 0.004400754 0.0034306278 -0.0046852785 0.030447338 -0.0058231144 0.0085033085 0.041164905 -0.008468836 -0.03811721 -0.1356082 0.05254925
over 0.11288302 -0.0397069 -0.0138688935 -0.01024274 -0.08272084 -0.041126207 0.03783386 -0.10866195 -0.037459057 0.020784495 0.014320765 -0.09998544 -0.005084833 -0.0090829 -0.012910473 -0.06482148 0.045897417 0.007853062 -0.037278093 0.011854637 0.002883971 0.009337096 0.09163183 0.0040350333 -0.07389379 -0.05319615 -0.050739996 -0.019493598 -0.04099659 0.059338644 -0.023657368 -0.00871566 -0.04165472 0.03624239 -0.061672162 0.030557137 0.038879685 0.017583143 -0.091660075 0.027649065 -0.004525421 0.022504842 -0.01404477 -0.006767418 0.031290945 0.021935297 0.008953496 -0.061792746 -0.07316972 -0.025110224 0.006570739 -0.01700466 0.00980219 0.043007433 -0.0028294488 -0.061720002 0.008726031 0.06301723 0.00205974 -0.037080422 0.011104738 0.05154644 -0.01879819 -0.009942707 -0.03285395 0.054329146 -0.0047653145 -0.052482046 0.03173039 -0.027673155 0.041902058 -0.009480328 0.0022087358 0.05798967 -0.018595634
then 0.06704609 -0.01705885 -0.035561416 0.056024127 -0.04638818 0.015480929 0.05039017 -0.042990234 -0.04743262 -0.025213225 0.10560942 -0.06327594 -0.14806955 -0.09463203 -0.070447065 0.04408207 0.039635308 -0.08706641 -0.026108697 -0.018999865 0.011084448 -0.034364495 0.08407614 0.029374087 0.02951288 -0.08684299 0.04729476 -0.028891006 -0.129745 0.04978117 -0.020952094 0.0498628 -0.024989603 -0.015175583 0.037993986 -0.07653469 0.0038527246 0.019195992 -0.07274176 -0.08353987 0.018234877 -0.07709943 -0.0174347 -0.09128114 0.032881334 0.001750639 0.08322292 0.038982723 -0.06727819 -0.052774556 -0.041780356 -0.013202673 -0.07280915 -0.015667636 0.030077958 0.006471366 -0.030427393 0.037891045 -0.023343416 -0.024041073 0.013661731 -0.02020736 -0.0067412346 0.100288585 -0.052735977 0.13014336 0.016162079 0.0526431 0.029026715 -0.035326716 0.06781283 -0.03838409 0.015470176 0.0059337523 0.066699654
than 0.04953294 -0.018204825 -0.021402376 0.0018248773 -0.03757675 -0.014314985 -0.036922723 -0.025986351 -0.048465878 0.08327976 0.011208621 -0.10873165 -0.07979145 -0.009955439 0.017416617 0.011395413 -0.01106275 0.04072453 -0.07617019 -0.04035994 -0.040310126 -0.011659852 0.034044355 -0.07851099 -0.026164401 -0.04372654 -0.068545386 0.080396995 -0.0919899 0.098883815 0.06521766 -0.04437481 -0.029613972 0.04196361 0.041977756 -0.027262565 -0.054456677 0.019521728 -0.030023383 0.059375655 0.027188 0.015314999 0.04681256 0.06727675 0.042551093 -0.0063958075 0.021680033 -0.06600102 0.08598171 -0.032316882 0.06982345 0.03538134 -0.02055435 0.01917385 -0.08583793 -0.018905004 0.075268805 0.0048455293 0.016520526 0.022469677 0.0468457 -0.021905279 0.018054364 0.04562949 -0.028234633 0.04828393 -0.002642807 -0.053168453 0.071705446 -0.033117574 -0.038380228 0.053266555 -0.03161694 0.03976078 -0.0048007956
where 0.05411834 -0.03318237 0.028383417 -0.037763808 -0.072562225 -0.047095843 -0.037377212 -0.05677912 0.009991024 0.048391413 0.04321154 -0.045019332 -0.11727723 -0.034619305 -0.053733237 -0.055061005 0.07291322 -0.06475859 -0.10075354 -0.031893536 0.0793005 -0.040256303 0.04861641 -0.034525186 0.015530162 -0.13107052 0.07027666 -0.049835086 -0.109143 0.025660215 -0.020721078 0.07172525 -0.076525696 0.016874148 0.029141279 -0.028824963 -0.0066347593 0.028776692 -0.058110446 -0.018425275 0.049207605 -0.010101723 -0.079150006 0.028549189 0.0022345989 0.025869101 0.051675502 -0.025371918 -0.04464117 -0.015950957 -0.037772305 0.001574437 -0.045859408 0.03987572 0.06256137 0.007893601 -0.06957038 0.04133631 0.0329128 0.035895213 0.03847103 -0.029276544 0.010780798 0.021088997 -0.012469317 0.06821162 0.010800432 0.01845905 0.039272875 0.008964975 0.008709778 0.008769051 -0.020868644 -0.052522395 -0.028848011
will 0.07195909 0.0075163045 -0.027048131 -0.0006366086 -0.009056561 0.04395366 -0.006741002 -0.032405768 -0.057214618 0.009396012 0.026024193 0.013222359 -0.11209673 -0.026979513 -0.05149408 -0.026956065 0.109204814 -0.05833333 -0.11328845 -0.057994332 -0.026814356 0.057238467 0.05254705 0.0096910745 -0.07321356 -0.09918137 -0.08527233 -0.0026967449 -0.041668374 0.068697244 0.045075 0.048544288 -0.08682102 -0.0042301747 0.06488106 -0.008873222 0.036311503 -0.10336058 0.029218247 -0.0016866457 -0.0386173 -0.08922935 0.039239928 -0.0027956357 0.049045682 0.005056194 -0.014028894 0.0052702124 0.057896744 -0.027219698 0.06601621 -0.0126357535 -0.049470168 0.0028187528 0.016911281 0.03213987 0.0694994 0.035364203 -0.047079824 0.01792951 0.0058595054 -0.0529934 0.011350087 -0.059011042 0.04472105 0.029806757 -0.01486311 0.010285405 0.0131100165 -0.055917986 0.04419026 0.001003396 -0.00089631235 0.002977959 0.08596818
what 0.108239226 0.00055187865 -0.030226626 -0.12703943 0.008561408 0.06942635 -0.063633054 0.14025262 -0.10963456 0.051880144 0.042502683 -0.06236097 -0.15462786 -0.02680169 0.009103678 -0.050066013 0.016799312 -0.015232933 -0.03207844 0.009206914 0.012790617 -0.024578972 0.061244868 -0.0030357195 0.021484148 -0.006927187 -0.0072350907 0.04522656 -0.055368233 0.0042403005 0.021506963 -0.05646814 -0.017356887 -0.0010283018 0.037765354 -0.036357775 -0.041777145 -0.013061996 -0.021685744 -0.02240287 0.025049973 -0.0063827024 -0.021206621 0.054771416 0.029449783 0.023660555 -0.019292016 -0.011543972 -0.006506416 0.021608919 -0.015482199 -0.02831172 -0.010650461 -0.000101662336 0.029566409 -0.010832415 0.05396842 0.015019011 -0.01919641 0.0023720744 -0.021212416 -0.066781186 -0.0503297 0.032943875 0.032761917 0.056189027 0.033091303 -0.060122963 0.03736473 0.020347865 -0.01604822 0.010769632 0.050456513 -0.038449083 -0.019551342
any 0.07221505 0.03508676 -0.08061467 0.0002828039 0.028893957 0.057249147 -0.038696136 0.024753416 -0.09107761 0.02907419 0.053654436 -0.088216394 -0.110918365 -0.014278463 0.004551101 0.006067167 0.03057386 0.017063824 -0.08214249 -0.072280794 -0.051980816 -0.056329504 0.008559214 -0.048101153 -0.0664617 -0.10293064 -0.11000894 0.018647205 -0.08077479 0.047372967 0.05962631 0.03623535 -0.05094325 0.07735138 -0.029467368 -0.06360205 -0.058960415 -0.058626037 0.088286065 -0.034600455 0.051509432 0.027514758 -0.012166949 0.022360029 0.059552185 -0.03990494 0.08137368 -0.06703955 0.0022461682 -0.071869515 -0.013781398 0.042232648 -0.02109323 0.032337807 0.0150169935 0.0013486579 0.09762546 0.051271416 -0.013230235 0.045647036 -0.014218587 -0.037631746 -0.013516184 0.004312804 -0.0022784441 0.036102835 -0.049178418 -0.032732464 0.004597468 0.04118543 -0.024685023 -0.028087566 -0.019020895 -0.07091442 0.023811327
these 0.024478585 0.037509657 0.007113066 -0.022731898 0.005838112 -0.016351664 -0.063594826 -0.014297899 -0.00366405 0.055860225 0.009575164 -0.090182446 -0.009748387 0.031585105 0.019380542 0.025603157 0.023756847 0.043922745 -0.03609448 0.024339788 0.018605055 -0.02886046 0.006504434 -0.021040061 -0.03536491 -0.14784324 -0.10923133 0.017978901 -0.13045835 0.025787616 0.08832968 0.02053273 0.0059244195 0.0881685 -0.006439358 -0.006482744 -0.08996124 -0.100303985 -0.03775241 0.067884594 0.03175428 0.023046084 0.046366587 0.024754344 0.0075948043 0.043230023 0.030986303 -0.013058408 0.010803649 -0.020163441 0.054556534 -0.041453052 -0.0019766556 0.07225003 -0.019099742 -0.01296019 0.043181807 0.07075 -0.06089225 0.050619777 0.001768666 -0.023702059 0.01370194 0.033695318 -0.031890295 0.014389073 -0.069984585 -0.107369594 0.0069168936 0.03241875 0.028164998 -0.053744007 -0.07776962 -0.016671712 -0.0966271
film -0.038535573 -0.008737618 0.17208159 -0.019508453 -0.056984965 -0.04162157 -0.030804845 -0.0745266 0.016096484 -0.04649449 -0.1363505 -0.014243662 0.004123617 0.08487891 0.0036416752 0.0035162577 0.02991569 -0.039323527 0.11801063 0.07725101 0.04420962 0.017709263 0.047310203 -0.08696925 0.019147469 -0.03486141 0.013877996 -0.14196756 -0.07866253 -0.031339463 0.021439945 -0.14073575 0.039168376 -0.15847634 -0.03683455 0.00746523 -0.0839908 0.08681605 0.002480376 0.022376018 -0.05552843 0.032071333 -0.03702906 0.11818679 0.041528236 -0.14093357 0.06295461 -0.07300835 -0.018593743 -0.14705604 -0.0252472 -0.103703074 -0.08479899 0.07186893 0.16753773 0.18448079 -0.055214208 -0.045364123 -0.08996347 -0.008727393 0.0657659 -0.025863642 -0.046250086 -0.04132858 -0.026264183 0.03534909 -0.033666745 0.060601905 -0.026250111 -0.0054267095 -0.025919152 0.08510414 0.026170397 0.123384796 0.042348605
him 0.090973176 -0.071876645 -0.13180198 0.114516236 -0.037872877 -0.036155112 0.08570192 -0.1455584 -0.06978329 -0.0751965 0.05140273 0.019800767 -0.03442121 -0.077042826 -0.06341013 0.01913126 0.058727797 -0.0323394 -0.11416351 -0.01040675 0.06082946 -0.004006619 0.012943763 0.023482988 0.0031195313 -0.024157878 0.018078959 0.038531683 0.0024281708 0.012320978 -0.11297175 -0.019424956 -0.0047946083 -0.09628044 0.045386 -0.05786326 0.04170759 -0.049301665 -0.050760906 -0.019085024 -0.0055303564 -0.0046534855 -0.013246243 -0.0020325435 0.06901563 0.095514424 0.03736485 0.03661207 -0.059403576 0.056839976 0.020041946 0.032880217 -0.000828837 0.004682799 0.033877637 0.009476517 0.10433401 0.05528676 -0.028312024 -0.008388805 0.036509763 0.02577997 -0.06789173 -0.020595625 0.034335535 0.034463506 -0.006984116 0.03820117 0.06185574 -0.028513648 0.013153221 0.041872997 -0.019956233 -0.032054834 0.045146525
many 0.062234048 0.005786655 0.053102624 -0.062421214 -0.084057786 -0.09015542 -0.09421151 -0.03776956 0.012464611 0.08826266 -0.09445811 -0.089218326 0.011220138 0.006788438 0.050140407 0.0017869392 0.028598104 0.045964092 -0.064792044 0.057561573 -0.020594455 -0.015433434 0.030967522 -0.047172435 0.014592257 -0.11411256 -0.04901919 0.038891677 -0.17833766 -0.014027395 0.033685762 0.061868984 0.02522785 0.015813582 0.007759303 -0.019229896 -0.07720537 0.0030508644 -0.105383545 0.085104354 0.06706206 -0.037852224 -0.0006862022 0.01898569 0.008006642 0.0075631337 0.027429767 -0.091036774 0.047159255 0.002192237 0.034544516 -0.006632824 0.037554216 0.11196603 0.015812963 -0.0023888454 0.12465718 0.06659299 -0.013979399 0.017370997 -0.016611306 -0.01825066 -0.013978277 0.031448048 -0.020701624 0.025825571 -0.02077494 -0.103458725 0.07919519 0.055105604 0.0025409171 0.0004208782 -0.046752088 -0.01600762 -0.04691067
south 0.098154694 0.012911081 0.0026754257 -0.07002948 -0.112268195 -0.09351902 0.006670893 -0.06980053 -0.028523894 0.12497796 0.009263762 -0.07987153 -0.018807452 0.041585054 -0.037816513 -0.10845092 0.013068955 -0.051897943 0.056467373 0.019269003 0.014941288 0.027609913 0.0496672 0.031875726 0.011906426 -0.044037733 0.06971238 -0.043246437 -0.051449403 0.018168978 -0.008153385 -0.06593449 -0.019063959 0.013012734 -0.033947315 0.016549118 -0.019958163 0.03314109 -0.06246485 0.004202686 -0.005621001 0.0019839515 -0.04826566 0.087249406 0.04866545 -0.051510908 0.0606525 0.057286806 0.08794752 -0.03381113 0.00712313 0.008154284 0.040845256 0.04189998 0.03408475 -0.027881764 -0.03705933 -0.020456918 -0.095781945 0.07416634 -0.024240624 -0.005913268 0.013228976 -0.06858981 -0.04295766 0.08275782 0.07582547 -0.00887083 -0.07858854 -0.024798416 -0.040311813 -0.056918778 -0.009858205 -0.026834881 0.0030171876
like 0.040527973 -0.04999337 0.0984898 -0.055037268 -0.09475603 0.059803378 -0.06661685 0.046390492 -0.09551009 0.059751127 0.021956773 -0.13631806 -0.14076099 -0.027769346 0.05278488 0.015382719 -0.017727286 0.023320895 -0.13395739 0.003316327 -0.023997156 -0.0058139735 -0.0010025367 -0.0053569344 -0.020430697 -0.024539199 -0.017436905 0.08268671 -0.160746 0.104664735 -0.0015584711 -0.028223854 0.07817112 0.07895562 -0.008889997 0.0115531925 -0.030193344 0.02441049 -0.07912549 -0.06330486 0.036547594 -0.057125207 0.064086296 -0.022292506 0.024130698 0.026907418 0.04756261 -0.052251372 -0.0038293374 -0.02145953 -0.0019873942 -0.013740833 0.048636105 -0.004281233 0.06022138 -0.06168386 0.040277913 -0.04853094 -0.04052404 0.040848237 -0.013452671 0.0061542843 0.06914605 0.039972965 -0.040177807 0.008203881 -0.049074247 -0.023496704 0.03349289 0.008359058 0.0535187 0.061097965 -0.05222703 0.02321914 -0.022859342
between 0.058383826 0.00020673616 0.034642823 0.0033243205 -0.03258579 -0.10682888 -0.0091704605 -0.0945392 0.033336625 0.11972748 0.08693182 -0.05728993 -0.038567815 0.016251009 -0.015528631 -0.13843153 0.039381117 -0.04513489 0.016942155 0.03543921 0.0028594192 0.0030168945 0.033585247 -0.054411255 -0.04432588 -0.08371283 0.03750579 -0.025710741 -0.077609286 0.09375383 -0.018701239 -0.062146008 -0.012225912 0.027078666 -0.03961281 0.067381725 -0.002306898 0.08026566 -0.055957515 -0.027341265 0.012300346 0.044922493 0.00796101 -0.043024197 0.0698571 -0.03193264 0.021913014 0.050735045 0.0069383984 -0.011149715 0.018787801 -0.021474985 -0.013656993 0.049058296 0.035231568 0.048627276 -0.057524845 0.06772124 -0.082821846 0.08049689 0.046158906 0.038577825 -5.848515e-06 -0.0346289 -0.029724494 0.028259924 0.057930037 -0.06533187 -0.050834898 -0.027543446 0.0005036059 -0.041950494 -0.072113656 0.00072765385 -0.029258203
three 0.03603036 -0.04700006 0.022726582 0.047084745 -0.06029748 -0.050274525 0.0014423268 -0.10517481 0.04048309 0.059035994 0.06438421 -0.06983732 0.04045097 -0.017186632 -0.0909045 -0.046587527 0.045471027 -0.044179086 -0.017617298 -0.05779335 0.046474263 0.0021016966 0.0037200253 -0.053319905 -0.07736077 -0.07604052 -0.014288913 -0.03454162 -0.09436698 0.010864729 0.06152096 -0.003828707 0.02654539 0.028363446 -0.014799057 -0.041528065 -0.047576465 -0.07472916 -0.015081172 -0.015913451 -0.02489432 0.06093336 0.013462171 -0.005698071 0.021457303 -0.06408098 0.052097388 -0.026410276 -0.04003811 -0.04685124 0.04885766 0.02442516 -0.004077546 -0.01613418 -0.027723553 -0.072981395 0.024069445 0.0122699225 -0.07319087 0.011101178 0.028492324 -0.039068855 0.023683846 0.01928275 -0.049569316 0.058497127 0.024511173 -0.07177278 -0.014922833 0.019374873 -0.010514533 -0.00077934854 -0.076815136 0.04701864 -0.037930746
well 0.031174775 -0.020754399 0.06422129 -0.04102572 -0.08887972 -0.032474827 -0.06960805 -0.0062392647 -0.023550251 0.10662194 -0.029938426 -0.1102398 -0.06812704 -0.044121522 0.052296083 -0.00029118426 0.05224914 0.051533286 -0.086810865 -0.010806893 0.00410032 0.017130008 0.07597442 -0.065715976 -0.07223799 -0.09552441 -0.04237475 0.08424539 -0.17384455 0.014427295 -0.009819594 0.0055434876 0.07254098 0.07384685 0.04254656 0.006805019 -0.031177798 0.0030099838 -0.041603208 0.04797392 0.021067634 -0.009643076 0.0065226466 0.123476446 -0.00016524988 -0.031793978 0.09006115 -0.040631205 0.05233005 -0.00025164793 0.00930764 0.022902079 0.023229139 0.06785132 0.009960352 -0.026235688 0.064779684 0.029206002 -0.014680922 -0.03609177 0.04074447 0.005981506 0.06773158 0.003223978 -0.03481451 0.09761796 -0.022051137 -0.05966455 0.07751484 0.009047389 0.0039419187 -0.0013192783 -0.027954105 -0.035763547 -0.04990717
use 0.09502555 -0.012659704 0.033464994 -0.047213677 0.040006176 0.015675485 -0.021444375 -0.0018899386 0.0066161375 0.009238495 -0.015170544 -0.022568416 -0.09250027 -0.027842421 0.090008914 0.049231984 0.014128258 0.057191815 -0.060423 0.0123012075 -0.0060247206 -0.027757905 -0.056812122 0.03366225 0.020310486 -0.033976365 -0.06397291 0.11806987 -0.045022145 -0.03132632 0.06245657 0.034665097 -0.024794634 0.0747492 -0.064246476 -0.022024 -0.0989546 -0.011264192 0.050997246 -0.016029779 0.091153085 0.008269243 0.0018162146 0.019845545 0.049855463 -0.09709595 0.038351595 -0.016749412 0.035579797 0.0014250545 0.10760656 -0.032114238 -0.04990865 0.0032903466 0.031345423 -0.006539538 0.059351183 0.044654224 0.020944608 0.061227597 -0.027959337 0.096783 0.008017657 0.037734322 0.017701892 0.01735452 0.051102657 -0.020381937 0.07477775 -0.046885934 -0.04422526 -0.071969844 -0.037319273 -0.059224073 0.05995206
war 0.11736031 -0.088271886 -0.07449894 -0.07311619 -0.06171143 -0.13856855 0.15324685 -0.12872532 0.027801722 -0.05441682 -0.001834809 0.019212002 -0.00951977 0.07041499 0.048816737 -0.01187228 -0.09624843 0.030474981 0.11655204 0.03087926 0.108205415 -0.10350297 0.059633844 -0.019939477 0.05515986 0.062708065 -0.004027634 -0.049804606 -0.12076263 -0.06185078 0.007844981 0.010394107 0.010917566 0.033084583 -0.028857911 0.06678934 -0.0609623 0.005372116 -0.06175127 -0.03856625 -0.053341616 -0.01868039 -0.08112647 -0.0036484757 0.06739645 -0.053513024 0.011438634 -0.029815946 0.059888933 -0.08320023 -0.06991235 -0.082032286 -0.06739202 -0.041879658 0.05129493 -0.050087806 -0.009086943 -0.012583267 -0.015192067 -0.07089586 -0.05588341 -0.0056191105 0.016216775 -0.020048968 0.049618877 -0.0012914906 0.019001072 -0.018412495 -0.00815465 -0.009010271 -0.015087932 0.032219224 -0.0061845514 -0.029747253 -0.04898016
under 0.053380124 0.04190486 0.018075814 -0.0033733686 -0.06867846 -0.06610062 0.10328183 -0.1166997 0.011282579 0.035545927 0.012127529 -0.022712318 -0.0491647 -0.049014524 -0.000655628 0.0072736097 -0.01566673 -0.0074655428 -0.02145557 0.021240745 -0.012285691 -0.033712123 0.08053397 0.030143008 -0.04830444 -0.05826206 0.026256617 0.053512946 -0.11331978 0.01760441 -0.046559006 -0.022095691 0.047011156 0.022075089 -0.0076769777 -0.01839864 -0.010566822 -0.015501115 0.034749977 -0.11901184 0.018606829 0.0033105952 -0.06818049 -0.011252425 0.012601349 -0.031551223 0.03773775 0.017791841 0.024983536 -0.113762125 0.03097794 0.0160406 -0.011180529 0.04129018 0.019185208 0.04999551 -0.019164039 -0.017982425 -0.011061136 0.012928171 0.04236707 0.039508816 -0.015839165 0.018329563 -0.0777363 0.056248017 0.034396563 0.030754896 0.013202384 0.08357134 -0.017360233 -0.068886414 -0.0668083 -0.0016100616 0.1110731
them 0.12267865 -0.08189271 -0.09198894 0.022083182 -0.06454998 0.058743957 0.026476324 -0.034022238 -0.050188266 -0.03402243 0.021095777 -0.033477344 -0.039037067 -0.018320093 -0.0006439867 0.066171885 0.099604554 -0.018791497 -0.1001145 0.050084595 0.009422721 -0.036363516 -0.021004284 0.01148151 0.025768837 -0.114516445 -0.062431984 0.019798724 -0.055787947 -0.032927837 0.06206712 0.10615924 -0.017023316 0.03723322 0.033113386 -0.053175557 -0.04338917 -0.13410915 -0.11495318 0.027558275 0.032841474 -0.02484225 0.092841856 -0.038266826 0.050707877 0.107634485 0.034408685 -0.022091283 0.0031046586 0.0017265202 0.026289238 0.00044237793 -0.057022203 0.024708895 0.066455275 0.012967702 0.06068191 0.08326995 -0.060614616 0.0005219204 -0.0056556994 -0.020357335 0.014007542 -0.007209137 -0.053067073 0.017302062 -0.0017824915 -0.035816915 0.07905945 0.0370606 0.050900772 0.015027867 0.005910213 -0.003924742 0.020294929
we 0.11288502 -0.00016460911 -0.019309375 -0.066413626 -0.0035136857 0.14581506 -0.08343223 0.10118228 -0.055434674 0.039877508 0.048409063 -0.1000889 -0.075631134 -0.02302254 -0.02301927 -0.028129226 0.0022783705 0.024423247 -0.0043322616 -0.027091641 -0.019965412 -0.02840129 0.05562417 0.011086941 0.01553226 -0.099618636 0.0016215564 -0.048081793 -0.07322089 0.026214909 0.101500146 0.06661978 -0.08420433 0.11321914 0.07085081 -0.014413516 0.008803107 -0.05979756 -0.025771057 0.028644241 -0.012052507 -0.057938088 -0.044924423 0.08131698 0.003762563 0.06309399 -0.045401137 -0.10246875 0.019311093 -0.009599988 -0.011073964 -0.04508955 7.3532556e-06 -0.0031581298 0.072073594 -0.060502023 0.084724955 0.032482076 -0.087274805 0.014803135 -0.008796314 -0.09078771 0.02622158 0.0549887 -0.038665038 -0.0010703742 0.016199538 -0.014849878 0.014529398 0.0015450876 -0.004483111 0.02241186 0.07369168 -0.016875293 0.0347052
born -0.03445113 0.022598712 -0.023244629 0.0718436 -0.17488262 -0.12842502 0.017689807 -0.079083405 0.047851305 0.20749477 0.07863712 -0.043467723 -0.026860258 -0.08052383 -0.059671078 -0.024197748 0.18231937 -0.10502147 0.03177604 0.09319476 0.08373471 -0.022404727 0.032793086 0.010442153 0.023584964 -0.05038534 0.16031623 0.12642303 -0.11121467 -0.042115822 -0.101646036 -0.07576292 0.056472257 -0.019746352 0.05188783 -0.032521017 -0.028127056 0.14437683 0.0077270246 -0.035003815 0.03551665 -0.05188393 -0.021193383 0.0071921255 0.024900045 -0.07443037 -0.025444936 -0.08833381 0.10461815 -0.072528385 -0.04803079 0.022182195 0.06573145 -0.057681505 0.020414444 -0.043764636 0.03177328 -0.045662284 -0.09418156 0.0006099544 0.040742572 0.055254366 -0.028140659 0.06964243 0.059173126 0.064512186 0.04198583 0.03117202 -0.092521265 0.04044055 -0.005721805 -0.03340856 -0.03815366 0.051551327 -0.028873844
while 0.06507896 -0.039189856 -0.07109708 0.042537283 -0.102505155 -0.11894348 0.02683787 -0.10041468 -0.041368358 0.030223234 0.051043227 -0.07794351 -0.094148315 -0.032507632 -0.037298948 -0.09495848 0.0070719384 -0.005943233 -0.07678809 -0.026980057 0.025775388 0.043438185 0.0075657247 -0.02796405 -0.026642138 -0.0447216 -0.017815664 0.076734 -0.09444027 -0.009412495 0.022905327 0.0143926935 0.05922983 0.056137957 0.026047574 0.012459525 -0.059932463 0.048163507 -0.04140088 0.04676111 -0.02148775 0.0021254225 0.061610732 -0.02469088 0.06990841 0.023704102 0.02464117 0.0067529716 -0.05137772 0.0014943415 0.027019596 0.040305085 -0.07107042 -0.0036800788 -0.0015495627 -0.016793521 0.0060703373 0.03234678 0.04264875 0.04080071 0.04341731 0.02476209 0.0065790443 0.005086626 -0.0022860067 0.05636676 -0.023101417 0.020786552 0.059395973 -0.034249745 -0.037760623 0.06597002 -0.03287602 0.043857906 0.002618013
later 0.029799286 -0.03559703 -0.006334833 0.017320307 -0.015253795 -0.110355556 0.08533544 -0.19139741 0.06078171 -0.010753948 0.03415704 0.014710999 -0.0030150174 -0.026481602 -0.02244645 0.009188928 -0.012492264 -0.043075453 0.034708593 -0.049706858 0.013331094 -0.03022468 0.07453225 -0.02907041 -0.038140792 -0.07469268 0.020944817 0.0022932175 -0.12494159 -0.055691082 -0.033572942 -0.14164492 0.039679546 -0.08729837 0.027292535 -0.043169342 -0.07912757 0.046612736 -0.036417607 -0.03747174 0.062827595 -0.086255744 0.05083424 -0.043098297 0.07611807 0.024024744 0.015180477 0.025901413 0.03199798 -0.0005455538 -0.048522107 0.00873164 0.03395389 -0.05593815 -0.04401673 0.00813624 0.04621821 0.022007357 0.01951079 0.0036405057 -0.018710237 -0.03397202 -0.058782946 0.07524628 0.013573273 0.10069224 0.0038385377 -0.015358502 0.014989183 0.048762303 -0.030989038 -0.07553092 -0.1287296 0.030002533 -0.019068588
part 0.075766414 -0.041372485 0.07679161 -0.13908511 -0.06424188 -0.04294899 0.00010883649 -0.06267538 0.008463892 0.08217856 -0.005732346 -0.007223914 -0.06673808 0.03767213 -0.050349224 -0.08326878 -0.002187509 -0.032555178 0.008780671 0.02275191 0.0077112815 -0.028698659 0.051091854 -0.048087463 -0.0791862 -0.105817944 0.01792469 0.004936767 -0.14683431 -0.00015335692 -0.037624802 -0.090576015 0.07518661 0.027082536 -0.033339735 0.023494693 -0.0207202 -0.016385445 -0.0219972 -0.036766496 -0.042550802 0.01645693 -0.017985435 0.03307295 0.043889876 -0.093792975 0.06897156 0.059596285 -0.008080084 -0.09056213 -0.02958224 -0.020888027 -0.014312297 0.038691558 0.06736053 -0.042563174 -0.062227055 -0.024894968 -0.031510603 0.009913572 -0.046221882 -0.01835024 0.018253569 -0.013026224 -0.046334613 0.04424869 -0.027538987 -0.05750237 0.005197319 0.055296797 0.044673473 -0.10245689 -0.046279386 -0.0677849 -0.06832395
list 0.070060976 0.04608498 0.006116614 -0.13292344 -0.023402255 0.07989243 0.03094399 -0.0021194273 -0.015097855 0.06487669 -0.0014889832 -0.080826655 -0.080814414 -0.028420998 -0.008139691 0.0025836932 0.06313153 -0.010378381 -0.07087951 0.046811763 0.008205618 -0.042446077 0.049521714 -0.00069476984 -0.046216067 -0.1198414 -0.0016818391 -0.0032281468 -0.1770549 -0.0024462969 0.023975195 -0.011529348 -0.0014784756 0.075472236 -0.02354584 -0.05984101 -0.06687924 0.06969128 -0.004440889 -0.04618878 -0.0053709815 -0.0009782884 -0.015089515 -0.0041055745 0.039676506 -0.11096285 0.0057090498 -0.034968212 0.022632621 -0.10875391 0.08211031 0.0025874046 0.030604338 -0.018882476 0.024032105 -0.06863263 0.07970771 -0.026076164 -0.036080617 0.06076088 0.012989308 0.088691436 0.054454025 -0.02905161 -0.051457662 -0.01973366 0.062087648 -0.027872773 0.061988898 0.02497979 0.046638757 -0.04377888 0.007817044 -0.051696844 0.004063992
my 0.06692426 -0.030105144 -0.017301263 -0.07791421 0.04232344 0.18084483 -0.044076573 0.15537086 -0.08901459 0.003789116 -0.025927583 -0.03209106 -0.098042615 -0.067186736 -0.014809289 0.061009835 0.006917565 -0.017232154 0.032073814 -0.09672403 0.082715556 0.036902934 0.06544398 0.06690235 -0.023153074 0.020394025 -0.059127256 0.048488617 -0.03655458 0.013982328 -0.014208469 0.020177498 -0.052695476 0.02506422 0.045684434 0.019238494 0.0121304635 -0.02371649 -0.026781105 -0.058755983 0.01846828 -0.07255534 -0.009830682 0.05149973 0.045750983 0.07485377 -0.031340603 -0.014609187 0.052143402 -0.06270573 0.015427412 -0.0026366897 -0.027686933 -0.024923023 0.012670196 -0.005328523 0.043076232 0.057391156 -0.019812308 0.012313268 -0.026603157 -0.045312386 -0.06440092 -0.046495236 0.018969633 0.0010562415 0.033385407 -0.01310482 -0.018676091 0.020630782 -0.023024244 -0.037250027 0.00997882 0.017106725 -0.008956288
second 0.066861086 -0.057176244 -0.0086694565 0.04718566 -0.026594052 -0.0032592616 0.041147076 -0.09861517 0.059612457 0.10138755 0.08948946 -0.060932145 0.050953697 -0.0034314827 -0.090046965 -0.062540285 0.030850612 -0.07973113 -0.0029969397 -0.08586126 0.054711316 -0.010068062 0.09680534 -0.002870378 -0.051112127 -0.04862843 0.02054279 -0.008320912 -0.06943202 -0.0021424093 0.04971118 -0.09282969 -0.0521894 0.045053866 -0.023318097 -0.0505798 0.00014521641 0.037714988 -0.019853923 -0.07415299 -0.02209862 -0.042967506 -0.007327825 -0.039772484 0.047505986 -0.09735681 0.045670394 -0.0020864168 0.022442589 -0.07046296 0.004907011 0.048876733 -0.051813673 -0.10341188 0.021605931 -0.020475756 0.005277104 -0.044280406 -0.03365652 -0.01256621 0.007341013 -0.036206964 -0.05154124 -0.057102095 0.009307391 0.0175773 0.07370026 -0.033788178 -0.07218989 -0.032465614 -0.054866064 -0.01206765 -0.016883118 0.027778182 0.037163574
name 0.01121845 -0.021943714 0.05770801 -0.18003468 -0.04139419 0.07516349 0.0627655 0.02287689 0.024652261 0.088939816 0.028895743 0.0027210473 -0.07701716 -0.11772555 -0.05090857 0.08906555 0.086172886 -0.04662362 -0.03717344 0.015504218 -0.010142691 -0.04630624 0.07333742 -0.06153534 -0.0061342744 -0.027127614 0.09957322 0.024697687 -0.09007239 0.05401491 -0.07944476 -0.08486976 0.10736921 0.004318916 -0.038298655 -0.047414605 -0.074006684 0.09723708 0.05709214 -0.10723789 0.080694884 -0.015841348 0.0020392323 -0.028934581 0.07406792 -0.078238346 0.027528182 0.017532248 0.06526512 -0.058700807 0.0019472644 0.035005197 0.0038959752 0.02189592 0.069585465 0.006213258 0.042706218 -0.049011838 -0.03181684 0.09294736 -0.012781043 0.03827563 -0.0035590618 0.09214902 0.022498747 0.037204843 0.10521595 0.0062456788 0.046398237 -0.011669499 0.056549847 -0.043052882 -0.13845098 -0.060371716 0.061987642
group -0.005633799 0.055338595 0.0037460646 -0.08494491 -0.05371715 -0.00861314 0.08201862 -0.07834082 0.046338208 0.0879989 -0.051899504 0.025702588 0.047805943 0.095761575 0.028332343 -0.07292169 -0.06498355 0.005665253 0.024718713 0.030220745 -0.06560907 -0.008961846 0.042322792 -0.04115119 -0.015072434 -0.08304057 0.109053575 -0.006340656 -0.1098708 0.100392096 -0.018748777 0.06544603 0.058971763 0.12613936 0.05012543 -0.0058121644 -0.03591193 -0.07111707 -0.07685904 -0.018272022 0.06282286 0.10423125 0.013886919 -0.005135085 0.013498951 0.026287626 0.043947168 0.045535427 0.046713166 -0.06432194 -0.13130848 0.048521575 -0.008147955 0.014140504 0.0038766623 -0.09926445 -0.014447028 0.074207634 0.0314789 0.008447409 -0.100516625 -0.04041914 0.09293276 0.046972398 -0.03820508 -0.0038163117 0.014784726 -0.059298325 0.004927381 0.05101578 0.08577099 -0.0031052905 -0.053587288 -0.00428864 0.0063333227
history 0.048026185 0.06179023 0.039528523 -0.17881744 -0.041862734 -0.01817724 -0.012420127 -0.027721336 0.08667836 0.08688163 -0.021073729 -0.08987856 0.031791087 0.02919803 0.009604515 -0.023999672 0.030555727 0.029585632 -0.1277446 0.07762985 0.1260347 -0.0033855953 0.10832863 -0.039410453 0.0036161584 0.021848273 0.017384607 0.0017314884 -0.17012383 -0.04650075 -0.008788642 -0.10335338 0.020617649 0.061186243 -0.033287846 -0.05176101 -0.054280728 0.021244746 -0.055907585 -0.012514116 0.021003347 0.030299159 -0.019769302 -0.016705131 0.028859725 -0.074634425 0.014350623 0.012320751 -0.005161823 -0.07972949 0.08499952 -0.051233314 -0.021535356 0.023059191 0.062206246 -0.049721505 -0.018482577 0.08167452 0.013281955 -0.043312483 -0.018364698 0.036048915 -0.06566848 -0.052785948 0.038956627 0.066403456 0.04254386 0.05505104 -0.0037132828 -0.0021883552 -0.012295294 -0.041466665 0.009933535 -0.10956588 -0.06115071
series 0.022739587 -0.0813304 0.08153343 -0.050656952 0.09208742 -0.030825345 0.037539966 -0.10146959 0.0863425 0.022600407 0.012926747 -0.027230823 0.046083782 0.07589115 0.0015069784 -0.059939206 -0.007813056 -0.09704539 -0.056399435 0.046186823 -0.0038447452 -0.02810615 0.06937923 -0.13203856 -0.061059706 -0.02566155 -0.016725698 -0.16271332 -0.10653222 -0.02640746 0.06684712 -0.11430845 -0.0022135624 0.0024069068 -0.048900444 -0.017080225 -0.045687452 0.050079197 0.04878975 0.08202874 -0.11975861 -0.033053793 0.040005893 0.01934013 0.08177923 -0.03262152 0.072932236 0.009884375 -0.021270113 -0.041064013 0.08033577 -0.002960925 0.042572018 0.054209564 0.055678356 -0.02880852 0.016970808 0.023603363 -0.03156354 -0.08286843 -0.0037326973 0.037438523 0.027833978 -0.106042475 0.03442947 0.09055728 -0.059490435 -0.00942487 -0.0015889154 -0.009772145 -0.08579793 -0.028603258 -0.08323369 -0.030529132 -0.104913786
north 0.088042796 -0.03384268 0.011516597 -0.096516356 -0.10693971 -0.13170588 0.023685753 -0.034523603 0.010986441 0.065006465 0.03419377 -0.07325458 -0.043339044 0.028244263 -0.032566085 -0.14466588 0.033227358 -0.022078292 0.031806648 0.04676082 0.024271198 -0.02092043 0.082164556 -0.043641225 -0.05572819 -0.01837016 0.10163989 -0.014861145 -0.06324778 -0.01988005 -0.027940338 -0.059569586 0.029303953 -0.00038290542 -0.019733211 0.012646404 -0.022795832 0.034272734 -0.04457971 0.005522095 -0.01909099 0.0073557915 -0.02203974 0.003173879 0.049164362 -0.027298193 0.029392768 0.029059902 0.07632064 -0.0207333 0.011115462 -0.044913 0.030753823 0.038155403 0.043277264 -0.00036956475 -0.044281512 0.015276715 -0.05630433 0.06939801 -0.006236692 -0.004143122 0.017124966 -0.032103796 -0.08032523 0.0099120755 0.040676545 -0.031380977 0.018609038 -0.007730553 -0.011160095 -0.11030125 -0.028494086 -0.008679956 0.0200013
work -0.010792264 0.07455738 0.12729873 -0.055780694 0.051919106 -0.024188023 -0.09478228 -0.05714052 0.016703863 0.077491775 -0.06051498 -0.052839182 -0.06464944 -0.015527162 0.080337495 -0.0014419829 0.07800261 0.014127908 -0.011454503 -0.0057447976 0.072595075 -0.012344483 0.018501198 0.015373245 -0.007450086 -0.068424724 -0.026661836 0.09841351 -0.113207996 -0.11030597 -0.019137764 -0.043934863 0.0016418804 -0.11069823 0.0094767 -0.06221989 -0.042796213 -0.068500414 -0.02344239 0.02380387 0.021807149 -0.108408295 -0.064225346 0.13084236 -0.034508616 0.05031251 -0.049211174 -0.055574868 -0.018078124 -0.024793344 -0.005557608 0.027600933 -0.105763584 0.07097878 0.020542586 0.012439981 0.027284991 -0.014098091 -0.037388895 -0.07332219 0.042842153 -0.005373076 0.0638998 0.020136124 0.059211314 0.002766785 -0.031333454 -0.012706768 0.015207588 0.009064148 0.02234456 0.071118146 0.033773076 -0.026525894 0.028297156
