998 300
a 0.0495577 0.129444 -0.0491547 0.00429166 -0.0137998 -0.0461106 0.0260132 -0.0449188 0.0749775 0.00347774 -0.00970231 0.0280398 0.0485759 0.0234678 -0.0266203 -0.0127858 -0.0712046 0.0524088 0.0194008 0.0914924 0.0119896 -0.0134276 -0.108865 -0.0863733 -0.0844097 -0.00653867 -0.115922 0.0450645 0.0318234 0.00666257 -0.00601861 0.0708102 -0.074493 -0.00717834 0.00596759 0.00479756 -0.0540166 -0.0513412 0.034118 -0.015901 -0.0307254 -0.0365082 -0.0478899 0.00863562 -0.0690266 0.000820259 0.05935 0.0662184 -0.0113174 -0.00625184 0.00025882 -0.0830978 0.0483058 0.0150208 -0.00604648 0.0489918 -0.0402211 -0.0206235 -0.00246146 0.0798951 -0.0590242 -0.111077 0.0911452 -0.081177 -0.0285539 -0.156622 -0.131751 -0.0232161 -0.00761951 0.0230266 -0.0893916 0.0188408 0.00505995 -0.0186209 0.0243081 -0.0373546 0.0212941 -0.00420651 0.0423133 0.0191744 0.0389863 -0.0377567 0.0247484 -0.0853786 0.0550112 -0.032704 -0.049742 -0.0184901 -0.116123 -0.0413302 0.0197665 -0.0247098 0.0532448 -0.0403681 0.0378965 0.00677533 0.0247317 0.0767868 -0.0714618 -0.00238322 -0.120621 -0.00520315 0.0568591 0.0676161 0.00998142 0.021406 -0.0591228 0.0763323 0.0137646 -0.00388067 -0.0654424 -0.025148 -0.0376092 0.0123909 -0.0178637 -0.130555 0.0951367 -0.00155631 0.0330972 0.054814 0.0555 0.0315456 -0.0116265 0.15567 0.0113808 -0.0259707 0.00713933 0.0226476 -0.0168069 0.0432681 -0.0260175 0.0596759 0.0325 0.0181677 -0.0583339 -0.040023 -0.0302847 -0.03071 0.0682506 0.0544882 -0.0229786 0.0431052 0.0627456 -0.0123686 0.052859 0.135459 -0.0320468 -0.00591314 -0.0351543 -0.0360696 -0.0422975 0.0174899 -0.060469 -0.0838095 -0.0520744 0.00748875 0.0939019 0.0136291 0.0714318 0.0144107 -0.113302 0.120818 -0.0928515 0.0308442 0.134207 -0.0186779 0.0351234 0.0119197 0.0557229 -0.0983394 -0.111111 -0.0121898 -0.0320678 -0.0900004 -0.0313325 0.0110138 0.0443828 0.0727395 -0.0225263 -0.0213434 0.0470153 0.0883584 -0.0144844 0.0915696 -0.0414794 0.0735541 0.070643 -0.0630415 0.012986 0.0236354 -0.0190814 -0.17137 0.170577 0.153338 0.0215042 -0.0707416 0.0676461 -0.0127656 -0.0702185 -0.0320412 0.0596287 0.0337862 -0.0335015 0.0766581 -0.0873594 -0.115446 -0.0718734 0.0567347 0.0317222 -0.00980221 0.0852972 0.0154508 -0.0389246 -0.00422842 0.0221408 -0.0986995 -0.0441556 -0.108702 -0.107403 -0.0322131 -0.0766624 -0.000842596 -0.0342998 0.0924056 0.0650908 -0.00887957 -0.0535578 0.0499436 0.00849328 0.0314706 0.0666214 0.0115738 -0.0511612 -0.0131524 -0.0709817 0.0395557 0.00211869 -0.0316378 -0.023749 -0.0354741 -0.0557829 0.00579867 0.00779915 -0.00237683 0.0252136 0.0702571 0.0650608 0.00297711 0.0163705 -0.0262803 0.0195924 -0.0110237 0.00392787 0.00924914 -0.0260423 0.0462393 -0.0378656 -0.053382 0.075642 -0.0296922 -0.0238708 0.0881054 0.0653566 0.00718263 -0.0669858 0.0169184 0.0336378 0.038263 0.0102048 -0.108908 -0.0960671 0.0339671 -0.0638389 -0.00056186 -0.0983522 -0.0515728 0.0766024 0.0305651 0.0521087 -0.0496306 0.0567905 0.00623555 0.0185532 -0.0326616 0.0189257 -0.0639847 0.0446529 0.0942664 -0.0383715 -0.0030785 -0.00868492 -0.0801481 -0.0281226 -0.0867034 -0.0523831 -0.127755 0.0146937 0.0473668 0.0560531 0.0176485
ability -0.0253023 0.0463509 -0.147773 0.0188465 -0.0218835 -0.0469961 0.0129475 0.0320224 0.0306985 0.0421907 -0.0301075 0.0603388 0.0189654 -0.0570225 0.150718 -0.063939 -0.00713562 0.017282 -0.0295887 0.035891 -0.0176779 -0.0693845 -0.0156243 -0.0915147 -0.166561 -0.0150834 0.0641351 0.123749 -0.00550017 -0.065983 -0.0447096 0.0209131 -0.0615569 0.0634796 -0.0253506 0.120244 -0.0159918 0.0183842 0.0193975 -0.0224926 0.0890294 -0.0424075 -0.00138095 0.0345387 0.0224245 0.150434 -0.0197647 0.00280273 0.030572 0.00462219 -0.0636654 -0.0179458 -0.00393054 -0.0234052 -0.0956311 0.0142955 0.0513267 -0.0693303 0.0285796 0.0366265 -0.0404203 -0.0134637 0.073684 -0.0103175 -0.0103812 -0.00713536 -0.0297049 0.0765332 0.0580625 -0.0538765 0.0113155 0.0604627 -0.0266389 -0.0856512 -0.0156527 0.0283809 0.0903998 0.00323424 0.0273331 -0.0080789 0.0710568 0.0482168 -0.0201696 -0.0906347 -0.0453057 0.0298829 0.0072164 0.0395041 -0.0516596 0.0874655 0.0759397 0.0959562 0.103972 -0.174453 0.0338754 -0.00397828 0.0918605 0.00448618 -0.0511951 0.011957 0.041881 -0.0539591 0.0891713 -0.0605401 0.00620395 -0.0593116 0.0172239 -0.0225821 0.0133695 0.0371169 0.0111833 0.0184531 0.021778 -0.0636499 0.0263266 0.0430811 0.0341567 0.0436024 -0.0288326 0.0980751 -0.0689431 0.00213558 0.000656062 0.078905 0.0165258 -0.0899585 -0.031563 0.00365336 -0.0471045 0.0788972 -0.0865725 0.0223158 0.033318 -0.0836665 0.027186 0.0249018 -0.0311191 -0.0349568 -0.0280532 0.0658539 0.0182647 -0.00961188 -0.0335631 -0.0484981 -0.0399067 0.060011 0.0568212 -0.0207503 0.034949 0.0187466 0.0569554 -0.0252076 -0.0483872 0.0105459 0.0527461 0.0313669 -0.0601427 0.0558173 0.0156569 -0.0103897 -0.0990738 -0.0540081 0.0209364 -0.0415558 0.0409932 -0.0427636 0.0416642 -0.0564263 0.0956156 0.0935535 0.0286364 -0.0869803 -0.0008889 0.082051 0.0711446 0.084144 -0.0699522 -0.0162948 0.000673663 -0.0697767 0.0272686 0.0491666 0.0395402 -0.016802 0.0233267 0.0850989 0.00100047 0.0180322 0.117898 -0.0694722 -0.0749099 -0.0194728 0.0596678 0.0476568 -0.103768 -0.0640319 -0.0697019 0.0482891 -0.0409235 0.0420255 0.0404254 -0.00995487 -0.0137081 -0.0783295 0.0561837 -0.0599155 -0.0899636 0.0174262 -0.0174993 0.0765255 0.0847427 0.00837156 0.104961 -0.052039 0.0494453 -0.015487 0.0855015 -0.136299 0.0547591 0.000743241 -0.0407868 0.0353774 0.040939 0.0902166 -0.0294081 0.0625067 -0.0596755 -0.16443 0.0311578 0.0177476 0.0732014 0.0208399 0.0463922 -0.00229989 -0.0211903 0.0481059 0.0317721 0.0518816 0.0213124 -0.0237427 0.08186 0.115694 0.00935793 0.0483433 0.00687728 0.0781153 -0.0468568 -0.0657197 -0.0293977 0.0673843 -0.000716865 -0.0552443 0.0781359 -0.0104592 -0.0112029 -0.0628654 0.0457006 0.0381053 0.0317643 -0.0767655 -0.0347709 -0.0269099 -0.0432746 0.00922064 -0.104424 -0.01761 -0.0071351 0.0639674 0.0431172 -0.0282777 -0.09448 -0.0441598 0.0308636 0.0242571 -0.00527616 -0.0056878 -0.0549166 0.106519 0.109836 0.000207531 0.0321411 -0.0467432 0.0353336 -0.0194878 0.0799966 -0.0447354 0.123036 0.153159 -0.124696 0.00338909 0.037584 0.0150764 0.0448515 0.0049213 0.0632241 -0.103608 -0.0145631 0.0343941 0.0239931 0.0411506
able -0.0180188 0.0210969 -0.0908066 -0.0725408 -0.0682016 0.00324696 -0.0020102 0.0323632 0.0122976 0.115301 -0.000376502 -0.0100636 -0.065181 0.0221459 0.0563801 -0.0514349 0.0420828 0.0291137 -0.00461319 0.0138937 0.0616155 -0.0373568 -0.0271888 -0.0888369 -0.158889 -0.0576954 0.0449455 0.00355515 -0.0341943 -0.0588689 -0.0238706 -0.0344329 -0.0887466 0.0799683 -0.00925216 0.0533402 -0.0274654 -0.00672055 -0.0206156 -0.0700005 0.11219 0.010582 -0.00547973 0.0599037 -0.0252913 0.15287 0.109018 0.0383529 -0.0586626 -0.0360189 -0.0524246 -0.0178193 0.0743042 -0.00523118 -0.04442 -0.0222236 0.0144624 0.0242174 -0.0320289 0.0688786 -0.048266 -0.0601519 0.0581178 -0.00569927 -0.0331659 -0.0526954 -0.0795525 0.0906067 -0.0549262 -0.00666188 -0.0151851 0.0402679 -0.0308187 -0.141407 0.0199473 0.0899684 0.107551 0.071722 -0.0376276 0.0727149 0.0921025 0.066809 -0.119243 -0.0705292 -0.0219876 0.0132229 0.0425954 0.0222523 -0.0975216 0.0261562 -0.00382788 0.0499391 0.0985403 -0.131049 0.0634015 0.066838 0.0878407 0.00502969 -0.0385593 0.0262539 0.0359255 -0.0472473 -0.0125865 -0.0274325 -0.0457128 -0.0789915 0.0537012 -0.0673119 0.00924507 0.093031 0.0129933 0.00701004 0.0388559 -0.0489655 0.0533563 -0.0469926 0.0220627 0.030781 -0.0616026 0.00362897 -0.0836176 2.25218e-05 -0.057286 0.132393 0.0391943 -0.0627309 -0.0319793 0.0102112 -0.0335528 0.031339 -0.120017 0.0209038 -0.00482692 -0.0168096 -0.00654937 -0.0110252 0.0201043 0.00894881 -0.0381241 0.0644653 -0.0525342 0.00759193 0.0234289 -0.0622635 0.0218522 0.0582048 0.0365122 -0.0503131 0.0455774 -0.0301643 0.0911966 -0.00123167 -0.0404387 0.0324277 -0.0109427 -0.0297449 -0.00498714 0.0562834 -0.0164724 -0.0257397 -0.107809 -0.00196081 -0.070945 0.0121568 0.0245585 -0.0356611 -0.0167864 0.0661546 0.077154 -0.0766575 -0.0177387 -0.103618 -0.0434948 0.0569701 -0.0258487 0.110617 -0.0195117 0.0408739 -0.0553324 -0.0159082 0.0222178 0.0106958 0.0333561 -0.0579662 -0.0293048 0.0797233 -0.0220601 0.0283177 0.130468 -0.0409158 -0.0401357 -0.112435 0.0821089 0.0576374 -0.0976248 -0.0367572 -0.0110156 0.0625504 -0.0282784 -0.00646942 0.0607064 0.00729921 0.0346489 0.0185746 0.024644 -0.0987724 -0.0965674 0.0405548 0.0648296 0.0791366 0.0876731 -0.0123228 0.0234828 -0.0635756 0.00257091 0.0160833 0.0494426 -0.0882566 -0.00585078 0.024888 -0.0358707 -0.0411125 0.043079 0.0548908 -0.00149537 0.0338655 0.0388816 -0.0593911 -0.0143022 -0.0207129 0.0723442 0.0671507 0.0232236 0.0748941 -0.030959 0.0330692 0.0520023 0.100455 0.0159518 0.0129572 0.0466831 0.091158 -0.012973 0.0135991 -0.0760676 0.133444 -0.00559869 0.0151951 0.0742462 0.0917769 0.0159543 -0.122409 -0.0676536 0.0453775 0.00518379 -0.0611868 0.0227445 -0.0326405 -0.00466992 -0.0703809 -0.0722507 -0.0553324 -0.0150536 -0.0148857 -0.173148 -0.0592396 -0.047373 0.0171532 0.0476728 -0.0242703 -0.0793268 -0.103121 0.00619218 0.0827408 0.0146655 0.0446231 -0.0311588 0.0809387 0.0179337 -0.0923701 0.0100623 -0.00415251 -0.0907163 -0.0580629 0.0510706 0.0642751 0.0262761 0.157973 -0.0284873 -0.0306392 0.0294722 0.0221884 -0.016151 0.0919961 0.0849941 -0.0429919 -0.0465413 -0.0017827 0.0481725 0.00580565
about -0.00731481 -0.0677129 -0.0606953 0.0236493 -0.0358035 0.0895986 -0.0680861 -0.0370059 -0.0129096 0.0840702 0.0395283 -0.0254246 -0.0605363 0.0287834 -0.0154112 -0.0146082 -0.0324246 -0.091271 0.0476516 -0.0605087 -0.0279148 0.0569532 -0.0652839 -0.063843 -0.0114912 0.00435571 -0.0119691 0.0479419 -0.0430665 0.0148445 -0.041674 0.100953 -0.140146 0.110365 0.0847336 -0.073846 -0.043761 0.0290094 0.0301065 -0.0409242 0.0172529 -0.115676 0.00388718 -0.0179059 0.066628 0.0749759 0.0425966 -0.129808 -0.0396872 -0.152464 -0.0200644 -0.034912 0.00495278 -0.0625197 -0.0498699 0.0715034 -0.000938071 0.00564591 0.0012365 0.0163051 -0.00973073 -0.117649 0.0956453 -0.0205195 0.0262901 -0.0512658 -0.0562864 0.0690639 0.00583733 0.0447665 0.00427037 0.0278135 -0.0268326 0.0703562 -0.112573 -0.00522057 0.0472474 0.0836694 -0.012346 0.0347842 -0.0209462 -0.0202206 0.0524268 0.00574404 0.0483911 -0.00299513 -0.0479868 0.0235273 0.0943669 -0.122939 0.0552014 0.00354165 0.0700038 -0.0504746 0.0781617 0.060488 0.0318842 0.0568979 -0.00534496 0.00567874 0.0123139 0.040361 -0.00110424 -0.0534669 -0.0655154 0.0354545 -0.022008 -0.0169778 -0.0473856 0.03166 -0.0748066 -0.00447561 -0.0177736 -0.0717521 -0.0393694 0.00528864 0.0146766 -0.0343744 -0.00768867 0.101108 0.11164 -0.0414529 0.034919 0.0846403 0.0991144 0.0747859 0.0813509 0.00426139 0.01568 0.0168486 -0.0678131 0.0889387 -0.00283664 -0.058325 0.0260676 -0.0207821 0.0033466 -0.035807 0.0387094 -0.0135961 0.0125516 0.102 0.0930954 0.0273841 0.0896781 0.0330407 -0.00685802 0.0115199 -0.00698207 0.0431701 0.0117842 -0.0329249 0.00218909 1.69702e-06 -0.0409622 -0.11543 0.064078 -0.0712961 0.0479937 0.0874287 -0.118512 0.0564764 -0.0209776 -0.00855801 0.021261 -0.00402885 -0.0141048 -0.0853832 0.020685 -0.0258067 -0.0531075 -0.0533805 -0.12259 0.0285105 -0.0538055 0.114587 -0.103057 0.0937311 -0.0288577 -0.0740015 0.0795576 -0.00762405 0.00439856 0.0742641 -0.0717694 0.00419263 0.00209655 -0.00696721 0.113243 -0.00954104 0.101429 -0.0879194 0.0544343 -0.0711751 -0.022481 -0.0652528 0.018966 -0.0722462 -0.0362769 0.0209835 0.0524994 -0.0405407 -0.00537398 0.094747 0.00592475 0.0633247 -0.0300218 -0.023387 0.0832824 0.0126207 0.161527 0.0518671 0.0307581 -0.00623262 -0.00847336 -0.0455059 -0.0161368 -0.10089 -0.0652251 0.0327135 -0.0216134 -0.0594237 0.0032645 0.046622 -0.0297723 -0.0333558 0.0186775 -0.0409691 -0.0310497 0.151144 0.0245459 0.0360696 -0.0770905 0.0475134 0.0195261 0.0473994 0.0674572 -0.0317906 -0.0457098 -0.0502189 0.0112189 -0.0255728 0.150971 -0.00925529 0.0496142 0.0999852 9.88138e-06 -0.0256036 -0.00285281 0.0288353 -0.000957006 0.0557957 -0.0996984 -0.0165967 0.0665658 -0.0355375 0.0818519 0.0164488 -0.0492583 0.0335628 0.00977669 0.059714 -0.0248399 -0.1395 0.0156199 -0.0800897 0.00718178 0.108337 -0.0593961 0.0634871 0.00858324 0.0579 0.098565 0.0255807 0.0121221 -0.000409519 0.11627 0.120326 -0.000769109 -0.00519154 0.0607195 0.00363218 0.0539229 -0.0271456 0.00146835 -0.0222568 0.0289299 -0.0150494 0.0648623 0.0937588 0.0509238 0.0131193 -0.0129061 -0.0700141 0.0345596 -0.0646066 -0.0351988 -0.0174958 0.072343 0.0496764
above -0.132301 0.0504941 0.0264457 0.156287 0.0185487 0.0669649 -0.0398209 -0.049668 0.0544105 -0.0570944 0.00565029 -0.0339372 -0.0266672 -0.0956672 0.0636687 -0.0682626 0.0601848 -0.00743079 0.0193562 -0.00238199 0.00791077 0.0456448 -0.0649429 -0.026331 -0.0508354 -0.101653 0.0355293 0.0623893 -0.10787 0.00488733 0.0768928 0.0174233 -0.00425491 0.0776407 -0.00361651 -0.0573706 -0.0912817 0.0580768 0.00868103 -0.165423 0.0874226 0.0161725 -0.0967981 0.00654536 -0.0142571 0.0361468 -0.0128877 0.0401128 0.0974052 -0.1438 -0.0122308 -0.0566384 0.00605757 -0.0988097 -0.0551922 0.0793683 -0.00450793 0.100321 0.0141987 0.0312845 -0.00134555 -0.00366185 0.133797 -0.0282488 -0.0101991 -0.0466245 0.0707589 0.0397089 0.047917 -0.0442507 -0.101911 -0.00805435 0.103774 0.005557 -0.0938796 0.0331737 0.064255 0.114885 0.0104769 0.0427211 -0.00870057 -0.002046 -0.0193059 0.000101345 -0.0130013 0.00363058 -0.0231262 0.0607294 -0.018038 0.0375956 0.00878213 0.0295595 0.14477 -0.0719419 0.0190031 -0.00635045 0.0538815 5.92207e-05 0.0350446 -0.0497045 0.0168294 -0.0427368 -0.00528861 0.000753789 0.0529773 -0.0291635 -0.0458845 -0.038036 0.021711 -0.0427029 0.0179205 0.0965167 0.0111682 -0.0122816 -0.0371709 -0.0345886 -0.00459366 -0.0399252 0.00567009 -0.068002 0.184588 0.00271727 -0.0524405 0.0854918 0.0339189 0.0577067 -0.0100597 0.0824978 -0.00333848 0.0680932 -0.0506921 0.100139 0.00796497 0.0344062 0.0581627 0.0126717 0.0275349 -0.0144097 0.0542437 0.0743105 -0.0465073 0.0514191 -0.035967 -0.0293094 -0.0101395 0.00662614 -0.00827688 0.0211073 -0.0205319 0.0752799 0.0425804 -0.0303439 0.0499703 -0.00218395 0.0358654 -0.0183838 -0.0242477 0.0235212 0.079251 0.0865028 -0.038148 0.0327542 -0.0380464 -0.0793578 0.0121383 -0.000289889 -0.0490557 -0.128145 0.0835948 0.0478857 -0.0384607 0.00486831 -0.0487743 0.0627202 -0.127502 0.0342499 -0.0537486 0.114663 0.0385155 -0.0464838 -0.0221577 -0.0530581 0.00179598 -0.0319777 0.0339945 0.105647 -0.00746988 -0.026787 0.0918602 -0.0436957 0.00326395 -0.0791468 -0.00199045 -0.00927826 0.0362745 -0.0179293 -0.0922901 0.0264092 0.0296429 -0.051281 -0.0439927 0.0231296 0.0826593 0.0639944 0.00838085 -0.0147673 -0.0370667 0.0368843 -0.0386327 -0.0375539 0.0586917 0.0604949 -0.0267896 0.0437426 0.0339372 0.0148762 -0.0435862 -0.173574 -0.0279935 0.0410561 -0.0113305 0.0536652 -0.0149236 -0.0648777 0.116993 0.00110291 -0.00925794 -0.0114924 0.0242688 0.0331294 0.0236414 0.0414339 -0.0640491 -0.050455 0.0405036 -0.0197481 0.024779 -0.00625925 0.0376582 0.0766635 -0.0408763 -0.00681141 0.0821929 0.00760798 -0.00303048 0.0257007 0.124263 -0.102815 -0.0119963 -0.0390522 0.0613001 -0.0479873 -0.0630146 -0.0331059 -0.0283088 0.0885066 0.122952 -0.032022 0.0406053 -0.0354016 -0.0253325 0.069615 -0.00394613 0.0489098 0.0187264 -0.0962483 -0.04183 0.142967 -0.128836 -0.0229503 -0.026873 -0.0111885 0.00238324 -0.100743 0.0246891 -0.0281446 0.0866409 0.128057 -0.0121282 -0.0124617 0.0229045 0.07097 -0.0415095 -0.00931604 0.087764 -0.0268496 0.0785214 0.0176852 0.0550906 0.0718898 0.0548092 -0.0633378 -0.0657507 0.0307321 0.0247027 -0.0499234 -0.0908674 0.0262528 0.022062 0.0286006
accept -0.0834395 -0.080203 -0.0132003 -0.0148804 0.0370429 -0.0392568 -0.0450129 -0.0852949 -0.00404718 0.176733 -0.0383765 0.026419 -0.0535521 0.0107934 0.0129488 -0.113316 -0.0727285 0.109753 0.0945985 -0.0208076 0.00246154 0.0397787 -0.0286117 -0.0556263 0.00309469 0.0172113 0.021477 -0.101999 -0.0595138 0.0429967 -0.0201671 -0.0173847 -0.0595981 -0.0500969 -0.028422 0.0289807 0.017871 -0.0112628 -0.0500047 -0.0627028 0.0304645 -0.0348027 0.00014172 0.0439718 0.0876696 0.0869896 0.178257 0.074439 0.00782896 -0.0240195 0.00214227 -0.0820479 -0.000185262 -0.0449734 -0.0666878 -0.0334506 0.047775 -0.0698979 0.0871372 0.0749767 -0.149885 -0.0820848 -0.0892404 -0.0217477 -0.0912909 -0.00320433 -0.0200237 -0.0503974 -0.127372 0.0236935 0.0606286 -0.0216741 0.0132543 -0.0378152 -0.0952337 -0.000136633 0.0869975 0.0641761 0.0415498 0.0613534 0.100254 -0.0561324 -0.0566173 0.0321592 0.031951 0.0930725 0.0398261 0.0374304 -0.0927984 -0.072552 -0.00727417 0.0157225 0.0652251 -0.0273519 0.0434737 0.0621177 0.00871398 0.0139777 -0.01822 0.0146438 0.0317955 -0.000962141 0.0480306 0.00746367 0.0220705 0.0109405 -0.0423747 -0.0402109 -0.0353298 -0.0164871 0.0645609 -0.000417132 0.0280741 -0.135537 0.0117341 -0.11407 0.102919 -0.0217456 -0.0439481 -0.0223075 0.0568914 0.0527061 -0.00557818 0.0372142 -0.033593 0.00415471 0.0197981 -0.0264427 0.0343731 0.0377888 -0.038843 0.00711024 -0.0359544 0.0577559 0.121964 -0.00586045 -0.0117391 -0.0490928 0.134801 -0.0362154 0.00965567 -0.0677605 0.00546775 -0.0458431 0.0373697 -0.0245965 -0.0300376 -0.0429308 -0.0618568 -0.0258183 0.0310813 -0.0599065 -0.0303143 0.0424063 0.0201147 0.0369454 -0.0407301 0.0130946 -0.00257221 0.074924 -0.0107634 0.124918 0.0118972 0.00646927 0.091702 0.00294973 -0.0139087 -0.0969916 0.0748554 0.0207361 -0.0978402 -0.021021 -0.122762 0.116945 -0.0242683 0.0110185 0.119004 0.0854742 0.0417342 -0.0412677 -0.0266799 -0.194845 0.0122841 0.067178 -0.0240314 0.097748 -0.0277552 0.0617409 0.0748607 0.0218381 -0.11465 -0.102808 -0.0498676 0.0204842 -0.0336141 0.0127066 -0.0451605 0.0319905 -0.101525 0.0757278 0.0469711 -0.0356513 0.035538 -0.0648824 -0.0242301 0.0337195 -0.0544588 -0.0800343 0.137838 0.0496515 0.102745 0.0378494 0.0156355 0.0175128 0.0721382 -0.0413574 0.0646848 -0.0255439 0.0469105 0.124947 -0.00461831 -0.0910431 0.00485419 -0.0241645 0.019251 0.0212184 -0.0654017 0.068654 -0.0595665 -0.070997 0.0160364 0.0220969 -0.00644739 0.0308862 0.0276814 0.0503763 -0.0291336 -0.0333452 0.0812678 0.0517494 0.00896436 0.0593267 0.0424722 0.0794097 -0.0927984 0.0991475 0.00764895 0.0396521 -0.0256702 0.0243158 0.0155694 0.0349108 -0.0502893 -0.0245516 0.0126842 0.02882 0.0175811 -0.0764289 -0.0468235 0.015154 -0.0112742 -0.0160583 -0.00717086 0.016111 -0.0843435 0.00866523 -0.0296291 0.00635831 -0.0291547 0.00200066 0.0278738 -0.0730132 -0.0285907 0.0197602 -0.000707361 0.0164428 0.075517 0.0333057 -0.0148983 0.0111326 -0.0603519 0.0836108 0.0264269 0.0324702 -0.0280266 -0.0387719 0.0252575 0.103936 0.00299981 -0.00621994 0.0806642 0.0334638 0.0160482 0.033108 -0.000400844 -0.0724044 -0.0364367 0.108665 -0.00692311 -0.0154861
according 0.0130445 -0.0792664 -0.00733442 -0.0272284 -0.0574897 0.0321567 -0.0354799 -0.0991747 -0.0266505 0.0776374 0.110083 -0.00548535 0.00278312 -0.0889252 -0.0556711 -0.0217692 -0.0184239 0.0350882 0.105973 -0.000542193 0.0458258 0.0587519 -0.115682 0.0320044 -0.0815575 -0.0313018 0.0153811 -0.0171555 0.0297763 0.0320541 -0.0194793 0.0892392 -0.0319764 0.0249472 0.00356758 0.0344043 -0.0537406 -0.0338758 0.0248642 -0.02077 0.0556867 -0.00446569 -0.0279929 -0.0958577 0.118147 -0.0131928 0.0765369 0.0101615 0.057468 0.0364778 0.00794187 -0.0050349 0.0152732 -0.0133383 -0.0432051 0.0156919 0.0326976 0.00031364 0.00784332 -0.0249326 -0.011281 -0.0321443 0.0448994 -0.0328686 -0.0173352 -0.0391358 -0.0291518 -0.0695329 0.0106639 -0.0227873 -0.0428103 0.0189032 0.0330831 0.00779638 -0.0368074 -0.0983384 0.00652025 0.0728966 -0.0683578 -0.051807 0.00663154 0.0934329 -0.0115974 -0.0699588 -0.0734033 0.0287551 -0.0799876 0.0591467 -0.100916 0.0320355 -0.0425057 0.0448123 0.035368 -0.125515 -0.0216871 -0.0902122 -0.0333784 0.0111358 -0.0167763 -0.0253141 0.0535541 -0.0257123 -0.0636046 -0.00572566 -0.0217412 0.00395524 -0.042717 -0.0301513 0.0255286 0.0091378 -0.0167125 0.0349141 -0.0198937 -0.123435 -0.00371244 -0.00975892 0.0156049 0.104323 0.0733971 -0.00601011 -0.0209563 -0.00471004 -0.0163989 0.0497645 0.0509148 -0.0748022 -0.0272688 0.0591094 -0.00465843 -0.0441129 0.00723961 -0.0128729 0.0365524 0.032393 0.0859315 0.0275433 0.0142311 0.0643818 -0.0279111 -0.0888071 -0.00145498 0.0219812 0.0994296 -5.81457e-06 0.00312738 0.0464133 -0.0175149 -0.0936629 0.00632595 0.0179072 0.0670149 -0.0458755 -0.0400653 0.00756136 -0.0449864 -0.0319422 -0.117544 -0.000345939 0.077796 0.0341587 -0.062016 0.10071 -0.104873 0.0638004 0.116742 0.00408207 0.00303086 -0.0571353 -0.00401306 -0.030625 -0.0808456 0.0154448 0.0180617 0.0557457 -0.0868299 0.0400622 -0.0721101 0.133464 -0.0889314 -0.0289202 -0.0207433 -0.0817782 -0.0157983 0.0365866 -0.0838113 0.043603 0.048319 -0.0701018 0.0702697 -0.0564638 0.0696386 -0.245245 0.155949 0.0467739 0.0132022 0.0312334 -0.0684418 -0.0199496 -0.112309 -0.00302744 0.00273506 -0.0117333 0.0756478 -0.0305921 0.00405316 -0.0148603 0.101599 -0.00676988 0.100017 -0.0384861 0.12355 -0.0389679 0.0472061 -0.0721225 0.0122695 -0.025504 0.0258354 -0.0581053 -0.0538867 -0.0476257 -0.00724178 -0.0750136 -0.0556742 0.0429657 0.00240258 0.0753369 -0.0366861 -0.0434911 -0.00797389 0.127414 -0.00485925 -0.0593083 0.0314355 0.0489096 -0.0982794 0.0631321 0.0418995 0.0130038 0.0310133 0.00450983 0.118495 0.0142392 0.0429129 -0.0885895 0.0244819 0.00874392 0.0297241 -0.104407 0.0127054 0.00318303 0.0333909 0.0269838 0.0417689 0.0379887 -0.0769193 0.0516951 0.0242154 0.0837865 -0.0393068 -0.0716189 0.127557 0.0257294 0.00193096 0.0537686 -0.0695112 -0.0787286 0.0248282 -0.0128167 0.0234392 0.011174 0.0194019 0.123544 0.0699278 0.00601135 -0.127302 0.0322904 0.101525 0.105911 -0.0110161 -0.0136893 -0.0611953 0.00465439 0.0776996 0.0680781 -0.0377773 -0.0537064 -0.0972224 0.0453719 -0.0511946 -0.0977074 0.0131571 0.032079 0.0733256 0.0628772 -0.0512194 -0.0816508 -0.0533085 -0.0764032 -0.032679 -0.0124573
account 0.0242616 0.00081327 -0.0725777 0.0363283 -0.0782282 -0.0195491 -0.0215694 -0.0327428 -0.00374779 0.048621 0.051583 -0.0160126 -0.013442 -0.0491445 -0.0148733 0.00146789 0.0123037 0.0792646 0.0468401 0.0770602 -0.00851203 0.0446304 -0.0612846 -0.0202994 -0.0472452 -0.0746716 0.0780782 -0.00723435 0.0432546 0.0344632 -0.0140454 0.0347999 -0.105097 0.0884032 -0.0833788 -0.0137022 -0.0540558 -0.0161281 -0.00843758 -0.0107246 0.0426943 -0.100859 0.0688738 0.097121 -0.0695052 0.05253 0.0152145 0.0320825 -0.0388536 -0.0852886 0.0730512 -0.022497 0.013195 -0.0839365 -0.0894634 0.0020689 0.0205335 0.00260004 0.0221013 0.00893713 -0.0436676 -0.0282735 -0.110855 -0.0612977 -0.096558 -0.0139907 -0.0506702 0.0359942 -0.0212785 -0.152168 0.0942194 0.0630076 0.0563943 -0.10113 -0.0575334 -0.0410949 0.112618 0.0794067 -0.0482632 0.0592906 0.167447 0.073935 -0.0544793 -0.00345106 0.0195755 0.0734168 -0.029836 0.0463166 -0.0705548 -0.0519802 -0.014878 0.00371753 0.0736273 -0.0405662 -0.0203044 -0.0283734 -0.0997936 0.0353366 -0.0567942 0.00732406 0.0488762 -0.0230768 -0.0120775 -0.0668325 0.0471663 0.0384065 -0.0525063 0.0456221 -0.0159234 0.000937012 -0.0225775 0.0372858 0.0566311 -0.0441858 -0.0921308 -0.0188468 -0.0798407 0.0438807 -0.0778546 0.092165 0.0470847 0.093938 -0.0181752 -0.0253338 0.0469742 0.0948034 -0.0753766 0.0770102 0.0889793 0.0613056 0.0315906 -0.073501 -0.0351814 -0.0411764 0.0291494 -0.0574913 -0.0187663 -0.0426233 0.0404583 0.0357838 0.0637126 0.112657 0.0270634 0.0580674 -0.0347552 0.0672481 -0.0971131 -0.0845047 -0.00918256 0.0647228 0.0146076 -0.0380513 0.0165032 -0.0787753 -0.0963949 -0.0238786 -0.0326455 -0.0417815 0.0106941 0.0162599 -0.0472741 0.0724225 -0.037078 0.050928 0.0789305 -0.0126704 0.0851939 -0.0406609 0.017833 -0.00930936 -0.0171259 0.0540873 -0.0621974 0.0735747 -0.0813875 0.051996 -0.119149 0.0523853 -0.0168402 -0.0490813 0.0511832 -0.0161233 0.0230173 0.0430389 -0.0553421 0.0567863 0.0107591 -0.0488919 0.0970526 -0.0671666 0.0496732 -0.140105 0.0113462 0.0319405 0.0417657 -0.080109 -0.029573 -0.0369123 -0.108522 -0.00649806 0.0811007 0.0742954 0.0746927 -0.050807 -0.0766735 -0.0162533 0.0582016 0.0617449 -0.0310961 -0.00120441 0.0262634 0.00306752 0.0672034 -0.0271765 0.0647754 0.0516856 -0.0273738 -0.00127786 0.0125255 0.00758028 -0.00265478 0.012229 0.0652094 -0.00555236 0.0603823 0.145005 -0.0390167 -0.0282656 -0.0102248 -0.0390615 0.0343133 0.0322167 -0.00315775 0.0646438 -0.0769234 -0.0356575 -0.049468 -0.0141252 -0.00924412 -0.00258226 0.125863 0.0314538 -0.0105031 -0.0183667 -0.080885 0.0315327 0.034429 0.00281156 -0.0383012 -0.0515067 -0.00677611 0.0172558 -0.0408713 -0.0206903 0.025635 -0.0277289 0.00941353 0.0073622 -0.00810034 -0.0435466 0.0449987 0.100112 -0.0820293 0.00829842 -0.00685055 -0.00842522 -0.0369018 0.0214908 -0.0321536 0.0590302 -0.103084 0.049205 0.188239 -0.0541268 -0.130545 -0.0216991 0.0272528 0.050415 0.0513831 -0.0296361 0.0303279 0.0359153 0.053769 -0.0928831 -0.0458194 -0.137206 -0.0135572 0.15315 0.0776205 -0.0339003 0.00955295 0.0640677 -0.0227679 -0.0972025 -0.0319063 0.0452907 0.0149325 0.0559971 0.0286838 0.0423208
across -0.0296412 -0.0465006 -0.0167749 0.149861 0.0394515 -0.0137246 0.021682 0.0223312 0.0527857 0.0648887 -0.032657 0.0642266 -0.0536485 -0.0725669 0.135979 -0.0768988 -0.0634357 -0.0380554 0.0713656 0.0102974 0.00920365 -0.00637024 -0.0068205 0.0441039 -0.0228515 -0.0926566 0.00869886 0.00144319 -0.0128867 0.0996008 -0.0166623 0.139864 -0.0551943 0.103873 0.017919 -0.0319321 0.0490769 -0.058948 0.0602482 0.0201502 -0.0193375 -0.0627827 -0.0534178 0.0345414 0.0276586 0.105559 -0.0017632 -0.0815303 0.111201 -0.0927375 -0.0985583 -0.0943522 -0.00456737 0.00455329 -0.0927735 0.119771 -0.0899334 0.0334509 -0.0192147 0.103759 0.00711079 -0.00853888 0.0310303 -0.0161164 -0.0271781 -0.0149466 -0.0968567 0.0224843 -0.00573932 0.0100565 -0.0779383 -0.0698587 0.0552602 -0.0809611 -0.0427798 0.0226574 0.0610511 -0.00379296 -0.0413688 -0.0336906 -0.0297688 -0.0714045 -0.0422376 -0.0175265 -0.0777915 -0.00776298 -0.0539301 0.0753649 0.0277511 -0.00111943 -0.0206733 0.00455659 0.153537 -0.0572135 0.0971503 -0.0234537 0.0472435 0.0174531 -0.0113957 0.0202776 -0.0189376 -0.0234977 0.105368 -0.0374293 -0.0832439 -0.0431782 -0.0429865 -0.0131287 -0.0588672 0.0767909 0.00705387 -0.0133915 0.0695022 -0.0496431 0.0390201 -0.0460842 0.0600295 0.0745261 0.015351 0.0589031 0.150853 -0.0011141 -0.076713 0.12851 -0.00402334 -0.041249 0.036989 0.000169367 0.0380165 0.0473693 0.01867 -0.0413658 -0.0794812 0.00856405 -0.0211116 -0.0345264 -0.0633848 0.0459553 -0.0843433 0.161539 -0.102959 0.143855 0.062528 0.00359284 -0.044799 0.000924469 0.0339213 -0.038358 -0.0182467 0.111189 -0.061833 -0.0662787 -0.0738461 0.0408805 0.0281508 -0.0240984 0.00548618 -0.08032 0.0683548 -0.0134981 -0.0918178 0.0232925 -0.0434509 0.0019315 0.0406198 -0.0206976 -0.0472585 0.00932797 0.0512938 0.0170805 -0.0545862 -0.00458085 -0.0166721 -0.0880072 -0.108954 0.066824 0.0910329 0.0985913 -0.0170664 -0.0362819 0.104823 0.00197455 -0.00664615 0.00688251 0.0908621 0.00271766 0.0128118 0.0300357 0.0782469 -0.0371717 0.026753 -0.0173051 0.0538253 0.0528247 -0.0342029 -0.0335917 0.0499487 0.0974379 -0.0475671 -0.131006 -0.0114496 0.0255016 -0.0379596 0.022756 -0.0607126 -0.0569139 0.0488612 0.0452094 -0.000882858 0.0622045 0.0279342 0.0405929 0.0072486 -0.0494993 -0.037696 0.0844601 0.0530733 -0.101123 0.0555299 -0.0388703 0.0108262 -0.000163429 0.0113507 0.0985134 0.0205544 -0.0326451 0.0172072 -0.0343467 0.0289456 0.00975697 -0.0536635 0.0286331 0.115146 0.100832 0.0453891 0.0377379 -0.0380045 -0.0231712 -0.0361651 -0.0313958 0.14555 -0.0115691 0.0553771 -0.0484988 0.0510901 0.029427 0.0146608 0.0146068 0.0344455 0.0255609 0.0418841 -0.00949724 0.00492267 -0.0401675 -0.0730432 0.0334749 -0.0405689 -0.000755147 0.0481542 0.0958681 0.0114496 0.0112899 0.0599367 0.0135586 -0.0732649 -0.108396 -0.0871623 -0.0509194 -0.0912276 0.0300867 0.0188438 0.0124502 0.0495113 -0.00729773 0.0163135 0.0364617 0.0295714 0.0958861 0.0571775 -0.0430794 0.0323275 0.0373934 0.0935314 0.0472855 0.0101132 0.0674561 0.0273605 -0.0117785 0.00472495 0.0882708 0.0692116 0.0148363 0.107054 -0.0253767 0.0106123 0.0145853 0.00903708 -0.0210472 -0.027732 0.0429925
act -0.0497844 0.0177855 -0.017462 0.0543337 -0.103553 0.0757165 0.0244709 0.0719343 0.0384111 0.00563283 -0.127788 0.0367306 0.000829082 0.029198 -0.0607583 -0.0496967 0.00554126 -0.00997563 0.0496699 0.0503981 0.0154239 0.0152502 0.0225756 -0.0832808 0.0193331 0.0840406 -0.0219054 -0.0497844 0.0989014 0.0467888 -0.0737876 0.0623997 0.025691 0.0329947 0.0590608 -0.0478872 0.00331579 -0.113899 -0.000936556 0.0246097 -0.0522149 -0.107832 -0.0233469 -0.0122089 0.0458877 0.0625117 -0.0594505 -0.0603905 -0.0553298 -0.0390272 0.063369 0.0514112 0.00989867 0.0126492 -0.0512042 0.00620612 -0.0310026 -0.00853679 -0.00202033 -0.0313606 -0.0336499 -0.113285 0.0755606 -0.00483256 0.00758991 -0.060975 0.058206 -0.104157 0.00601007 -0.0166944 -0.00847932 -0.0413116 0.0526849 -0.0345899 -0.141202 0.0075848 -0.0288667 -0.0394461 0.0654805 0.0248508 0.137305 0.0456564 -0.0855628 -0.00484108 -0.0706435 0.0208611 -0.00115294 0.0372835 -0.0738729 -0.0531062 -0.0619492 0.0412727 0.0685978 0.0759016 -0.0833466 0.00209503 0.142916 -0.0543702 -0.0296607 -0.0324906 -0.0439784 -0.0323518 0.0164034 0.0558315 -0.0229076 -0.0500961 -0.00722606 0.000293295 -0.0199342 -0.0599497 -0.0179328 -0.0689899 -0.0289666 -0.0260368 -0.0119035 0.0892573 -0.0094413 0.0324419 -0.0255254 0.0353157 0.109398 0.0462457 -0.0874405 0.124838 0.018424 -0.0823188 0.0224147 0.0722363 0.0535349 0.128708 0.0100355 -0.0664011 -0.0225644 0.00920677 0.02328 0.0630329 -0.0476169 -0.0612161 -0.0103064 0.0189783 0.00507269 0.0357029 -0.0673509 -0.0325345 0.074752 0.0930224 0.00982244 -0.0743892 0.0739264 0.0939844 0.0428045 -0.059129 -0.0362825 -0.0524828 -0.0250505 0.0535933 -0.105462 -0.0540098 0.150147 -0.0370643 0.0832491 0.0860645 -0.0347726 0.0719319 0.0437227 -0.0573877 -0.00703927 -0.0454421 0.0553468 0.0935338 -3.67647e-05 -0.0763399 -0.133957 -0.00897346 -0.0433135 -0.0375928 -0.107218 0.0186756 0.000758699 -0.122206 -0.0252234 -0.0317624 -0.00116719 -0.0325272 -0.101247 0.0573974 0.0119919 -0.0156306 0.042354 -0.0881345 -0.0948051 0.00416915 -0.028913 -0.0547891 -0.0957525 -0.0460241 0.0172 0.028046 -0.00340931 0.042069 0.0052473 0.0172168 -0.0625385 -0.0287352 0.0411241 -0.0446213 -0.0418864 -0.0384671 -0.024673 0.12025 0.0654878 0.0702831 0.0552957 0.0870727 0.0739557 -0.0144173 0.0115667 -0.054134 -0.119415 0.0612916 0.0583204 -0.0317405 -0.00189958 -0.0204683 0.0647961 0.0419302 -0.110713 -0.095979 -0.0433647 0.000120813 -0.0236733 0.0992253 0.0488151 0.0192145 -0.047271 0.109486 -0.0188928 0.059185 -0.0325101 -0.0574851 0.0998659 0.0761402 -0.0815809 0.0378047 0.0287669 -0.000620929 0.0485837 -0.0359513 -0.0143849 -0.0288692 0.00692797 -0.0780837 0.0831737 -0.00351988 -0.0384841 0.0775795 -0.0969263 -0.055303 0.0759624 -0.0190711 -0.0177825 -0.0440563 -0.0475268 5.46065e-05 -0.0488443 -0.0246657 0.0735295 -0.0436423 0.0274128 -0.016568 0.0243525 -0.0129052 0.0664473 -0.0581914 -0.0514112 -0.0453179 0.0491853 0.00857771 -0.0891818 0.0083651 0.00634689 0.0772313 -0.0417403 0.0526484 0.0344268 -0.00332115 0.134651 0.0504176 -0.0174713 -0.0229655 0.0798859 0.0185188 -0.0159701 0.045744 -0.0319013 -0.0370789 -0.099145 0.0914467 -0.00897955 0.0467182
action -0.00801783 -0.00851362 -0.071623 0.0856418 -0.0247267 0.0641393 -0.0615195 -0.0540863 0.0872335 0.0590153 -0.120188 -0.0248929 -0.0426945 0.0399061 0.0908284 -0.0241199 -0.00344065 0.0261498 0.0284181 0.0879703 0.060631 0.12483 -0.102605 -0.0150178 0.0127732 -0.0376981 -0.0290152 0.0344667 0.077638 -0.00694005 -0.0172085 0.0029923 -0.0773009 0.0932291 -0.0582423 0.000146465 -0.00951169 -0.0553504 0.0271972 -0.0787047 -0.0789286 0.0402433 0.0553432 -0.0542885 -0.0349122 -0.0208067 -0.0925862 -0.0952349 -0.061936 0.0488298 0.0576331 -0.0852662 -0.0094055 -0.0994439 -0.021132 0.0172873 0.0741634 0.123629 0.0668987 0.0471034 -0.0704672 -0.0227265 0.078683 -0.0344956 -0.0169025 -0.00501734 -0.00120807 -0.00754034 0.0117703 0.022818 0.115199 -0.0372358 0.0470793 -0.0381797 0.0721889 -0.0532315 0.08033 -0.0234009 0.00832147 -0.0209755 -0.0164809 -0.0230022 0.073872 0.0246906 -0.106001 -0.0359668 0.0449676 0.0192399 -0.126617 -0.0807153 -0.0229285 -0.026523 0.0350374 0.0370889 -0.013875 -0.0305948 0.0194513 0.0270311 -0.0791405 -0.0525549 -0.0337395 -0.0129497 -0.00146006 -0.0521046 -0.00176552 0.0317241 0.0447484 0.0519866 -0.00403757 -0.0379846 0.0906045 0.0401229 -0.0352565 -0.0236966 -0.090566 -0.0121004 -0.00509608 0.0722443 0.0705587 0.0355743 0.0284253 0.03778 0.0205746 0.013307 -0.0251578 -0.0768747 -0.0412449 0.0636673 0.00642235 0.0995812 0.040342 0.0778691 -0.00267975 -0.059061 -0.00306381 -0.00130833 -0.114951 -0.106632 0.0865231 0.0633471 0.0836673 0.00530099 -0.0196704 0.0299278 -0.0680304 0.0528438 -0.0303179 -0.00772383 0.00391139 0.0434313 -0.0191455 -0.0774766 -0.0161811 -0.0181924 -0.00748039 -0.144592 -0.0108375 0.0577631 0.0976115 0.0153518 -0.0110556 0.00256658 -0.0362678 0.0915171 0.0450253 -0.0527956 -0.00634121 -0.104265 -0.0503035 -0.043347 -0.105825 0.0513052 -0.132837 0.044368 0.0204862 0.132035 0.00832002 0.0504552 -0.0236271 -0.0676403 0.0102516 -0.10143 0.00967904 -0.0147891 0.0350976 0.0489526 -0.0554203 0.0352613 -0.0566989 -0.0194765 -0.166969 -0.0361908 -0.0147905 -0.0477246 -0.0257453 -0.0692031 -0.0161108 0.0628992 -0.08314 0.0466964 0.0380858 -0.14452 0.00298772 -0.0149417 -0.0575633 -0.0982929 -0.106569 0.0464894 -0.0243583 0.0107559 0.0819024 -0.000731039 0.0342693 -0.0453119 0.051009 -0.0141132 0.0411342 -0.0767735 -0.0697015 0.0268409 0.0109256 0.0696293 0.0102016 0.0849483 -0.0356658 -0.0374766 -0.0441489 -0.0567205 -0.00165714 0.0428438 0.0389093 0.00700121 0.0821648 -0.026039 -0.0615628 0.033335 -0.0281219 0.0148076 -0.017687 0.0231231 0.0365182 -0.000663184 -0.00187479 0.0897714 -0.0209772 0.0448664 0.0662004 0.0260029 -0.0213689 -0.0425645 -0.0386155 0.0191662 -0.00788515 -0.0513485 0.0828872 0.0109254 -0.0914545 -0.075466 -0.043949 -0.18354 0.0713919 -0.0797497 -0.0823165 -0.0822635 -0.031818 0.0146422 0.00997738 -0.0270744 0.0598412 -0.0489478 -0.0849387 -0.00958056 -0.0656129 0.0506141 0.00439466 0.0550254 -0.0221043 0.031517 -0.0458705 -0.0287865 0.118055 0.109338 -0.102398 -0.0853336 0.00205616 -0.0129249 0.0103162 0.025112 -0.0224144 0.0110841 0.113542 -0.0631544 -0.0530605 -0.015576 -0.0255454 0.0502601 0.0283819 0.0675705 0.0336191 -0.0709729
activity 0.0171477 0.0587128 -0.107394 0.0272543 -0.074559 -0.0297698 0.139032 -0.00858923 0.0420232 0.0370076 -0.0497005 -0.0435807 0.0626627 0.0712299 0.0910041 0.0277207 0.00841701 0.0097503 0.0551969 0.125597 -0.0194187 0.00580838 -0.0681755 -0.0681315 0.0320469 -0.106699 0.0369746 0.0170768 0.0231283 0.00405317 -0.0431906 0.0734356 -0.0585727 0.0681315 -0.0742184 -0.085343 -0.0531533 0.066879 -0.103203 0.0128207 0.031687 -0.0574987 -0.0521479 0.01236 -0.0232656 0.0744244 0.0505877 0.00236104 0.032154 -0.0528127 -0.044369 -0.0153593 -0.0577322 -0.100192 -0.0900235 -0.0211231 0.0254598 0.0804042 -0.0663956 -0.00277454 -0.108652 -0.0203521 0.0795967 -0.0821787 0.0160981 0.00204222 -0.0228696 0.0100574 -0.0681975 -0.088098 0.0016422 -0.0462478 0.0306021 0.0648216 0.000185304 0.0180676 0.0807091 0.0438279 0.0726061 -0.00048437 0.109177 0.0255348 -0.0260726 -0.0307284 -0.0414959 -0.0244863 -0.0512607 0.0857083 -0.00822803 -0.0700928 -0.0166621 0.033868 0.0891363 -0.0640965 -0.00297066 -0.0508157 0.0345629 0.0892077 -0.0529967 -0.018745 -0.00235826 -0.0396225 0.0523292 -0.0854501 0.02298 -0.00612316 -0.0428583 0.0853622 -0.00665466 -0.0142534 -0.0639976 0.0622506 0.00452507 -0.0196226 -0.00277262 0.0288469 0.0254617 -0.000801625 -0.012045 0.0686836 0.0733614 0.0322337 -0.0298577 0.0579189 0.0344558 -0.0155991 0.0118615 0.0843157 0.0332335 -0.0553891 -0.0808602 -0.04182 0.0202801 -0.0616354 0.0193157 -0.0852001 -0.0489589 0.00652968 -0.0495604 0.110193 0.0261231 0.110748 -0.0185359 0.00161124 -0.081437 0.112797 -0.0599653 -0.0785913 -0.00358841 0.0595451 0.0757209 -0.105254 0.031514 -0.0910151 0.0467285 -0.154051 -0.103247 -0.00375927 0.0670136 -0.0746002 0.0366285 0.0223784 -0.0774652 0.0263096 0.0889852 0.0551502 0.0249178 -0.0455007 0.0418447 0.0176347 0.0337471 -0.0408943 0.0209803 -0.0288633 0.0513047 0.0367219 0.00456572 0.0289897 -0.0867823 -0.0647392 0.0647118 0.0418227 0.0259707 -0.0400813 0.04438 0.0633246 0.00627615 -0.0441822 0.137546 0.00713178 -0.0826072 0.0142323 -0.00580426 0.024494 -0.0589408 -0.0944678 0.0331483 0.0502224 -0.0247758 -0.0141943 -0.0571361 -0.0989341 -0.0136694 0.00491594 -0.0540487 0.0640608 -0.0333379 -0.0307669 -0.0759269 0.0283881 0.130558 0.0141573 0.106164 -0.00262695 0.064959 -0.0724687 0.0174438 -0.0743393 -0.194679 -0.0144229 -0.0380816 0.01933 0.059133 0.0520628 -0.0523155 -0.0479426 -0.0171279 -0.122677 -0.0924407 0.0253598 0.0200184 -0.00389633 -0.0632065 0.038381 0.0261734 0.0895154 0.0954567 0.0406004 0.0406746 0.0927236 0.0172499 -0.0131953 -0.0380788 -0.0950694 -0.0318519 -0.0340603 0.0544882 0.0630884 -0.0328297 -0.0182398 -0.0783798 0.0294402 0.0520518 -0.0141924 0.00389331 -0.0287727 -0.0686754 -0.0871421 0.029822 -0.125748 -0.0533812 0.0767263 -0.0294484 -0.0274817 -0.072065 0.0548068 0.0148871 -0.0865104 -0.060446 -0.0677223 0.0191757 -0.0066489 -0.000677195 -0.00375762 -0.0350189 -0.00308383 -0.0142078 -0.0346124 -0.0110545 0.001803 0.0951683 -0.0211388 -0.00331593 -0.0337169 0.0629181 -0.0326182 0.0433252 -0.00308191 -0.0897186 -0.0256639 0.0113967 -0.0144649 -0.0808135 -0.0588254 -0.0824341 0.0122436 0.0426907 0.126905 0.0550156 -0.014766
actually -0.0454939 0.0435141 -0.0533167 0.0664582 -0.0611563 0.048795 -0.0585683 -0.101982 0.00484511 0.0528092 0.0447599 0.0121704 0.00502337 -0.0126667 0.0349275 -0.0735218 -0.0394399 0.0236656 -0.00315995 0.0531112 0.0155114 0.038575 -0.0486188 -0.0706192 -0.0811181 -0.0115832 0.0424193 0.0272192 -0.0789495 0.0396753 -0.0236236 0.0182559 -0.0594701 0.0710932 0.0510139 -0.0716804 -0.0603174 0.00881985 -0.0264084 -0.0378901 0.0316935 -0.028116 -0.0268299 -0.0294167 0.0122287 0.0539669 0.0253107 -0.0427801 0.0115417 -0.00418166 -0.0227725 -0.0932739 0.0549568 -0.0369283 -0.0734631 0.105975 -0.0136947 0.0438832 -0.019622 0.11303 -0.0619617 -0.00587403 0.0451835 0.0379249 0.0366783 -0.0893688 -0.0170428 0.0302338 0.112523 -0.031639 0.0403841 0.0594575 0.01097 -0.0756694 -0.0823135 0.0983115 0.0769194 0.0815334 -0.0163264 -0.022489 0.015925 0.032756 0.0188465 0.0763154 0.0378787 0.021601 -0.0621966 0.0261475 -0.0499947 -0.0892513 0.0394081 0.0419114 0.12014 -0.0120043 0.0152308 0.0145366 0.0732743 0.0527421 -0.0341741 0.0403871 -0.00507371 -0.0483126 0.0233212 -0.0493906 -0.0466768 -0.0597427 -0.0195688 -0.081785 0.115526 0.0244281 -0.0140651 -0.0522178 -0.03719 0.0493277 0.0532999 -0.0365935 0.0991881 0.0393267 -0.00485769 -0.0284725 0.0792851 0.0326666 -0.02257 0.232436 0.0358616 -0.0376724 0.0618526 0.0210721 0.031264 0.0614541 -0.0087045 0.000691259 -0.0596505 0.00725487 0.0115564 0.00323717 0.00661604 0.00184018 0.0590926 0.00700026 0.0183637 0.0242268 0.0595456 -0.0478261 -0.0125798 0.0390364 -0.0202936 -0.057591 -0.0433295 0.00747298 0.0360243 -0.0411018 0.0091164 0.0359006 -0.0582034 -0.0823471 0.0118097 0.0251206 0.0396526 0.043879 -0.0609717 0.109163 -0.0513495 -0.0347618 0.01681 0.0297845 -0.0691008 -0.0871373 0.0777625 0.0743649 -0.0430779 -0.109121 -0.0900315 0.00554475 -0.0556111 0.00833118 -0.0439461 0.0516263 -0.0106025 -0.0639079 0.0483001 0.0103513 -0.0130156 0.0498898 -0.0496423 0.0399496 -0.0216753 0.0331553 0.123965 -0.0893855 0.00506868 -0.162933 0.0205528 0.00737441 -0.0314695 -0.00483923 0.00170244 0.032946 -0.164199 -0.0432121 0.037672 0.0715923 0.0415053 0.0482707 -0.0319678 -0.00598686 -0.028595 -0.00189631 0.0213837 0.0225351 0.0962813 0.000338797 0.0817305 -0.0371296 0.0250263 -0.029527 -0.0513159 -0.0629767 -0.0577587 0.0581069 -0.136016 -0.10358 -0.0402419 0.0298349 -0.0638618 -0.0288789 -0.0364262 0.0441223 -0.0440929 0.0997041 0.0795326 0.0215326 0.00100694 -0.0159845 -0.0089029 0.0603426 0.0557076 -0.0092976 -0.0183209 -0.00337702 -0.0263496 -0.00416115 0.058346 0.0146628 -0.015995 0.111298 0.0848261 0.0826197 -0.0126146 -0.0249688 0.010746 0.0367441 -0.110648 0.036474 0.0471298 0.00321926 0.05783 -0.0387613 -0.00561019 -0.0900818 0.0273656 0.00571799 -0.0479351 -0.112841 -0.0498017 -0.120484 -0.0352035 0.0910172 -0.0850652 -0.0532244 -0.106013 -0.0147123 0.107787 0.0957612 -0.0791005 -0.0792935 0.123072 0.0129338 0.0515131 -0.0833076 0.0916254 -0.0402294 0.0395662 -0.0937478 -0.013066 -0.028806 0.0503973 0.145898 -0.0388456 0.0488286 -0.0368494 0.0847925 -0.00543905 0.0233661 0.0284217 -0.0468529 -0.0943644 0.110153 0.0664079 0.00945364
add -0.0799173 0.042081 -0.0250165 0.0631764 -0.0320431 0.00736283 0.0210844 -0.129146 -0.0563328 0.0209168 0.0497781 -0.0975347 0.0603143 -0.0279492 0.0548737 -0.00906426 -0.0126979 0.00995842 0.0391601 0.0521853 0.0266919 0.0146771 0.048991 -0.0172208 -0.0888512 -0.0174817 0.0178352 0.0323574 -0.00462311 0.0400647 0.00259943 0.0519809 -0.00947774 0.0343251 -0.0298019 0.00210643 -0.00664551 0.0503019 0.0080781 -0.0438468 -0.0127786 0.00527015 0.00675437 0.0736462 0.0144706 0.0246187 0.0923752 -0.0478333 0.0240963 -0.0838374 0.016135 -0.0579939 -0.0142935 0.0161207 -0.0964205 0.099344 -0.0278879 -0.0422956 -0.0571302 -0.0742186 -0.0815094 0.0754197 0.0384905 0.0115988 -0.025266 -0.00070089 0.0175081 0.0790433 0.0245147 0.0100678 -0.0120018 0.0707764 0.0767025 -0.0584513 -0.0411508 0.0948566 0.0303002 0.0405068 -0.00160532 0.0878955 0.0374505 0.130301 -0.00597981 0.0240869 -0.0421909 0.00673418 0.10377 -0.0323242 0.0248918 -0.0637846 -0.0252499 0.0153957 -0.00134944 -0.0250286 0.0669483 0.0356182 -0.0691971 -0.0134474 0.0298045 0.032015 0.085662 -0.120744 0.00143646 -0.022101 0.00291401 -0.0263086 -0.117427 0.0211841 -0.0286392 0.0265565 0.0212017 0.0634907 0.0174856 0.0606669 0.0308931 -0.0291068 -0.0313659 0.114695 -0.00195486 0.064288 0.0480122 -0.0766259 -0.0430239 0.11977 -0.00126021 0.00268836 -0.033837 0.00663989 0.020421 0.153101 -0.0618322 0.111194 -0.101915 0.0487201 0.071244 -0.0437088 0.0460138 -0.0125688 0.0084811 -0.0836687 -0.0122325 0.0296767 0.0334307 0.00105873 0.0509025 0.0844149 -0.033676 -0.10099 -0.0699407 0.00243792 0.0151609 0.0599335 0.0204085 -0.0550755 0.0651211 0.0249067 0.0154537 0.0432744 -0.0333055 0.0396558 -0.0649959 0.115111 -0.0488198 -0.0641986 0.0769121 -0.0715686 -0.0470616 -0.154371 0.00866356 -0.0777477 -0.0789897 -0.0889458 -0.0780186 0.0411406 -0.0570305 0.0493334 -0.00838783 -0.00953932 -0.0882481 -0.0433613 0.000246077 0.0245085 0.0821866 0.0164038 -0.0826184 0.174327 0.0468469 -0.0873282 0.00168209 0.0250459 -0.0297201 -0.0575518 0.0244906 0.0209245 0.0316674 -0.0553081 0.0707202 0.0541632 -0.0809242 0.0592256 0.197551 0.0146551 -0.0106356 -0.0659542 0.0691383 -0.0479432 -0.0368678 0.0496426 0.0770603 -0.0292193 0.0538821 -0.0625478 0.0948719 0.0541888 0.10354 -0.0573883 0.017231 -0.0167856 0.0247426 -0.0469824 0.00934588 -0.0281766 -0.0120777 0.0243278 -0.0352068 0.0366429 -0.0230263 -0.0316853 -0.00499467 0.0607487 0.0293138 0.0476212 0.066059 0.0528778 0.0285497 0.0228812 -0.0250125 0.070066 0.0397887 -0.00780952 -0.0352962 -0.0190986 0.119445 0.0457276 0.0297559 0.0684611 0.106272 0.103847 -0.0175615 -0.00351735 0.11103 -0.028767 -0.134075 -0.000952783 0.0719953 0.0605724 0.0987946 -0.0789002 -0.00148317 0.0299527 0.0110473 0.0399369 -0.00296895 0.0560339 -0.0704314 0.0164593 -0.0281025 0.0915958 -0.0820767 -0.0370211 -0.0227923 -0.0533889 -0.00627522 -0.0631278 -0.0154683 -0.0878367 -0.01716 0.0662123 -0.0600357 -0.0410664 0.0101271 0.0099459 -0.022388 0.053532 0.0579505 -0.0540227 -0.0197298 0.00689364 0.0100371 0.0606771 0.0499672 0.0413245 -0.0531871 -0.111431 0.0293368 -0.0807351 -0.108352 0.0640325 0.119164 -0.0478768
address -0.035487 0.0926969 0.0235852 -0.0395099 -0.00963541 -0.038359 -0.00698897 -0.0783779 0.0193166 0.0278786 -0.017363 -0.039561 -0.0855719 0.0788612 0.0148592 -0.106914 0.0464712 0.0348758 0.0528111 0.103052 -0.0228338 0.077071 0.0230594 -0.0592047 -0.0256511 -0.0922315 -0.0742629 0.00674474 -0.0849147 0.0625831 -0.106492 0.0703194 0.000711761 0.0733653 -0.15184 -0.0525989 -0.0329347 0.00953695 0.0573736 -0.00807102 0.0402822 -0.0694396 0.107456 0.0115394 -0.026403 0.0953055 0.124407 0.0100582 0.0571895 -0.0869939 0.0823163 -0.101433 -0.00285257 -0.00260475 -0.0698258 0.0856998 -0.00380496 0.0596676 0.0124335 0.0216321 0.0375892 0.0382644 -0.0154809 0.0507115 -0.118236 0.000802448 -0.0256844 0.0538085 0.0173801 0.0268173 -0.027536 -0.0372414 0.0295359 -0.0128908 -0.078718 0.0244179 0.0748767 0.0564555 -0.133979 0.0778689 0.0420622 0.0073956 0.00984103 -0.0786899 0.051558 -0.0521283 0.00392669 0.0621432 0.0527318 -0.0718385 0.0568186 -0.0492461 0.0631355 -0.057325 0.00701787 -0.00944718 0.066473 0.0395968 -0.000604272 0.0158536 0.0131271 -0.0862982 0.0183368 -0.104911 -0.0484814 0.0595781 0.0319757 0.0094748 -0.0258378 0.0541001 -0.00719254 0.0810018 -0.0480773 -0.0258148 -0.0976558 -0.0435199 0.0736568 -0.0371826 -0.0541103 0.1073 0.045305 -0.0741837 -0.0180995 0.0575859 -0.0199163 -0.0100661 0.0303159 0.102863 0.0970318 0.00305819 -0.0168694 0.0588365 -0.104477 -0.0257125 0.0223183 0.0311624 -0.0530924 -0.0622813 -0.0506347 0.0226628 0.0436657 0.0564273 -0.0117857 0.000896357 0.0430136 0.0604681 -0.00928939 0.00617954 -0.0456656 0.0284234 -0.0231829 -0.0494992 0.0190353 -0.0828662 -0.0593965 0.00706416 -0.0492 -0.118916 0.0911523 0.00815593 0.00190788 0.061243 -0.0430673 -0.00380649 -0.007068 0.0517779 0.0271984 0.00374588 0.0144309 -0.037469 -0.0447654 -0.0429982 -0.111021 0.0734394 -0.0993565 0.133007 -0.0108039 0.0247299 -0.0733857 0.0473996 -0.0744599 0.0514787 -0.0414177 0.109489 -0.0348911 0.148411 -0.0558161 -0.0017541 0.000586702 -0.0506705 -0.0037134 -0.0767667 -0.131335 0.0123095 0.0441312 0.00257611 -0.0575066 -0.011478 -0.116366 0.0679563 0.00508751 0.0362926 0.0146577 -0.0658924 -0.123864 0.00495581 0.0132427 0.0474993 0.00179315 0.0195181 0.0476988 0.0490287 0.119381 -0.0483382 0.00812626 -0.065363 0.0246115 -0.0370496 0.053719 0.0531947 -0.0316867 -0.00879862 -0.00971392 -0.0697184 -0.0468395 -0.00494097 -0.0406147 -0.13603 -0.00351469 -0.0351494 -0.0376915 0.012033 -0.0556703 -0.0214063 0.00800965 -0.0588365 -0.0172067 0.0172901 -0.0374588 0.0368783 -0.063202 0.0997069 -0.0258813 0.007658 0.0154871 0.0757718 0.0863673 0.0471541 -0.0527574 -0.0559798 0.144199 0.0151702 0.0196365 0.0532638 -0.046796 -0.0263467 -0.00869657 -0.0664551 -0.0749534 -0.00748639 0.0441158 -0.0728512 -0.0125644 0.0590206 0.100863 -0.0324104 0.00290295 -0.0294796 0.0143531 0.0203166 -0.00319706 0.0683552 0.0354026 0.0252417 -0.0167789 -0.0519211 0.0359013 0.0977274 0.0418909 -0.0565322 -0.0559082 0.093101 0.044103 -0.047865 -0.0862471 -0.0585961 0.0707055 0.0330703 0.0470364 0.0608696 -0.01891 0.0411287 -0.00399958 -0.062376 0.0944718 -0.0128616 -0.140531 0.000974743 0.000168185 0.0527421
administration -0.022442 -0.0836992 0.0417317 -0.0793672 -0.115976 -0.0201109 -0.00274854 -0.0950092 0.0522796 0.0900698 -0.121654 0.096712 -0.0477713 0.00445062 -0.0431202 -0.187275 0.0197689 -0.0506006 0.00355421 0.0952664 0.0154312 0.0384666 -0.0701911 0.0395907 -0.00520795 -0.0238535 0.0259945 -0.0304242 -0.0180587 0.0420199 -0.0346252 0.0927253 -0.0531941 0.106574 -0.00882623 -0.00592122 0.0638967 0.0159196 -0.0308505 -0.0436655 0.0390835 -0.0138884 0.00972073 -0.0256921 0.041696 -0.00314197 0.0102597 -0.0339608 0.0125645 0.0333678 0.0407172 0.0251729 -0.0845351 0.0616128 0.0500362 -0.00190649 0.00274734 -0.0338036 -0.0784265 0.013707 0.0467187 -0.105652 0.0250991 0.0103104 0.029755 -0.109803 -0.0466996 -0.0397622 0.0109341 -0.0800888 0.0183814 0.0277021 -0.0133735 0.0306671 -0.107119 0.0502815 0.0854377 0.0734038 -0.043475 0.0704864 0.0459566 0.00924133 0.0383047 0.0497766 0.014575 0.0171299 -0.0452516 0.118879 -0.0264756 -0.0648327 -0.0767308 -0.0618462 0.105212 -0.109177 -0.0586288 0.0164626 0.0440656 0.0399551 -0.0331939 -0.0468282 -0.0637229 0.0268542 0.0606292 0.0205296 -0.107955 0.0777144 -0.0862522 0.0187218 0.0213986 -0.0266471 -0.000404266 0.0386167 -0.0346252 -0.033806 -0.0666926 0.0430154 -0.0883528 0.00257302 0.0523272 -0.0811629 0.0469282 0.0975574 -0.081794 0.0620367 0.0468997 -0.0270781 -0.101003 -0.024075 0.0717153 -0.00609698 -0.0302146 -0.105231 0.0128294 -0.0122676 -0.0278997 0.0139051 0.0252181 -0.101304 0.0463924 0.0885361 0.0205841 0.0791267 -0.048874 0.0378641 0.0395431 0.105102 0.0857831 -0.0532227 -0.00303861 -0.00838183 0.0315911 0.0355302 -0.0378903 0.0976312 -0.0147584 -0.00183995 -0.145955 -0.0750828 0.0331201 0.0648898 0.00772977 0.0150339 -0.132673 0.135722 0.171888 0.0200335 0.0473141 -0.0294573 -0.0402552 0.0938041 -0.0499766 -0.0753114 -0.0415436 -0.00479309 -0.0736206 0.0980528 -0.0809081 0.0261136 -0.0788099 -0.0103735 -0.0682526 0.0829085 0.00708532 0.0496313 0.00208361 0.160337 0.075752 -0.0732514 0.0597743 -0.0114978 -0.0304027 -0.0170111 -0.0797292 -0.0630537 -0.0599124 -0.0550422 0.0787266 -0.0160147 0.0549874 -0.0299431 -0.00632918 -0.0626274 -0.0702459 -0.0180899 0.0309029 -0.0667546 -0.0656686 -0.032096 0.0146036 0.0403528 0.0694957 -0.027271 0.0114912 -0.0131073 -0.0025773 0.0207099 0.015424 0.00386119 -0.0204341 0.097836 -0.0438751 -0.03875 -0.0500766 0.0405338 -0.0191878 0.0178101 0.00423962 -0.113871 -0.0462424 0.00150606 0.0289762 -0.00234472 -0.0440847 -0.0410649 -0.00810486 0.0497861 0.0298979 -0.0344347 0.0350968 0.0361994 0.0864332 -0.00319865 -0.0530941 -0.0829729 0.00444705 0.0521533 0.0615199 0.0318698 -0.017314 -0.0251086 0.051265 -0.0311791 0.0620391 -0.00734062 -0.00803055 0.027171 -0.00103047 -0.179175 0.00469068 -0.00949425 -0.0164329 0.0329581 0.0648208 -0.00888886 0.0583239 0.0757782 0.0256111 -0.0591979 0.0285285 -0.0339227 -0.0343204 0.0386238 -0.0650923 -0.0459089 -0.113187 -0.0161621 0.0285809 0.0300193 0.0188416 -0.0244751 -0.0926467 -0.0247704 0.0726108 -0.0126548 -0.00173976 0.0293715 -0.0238773 -0.0715129 -0.0803079 0.0358612 0.00802817 0.0325056 -0.014927 0.0719392 -0.0476927 -0.0217758 -0.0298193 0.0394169 -0.0566545 -0.0988696
admit -0.00360523 -0.0702308 -0.0826411 0.0410805 -0.0996895 -0.0218415 0.00686275 -0.0208583 -0.0143133 0.151917 -0.00466033 -0.0730038 -0.0971231 -0.034449 0.00829611 -0.046836 -0.0534122 0.071965 0.0347226 0.0202885 0.00386304 0.0660058 -0.0214172 -0.135367 0.000154341 -0.00403792 -0.00964829 0.0264035 -0.105573 0.0454422 -0.0665324 0.0689243 -0.0323394 -0.00806042 0.000875062 -0.0690174 -0.0477439 -0.00126294 -0.084061 -0.0586585 0.022344 0.0776566 0.0290281 -0.00805518 0.0649873 0.142205 0.0728991 0.0404025 -0.0260493 -0.0238091 -0.0377197 -0.0905237 0.0801444 -0.117457 -0.121379 0.0575819 0.00887603 0.0181676 -0.0669369 0.078096 -0.0508428 -0.0589495 -0.034484 -0.108809 -0.0313967 -0.0429806 -0.0512735 0.0131534 0.0658865 -0.0193379 0.0605644 -0.0461115 -0.0137607 -0.0549747 -0.0751862 0.00719214 -0.0153582 0.0601251 -0.00012719 0.0143613 0.0369107 -0.0602909 0.0271871 0.000654965 0.00229565 0.0638787 0.0283911 0.0239767 -0.052481 -0.056031 -0.0165372 -0.0587691 0.0320106 -0.0382958 0.0487158 0.101936 0.0311261 0.0220254 -0.0435422 0.00512327 0.0472812 -0.0349612 0.0677924 -0.0304219 -0.010131 -0.13958 -0.014139 -0.00753084 0.0284895 0.00459602 0.0507672 0.00306576 0.0548525 -0.0138282 0.0348477 -0.0769349 0.0715722 0.0175559 -0.0339224 0.0408157 -0.0455703 0.0183815 -0.00562172 0.15094 0.0513811 -0.0439292 -0.0146101 -0.0537497 0.0283824 0.0809999 -0.00984616 -0.096739 -0.148667 0.0572036 0.00657293 -0.0164889 -0.0488874 -0.070804 0.0376062 -0.0901134 -0.0321503 -0.0200543 0.078224 -0.0878205 0.032418 -0.0467837 -0.063838 -0.0222526 -0.0133068 -0.0505751 0.0926536 -0.0229711 -0.0150131 0.0321765 -0.0433268 0.00847186 -0.0414762 -0.0311435 0.0472638 0.141308 -0.00227831 0.133344 -0.103647 -0.0336809 0.03632 0.112097 -0.0540552 -0.0370708 0.090643 0.0493181 -0.0624384 -0.0291823 -0.069515 0.0116948 -0.0644316 0.0487041 -0.0282448 -0.0116383 -0.0861386 -0.0719214 0.0235513 -0.103426 0.0548292 0.074482 -0.0644723 0.0787274 -0.00600581 0.0131016 0.0811105 -0.0623802 -0.0308147 -0.0592288 -0.0287182 0.000943617 -0.0367769 -0.0997826 -0.0215243 -0.0533569 -0.151717 0.0570058 0.0518758 -0.0273596 0.123943 -0.0541949 -0.00144026 0.0206636 -0.0104299 -0.0227706 0.0978593 0.0227025 0.142586 0.0221066 0.0848816 -0.0434461 -0.0507264 -0.0186398 0.0327497 -0.038226 0.0686013 0.107665 -0.0650863 -0.0946556 -0.0634801 -0.0633549 0.0479243 0.0274888 -0.0237762 0.0581289 -0.00246494 -0.0115466 0.0223734 0.0859146 0.0380514 -0.0430067 0.0295199 0.0907128 0.0941085 -0.0142469 -0.0497604 0.0183864 0.0396256 -0.0398089 0.0727681 0.0316178 -0.0448486 0.0755266 0.0316527 0.0843142 -0.0415955 -0.0365645 0.0716857 -0.0475227 -0.0282413 0.0346178 -0.00512065 0.0666197 0.0854199 -0.0539883 0.0562434 0.0118344 0.0147873 0.0239214 -0.0926246 -0.0632211 0.0407837 0.00980484 0.0424859 0.10981 0.0419825 0.00804645 -0.0062386 -0.0311406 0.0473132 0.0564587 -0.0662793 -0.0238507 0.0323918 0.0693055 -0.0767225 0.0116764 -0.0125915 0.06158 -0.0272592 0.00666983 -0.0457827 0.00273064 0.0429253 0.119741 -0.0638351 0.0354529 0.0151481 0.0665441 -0.00252847 -0.0229967 0.00837788 0.0119689 -0.00949698 0.0230857 0.0263508 -0.0377138
adult 0.0758521 -0.0750834 0.0219925 0.0145815 0.0278357 0.0221481 0.102536 0.118434 0.0297056 0.0604707 0.0690629 0.10225 -0.0367049 0.0906541 -0.0625738 0.00223027 -0.0484228 -0.0304535 -0.0345395 -0.00297887 0.0343664 0.0683634 0.0175269 -0.111063 -0.00962615 -0.0865912 0.0171022 0.00591687 0.0118963 0.0557845 -0.0064559 0.0631255 -0.0371527 0.0560084 -0.0119374 -0.0351305 0.00244399 0.0482727 0.043201 -0.0464028 -0.0211787 -0.050969 -0.0248116 0.0442813 0.0582638 0.00477256 -0.0169237 -0.0514446 0.0414742 -0.0807392 0.0295948 0.0223487 0.0659672 -0.0267068 -0.0526427 -0.00737122 0.0582523 0.0294262 0.0903656 0.0391565 -0.0544733 0.0183998 0.073389 -0.0831516 -0.0274433 -0.100973 -0.0287129 0.0439328 0.0549188 -0.0236781 0.0288768 -0.0821543 -0.0475617 0.0765378 -0.0338678 0.0195522 0.13696 0.107527 -0.0128368 0.021624 -0.0569618 0.019283 -0.0543278 -0.012246 0.004719 -0.0428708 -0.00374782 0.129349 0.0394404 0.0282789 -0.0244769 -0.042947 -0.0337546 -0.105911 0.0902294 -0.0237982 0.0581438 -0.00364717 -0.0180687 -0.0116223 0.0110087 -0.109441 0.0764108 -0.0581738 0.0215887 -0.00546256 -0.0519547 0.0879463 -0.0245369 -0.0712629 -0.0805684 0.0137085 -0.142791 -0.0478064 0.00196595 -0.0736937 0.09652 0.00265522 -0.0600183 -0.00633886 -0.0332306 -0.0246408 -0.000365456 0.133109 0.0383278 -0.0646768 -0.00246685 0.0809031 0.0383531 0.11773 -3.69103e-05 0.0199074 -0.0480603 0.169902 0.0411579 0.018047 -0.117052 -0.0249293 -0.0515415 0.115971 0.0839619 0.10641 -0.0122509 0.0676386 0.0218609 0.0144566 -0.00929465 -0.0891629 0.0482704 0.0750696 0.00248324 -0.0119845 -0.0214033 -0.037192 0.00539608 0.0558099 0.0161598 0.0975865 0.078964 0.0464998 0.0514815 0.0187174 -0.0121766 0.0387433 0.0577144 0.0666967 0.0417351 -0.101956 0.0358992 0.0272678 0.034932 -0.00656671 0.00130794 0.0620313 0.081785 -0.00722324 -0.0722117 0.0234957 0.0154306 -0.00681049 0.0163228 -0.147378 -0.00619828 -0.0421875 0.00464721 -0.0528758 0.0560292 -0.0169343 0.0241837 0.0550112 -0.0593742 -0.0232695 0.0370212 0.0723756 0.0422568 0.0703002 -0.0199437 0.00731074 -0.0147427 -0.0612071 0.0736522 -0.0194139 -0.0479033 -0.0376421 0.07404 -0.0329328 -0.0208361 -0.0655586 0.00633563 0.0161483 0.131491 0.0132528 -0.0119088 6.73154e-05 0.040934 -0.0058093 -0.124337 -0.0337962 0.0338862 -0.0580122 -0.024246 -0.0869837 0.0608516 -0.0357192 -0.0574951 -0.0529774 -0.0445376 0.0220656 0.0843797 -0.0598151 0.072117 0.0132696 0.0438912 0.123185 0.0295463 0.0588502 -0.0175983 -0.00679548 -0.0962591 0.00382308 0.036975 0.0874961 -0.00971872 -0.0829461 0.058557 0.0915614 -0.120069 -0.0100613 -0.00344449 0.0875377 -0.0113441 -0.0373997 -0.105701 0.0184826 -0.0365687 0.0640835 0.0129882 0.00852385 0.0193262 -0.00156303 0.0185761 0.106449 -0.0412965 -0.0727311 -0.0564147 0.043231 0.0103106 0.105694 0.0482381 -0.0538269 -0.0848206 0.109701 -0.0687397 0.0512322 0.00612094 0.0344864 0.0249547 0.00899662 0.0493231 0.0278703 0.133114 0.019509 -0.0474763 0.0527858 0.0364002 0.0383508 -0.0535891 0.0908273 -0.0210206 0.0136572 0.0472801 -0.041061 -0.037349 -0.0650508 -0.0864573 -0.0675693 -0.038958 0.0370766 0.0417074 -0.0613964
affect 0.0136531 -0.0616932 -0.0680116 0.102376 0.00562265 -0.111582 0.0566647 -0.0194723 0.0293958 0.0038388 -0.00910518 0.0325277 -0.0670658 -0.00261747 0.0736119 0.0655951 -0.0510149 0.0299949 0.107858 0.0625845 -0.0249887 -0.105407 0.0232205 -0.019786 -0.0410644 -0.0106387 0.00274745 0.072473 -0.0021011 0.0214062 -0.0553748 0.042233 -0.0584102 0.102505 0.000401905 -0.00313888 -0.0239536 0.0587791 -0.0167323 -0.0438795 0.0379226 -0.0534214 0.0547385 0.0499602 0.057873 0.0961397 -0.0326243 0.0161217 0.0294552 -0.0123144 -0.0566524 -0.0413813 -0.0427554 -0.0954662 -0.0853846 0.0163681 0.0321217 0.0333299 -0.0405197 0.0267689 -0.138024 -0.0386133 0.0879818 -0.013942 -0.0838941 -0.0670584 0.00954242 -0.0848152 0.0172381 -0.0406559 -0.0177942 0.0590267 0.0167746 0.0162232 -0.0416462 0.0847161 0.0509208 0.0358973 0.0163054 0.0423989 0.0795961 0.0520374 0.010894 -0.00464568 -0.0727553 -0.0545479 0.0357017 -0.0389104 0.0599675 -0.0940723 0.0620472 0.0977341 0.128251 -0.114518 -0.0533075 -0.0362118 0.0301707 0.0785735 0.0653055 -0.0325104 0.0341469 0.00791851 0.0192044 -0.121772 -0.0569321 0.0361103 -0.056437 0.0218263 -0.0533768 0.0868577 0.0683532 0.0277493 0.0388683 0.0177499 0.0316636 0.0784993 0.0120353 0.0732331 -0.0106293 0.0840674 0.0988483 -0.0167919 -0.0296334 0.0957782 -0.0232388 -0.0634857 -0.012485 -0.000545355 -0.0327976 0.0637036 -0.163703 0.023397 -0.0356547 0.0222492 0.0081963 0.0131099 -0.0594699 -0.000728667 -0.0522478 0.00956519 -0.083191 0.0425524 -0.0732059 0.0166828 -0.0230373 0.00848572 -0.0244844 -0.0424633 -0.0149975 0.00672391 0.0304505 -0.0908661 -0.0590317 0.0137823 0.0188244 -0.00665879 -0.0484598 0.0165421 0.0558824 0.00687617 -0.0671921 0.0446024 0.0687048 -0.0336592 0.0411684 0.041983 0.000976499 -0.103493 0.0470758 0.0753302 0.0650232 -0.180242 -0.0670386 0.082936 0.0490589 0.0358676 -0.018482 0.0512006 -0.0384673 -0.0441568 0.0310174 -0.0623369 0.0609207 0.0132183 0.0497299 0.038549 -0.00815594 0.0421637 -0.0194428 0.00703314 0.000972192 -0.0616783 -0.0896802 0.0336691 -0.0689029 -0.0925299 0.0599155 -0.0452362 -0.0374447 -0.0224629 -0.0186087 -0.0641666 -0.0287025 0.0261524 0.0253428 0.0379226 -0.0263505 0.00259642 0.00969443 0.0230903 0.0873257 0.011921 0.182559 0.0210264 -0.0111802 -0.0531292 -0.0108049 -0.109009 -0.00199373 -0.00117519 -0.0555481 -0.0601879 0.0612005 0.0870657 -0.126714 0.0857386 -0.18528 -0.14612 0.028398 0.00602696 -0.0268134 0.0224208 -0.0515496 0.0797793 -0.0269422 0.00134555 0.0170281 -0.0486975 0.0456596 0.0140824 0.0190816 0.122356 0.069814 0.00361573 0.0328446 0.088722 -0.0307179 -0.051567 -0.0296854 0.0457091 0.0314433 -0.0112329 -0.00114978 0.0455408 0.0346644 -0.0185946 0.0210011 -0.0193327 0.0170274 -0.0385886 0.0677442 -0.0217077 -0.00190098 -0.0401236 -0.0787295 -0.0449862 -0.0599873 0.0405717 -0.0101822 0.0377096 -0.0599378 0.0150685 0.0488485 -0.0286604 -0.0110569 -0.0398513 0.0167105 0.0969493 -0.0379993 0.0286579 -0.0551644 0.0647905 0.0779942 0.00989844 0.0673332 -0.0654094 0.161495 0.0293438 -0.0648821 0.108809 -0.0414952 0.111725 0.00772688 -0.0444043 -0.0331863 -0.100326 -0.0218476 0.0609084 -0.00111886 -0.0559641
after -0.00893725 -0.0500989 -0.0372816 0.0697263 -0.0340186 -0.00713554 -0.00643212 -0.0750489 -0.0120677 0.0737126 0.0753829 -0.012383 -0.0257018 0.0333644 0.0094162 -0.032846 0.0306524 -0.0689118 -0.0489916 0.17623 0.00777026 0.047584 -0.159624 -0.0827624 -0.0745609 -0.0538675 0.0166704 -0.0321474 0.0255539 0.000247244 -0.0619564 0.0988427 -0.0157128 -0.00256954 0.066029 -0.0331204 0.0643287 -0.0465931 0.0691182 -0.0282876 0.0158153 -0.0345152 0.0123113 -0.0739341 0.000793467 0.00955734 0.0574184 0.0710851 -0.0352141 0.049168 0.0425279 -0.0988765 -0.0228799 0.0201477 -0.00583943 0.0139209 -0.0510073 0.0404935 0.00581128 -0.0186733 -0.0213916 -0.188129 0.00901682 0.0420512 0.0275373 0.0355898 -0.000387556 0.0731908 -0.018549 0.0068649 0.00537211 0.0385041 -0.0653947 -0.0815125 0.052077 0.0294175 0.106635 0.0568703 0.0220533 -0.0567727 0.0968646 0.00241527 -0.054393 0.0568516 0.0134201 -0.0374298 -0.0945149 0.0289783 0.0102401 0.00555528 -0.120809 -0.07497 0.100014 -0.00827061 0.085724 0.0676506 -0.0656912 0.119266 -0.0805103 -0.0701617 0.0226543 0.0163967 0.10215 -0.00639833 0.0409777 -0.0144565 -0.0351165 0.0821469 0.0916209 0.0836746 0.0893162 -0.00709537 -0.0139524 -0.038613 0.0421864 -0.0648279 0.0253313 0.04341 -0.0167282 0.100941 0.148345 0.0769219 -0.108077 0.145451 0.0556054 -0.041811 0.106271 -0.0105746 0.115952 0.0243926 -0.0951755 0.00106695 -0.0897441 -0.0882652 0.00315623 0.0263639 -0.0337712 0.0162353 -0.0506732 -0.0397203 0.0173073 -0.0414019 0.030622 -0.0233232 0.00207291 0.109634 0.0225274 -0.0282809 -0.0402045 0.0360801 0.00254849 -0.0660628 -0.023673 0.100768 -0.0780367 -0.0174995 -0.00374152 -0.0108332 0.0358984 -0.0116057 -0.0387781 0.0978255 -0.0974126 0.112543 0.0514352 -0.0455308 -0.0465292 0.0381851 0.0843389 -0.100265 -0.0267949 -0.0454407 0.00386055 0.0302556 0.0256005 0.0054986 -0.0718771 0.0970786 0.0188448 -0.0640396 -0.0341316 -0.0251403 -0.145319 -0.041308 -0.0758709 0.0600383 0.0273725 -0.0352783 0.0252435 -0.00461989 -0.0735287 -0.0467657 0.00986363 0.0453656 0.0267175 -0.0193755 -0.0979832 -0.0327052 -0.0240656 -0.0319883 -0.0748499 -0.0288105 -0.0236655 -0.0176159 0.0199472 0.036246 -0.0265858 0.0234606 0.0651582 0.0632364 0.0576023 -0.0229557 -0.0319774 0.00334518 -0.0314226 0.0129093 0.0253753 -0.044979 -0.100187 0.0285894 -0.0169947 -0.0393261 0.0444648 0.0740692 -0.026186 0.0600834 -0.0965906 -0.00325487 0.0739828 0.0530642 0.0463829 -0.0131202 -0.127944 0.0441495 -0.0370278 0.00918086 0.022327 0.0113647 0.0180854 -0.066761 0.0561797 -0.088847 0.0774399 0.0100337 -0.0146123 0.018695 0.0323516 -0.0028839 -0.00564912 0.0257119 0.0511461 0.00479293 -0.0539425 -0.0569679 -0.0179387 0.0369832 -0.0528352 -0.0469759 0.000372617 0.0548547 0.0458911 0.0736863 0.0264221 -0.120857 -0.00774662 -0.0485712 0.0898604 0.0352235 -0.0262701 -0.0899693 -0.0910165 -0.0667948 -0.0332821 0.0226273 -0.1185 -0.00998037 0.0632852 0.0923528 0.0449302 0.0279712 -0.00885805 -0.00396565 0.093569 0.121191 -0.0205985 0.0508609 0.0154001 0.0256369 0.0306618 -0.042558 0.0224036 -0.0197644 0.0533532 -0.0634241 -0.0398066 -0.0107074 -0.0182273 0.0659465 -0.00920713 0.02099
again -0.107378 0.0322748 0.00654341 0.0654263 -0.0339315 0.0623109 0.0429496 -0.0535676 -0.023353 0.0137925 -0.0477283 -0.0776646 0.0180792 -0.1013 0.0752185 -0.0980944 -0.0234591 -0.00043568 -0.00572309 0.0828543 0.00257244 0.0221609 -0.0432744 -0.125913 -0.0749485 -0.0757938 0.00746745 -0.0935467 -0.000540803 -0.0334642 -0.0629841 0.0436932 -0.0246375 0.0520178 0.0137283 -0.0933079 -0.0292996 -0.106896 0.0301551 -0.0246348 0.0415798 0.0316831 0.0107065 0.0287669 0.000906113 -0.0198494 0.101844 0.0970416 -0.0287102 -0.0406326 0.00396268 -0.109949 -0.101378 -0.0259255 0.0225456 0.0377083 -0.0536733 0.105816 -0.0105069 0.0206646 0.0267885 -0.00251279 0.0668431 -0.0516694 0.0726237 -0.0295704 -0.0641778 0.103014 -0.0611251 0.0625653 -0.00623775 0.0382824 -0.0142112 -0.0536459 -0.0333703 0.0317621 0.130645 0.0546909 0.0290229 0.026459 -0.00597709 0.0041341 -0.0202729 0.0801655 -0.00955505 0.00256488 -0.072475 -0.0575322 0.0139862 -0.0846037 -0.00644479 -0.049963 0.0391845 0.0475013 0.00686982 0.0329147 -0.0070025 -0.000577906 -0.106047 0.00600801 0.036679 -0.0079328 -0.00271063 -0.0683264 -0.0562016 -0.13124 -0.0258496 0.0631876 0.0412354 -0.0553719 0.0560255 0.00521313 0.0142336 0.00528279 -0.0730033 -0.108842 0.0844315 0.045427 -0.0618217 0.0301571 0.0129295 0.109898 -0.0774768 0.185219 0.0263701 0.0037657 0.141995 -0.0102662 0.118626 0.0827603 -0.0417637 -0.0120779 -0.0556654 -0.0481118 -0.0528514 0.0449691 0.0062855 0.0268214 -0.0485815 0.115421 -0.0609685 -0.0046245 -0.0396699 -0.0158754 -0.0154179 0.0664595 0.0303786 -0.0814062 0.0431922 0.0668 0.058589 -0.0263635 0.0563151 0.0793162 -0.0441902 0.00853082 0.0739896 -0.0252101 0.0683538 -0.00356136 -0.0419751 0.0608315 -0.0240156 0.0931435 -0.0336548 0.0386644 -0.0358958 0.0259541 0.0679976 -0.0199707 -0.0886466 -0.0147016 0.0129365 -0.00474661 -0.0150977 0.0665182 -0.00486793 0.0962745 -0.0711873 -0.107949 0.0439946 -0.08586 0.0426834 0.0820715 -0.171951 0.0954918 -0.0594813 -0.019761 0.0329977 -0.000491999 -0.0502957 -0.0342344 -0.0685651 0.123988 -0.0429026 -0.0197833 -0.104149 -0.0253815 -0.0632737 -0.0330454 0.0293571 0.0115734 -0.01049 -0.0150821 0.0447734 -0.0299019 -0.0292702 0.095073 0.10883 0.102607 0.0584637 0.00623109 -0.0664674 -0.0439867 0.00759269 0.0141999 -0.0164628 -0.0701424 -0.0440259 0.011036 -0.0935506 -0.000600331 0.0139432 -0.0397012 -0.0174593 0.0235874 -0.0579941 -0.0333977 -0.0307715 0.057407 0.100584 0.00640839 -0.036585 0.0211852 -0.00791518 0.00498574 0.0443429 0.0297352 0.0373846 -0.0220235 -0.0597787 -0.0594422 0.0302706 0.0101139 -0.03133 0.00225166 -0.0133365 0.0589647 0.0331354 -0.00322466 0.053051 -0.0459201 -0.0774885 0.00809639 0.00467772 0.0674615 -0.03064 -0.0848972 -0.0569178 0.00203355 0.0385904 0.0660525 0.0277341 -0.117918 -0.0234054 0.0380476 -0.0124728 0.0603149 -0.0321871 -0.0743223 -0.12099 -0.116994 -0.0195848 0.0430513 -0.0484993 -0.0590273 0.094576 0.111847 0.00941689 -0.0649801 0.0199081 0.0655046 -0.0651484 -0.0574775 0.0526909 -0.00931474 0.0343248 0.0917033 0.0325597 -0.0253052 0.007833 0.0582993 0.0830852 -0.0310036 0.0497086 0.0223992 -0.0259251 0.0652384 0.0231526 0.0568004
against -0.0604746 0.0140107 -0.048164 0.154855 0.00681634 -0.0127164 -0.0483173 -0.106468 -0.0100646 0.0697615 -0.123876 0.00469775 -0.0147411 0.00903555 0.0123688 -0.0353905 -0.0622314 -0.0724948 0.0564903 0.0652122 0.0173329 0.0776843 0.0196901 -0.0590434 -0.0433161 -0.0351 0.0748461 -0.0561971 0.0260303 0.0588255 -0.0813808 -0.0378064 -0.0577763 0.10824 0.0659843 -0.112607 0.0762369 -0.0605554 0.0545695 0.0153728 0.140048 0.0664578 0.0739986 0.00353314 -0.0539427 0.0211003 0.00373437 0.084558 -0.0082126 -0.0642895 0.0752093 -0.0855587 0.0278174 0.00795164 -0.00444971 0.0326465 -0.0470071 -0.0676469 -0.0438138 0.065761 0.000552178 -0.0724652 -0.0126747 -0.0100514 0.0222101 0.0491109 -0.00403272 0.0802078 0.0408276 0.0260572 0.0477685 -0.0581718 0.0190237 -0.0259192 -0.0293078 0.0121767 0.0845095 -0.0300719 0.028942 0.0112962 0.0349386 0.116443 -0.00523231 0.017144 -0.0214824 -0.00114398 -0.0887064 -0.0631837 -0.0117514 -0.11406 -0.0974471 -0.0589788 -0.0264104 -0.0561514 0.00237511 -0.0200893 0.00838101 -0.00103869 0.0313255 -0.0972103 0.0141003 -0.00711739 -0.0259065 -0.0294262 0.0192449 0.0726912 0.0696754 -0.0167039 -0.00497485 -0.0333567 -0.0355654 -0.0517528 0.0488419 0.0313605 0.0453015 -0.0124159 0.0870868 0.0181292 0.0200264 -0.0293509 0.0169918 0.0944528 0.102968 0.0645639 0.0337522 -0.0663502 0.0220589 0.0425628 0.0154171 0.0639989 -0.0573163 -0.0280864 -0.101227 -0.0480806 -0.00418795 -0.0964597 -0.0552582 -0.0412311 0.0616341 0.01105 -0.0406823 0.128886 0.122235 -0.00112577 0.01703 -0.0216123 0.0549972 -0.0155455 -0.032173 0.0962714 0.0281429 -0.0422696 -0.108561 0.0825914 -0.0466359 -0.0395551 -0.0505744 0.056068 0.0949639 0.013867 -0.038705 -0.0348686 -0.0576768 0.0617821 0.0566598 0.0174478 -0.0542198 0.00600926 0.0452073 -0.0973314 0.00845553 -0.0178919 -0.0731351 -0.0471605 0.0344678 0.10841 0.0139953 0.0354955 -0.00698395 -0.0842809 -0.0131667 -0.0960992 0.0367545 0.0933067 -0.0677653 0.112198 -0.0492159 0.0877432 -0.00937291 -0.0895941 -0.0295042 -0.01832 -0.0438245 0.0164386 0.0989913 -0.0325012 0.0102217 -0.0763311 -0.0988137 0.0268258 -0.0338921 -0.0148815 -0.00262471 0.0459875 0.0645423 0.0263039 -0.0546959 0.00648652 0.0298405 0.136241 0.124837 0.0516479 -0.046001 -0.0228256 0.031982 0.0482124 -0.023934 -0.0711416 -0.0234761 0.0252843 -0.0758038 0.00696512 -0.074378 0.118149 -0.0360685 -0.0418902 -0.130545 -0.0742461 -0.0364989 0.0256071 0.01468 -0.00593232 -0.00941165 -0.0256098 -0.0180872 0.0276937 0.0586829 0.041901 0.0990908 0.0348041 0.0140475 -0.0184744 -0.0440398 0.129338 0.0150088 -0.0408356 0.0488742 0.0234869 0.0323398 0.0836621 -0.0390251 -0.017525 0.0506282 0.00128111 -0.0275053 -0.0343306 -0.11785 -0.0358183 -0.0397622 -0.01304 -0.0013004 0.0908344 0.0242151 -0.0101456 -0.0650024 -0.0593367 0.137575 -0.0185995 0.0133047 0.0598317 -0.0687311 -0.015037 -0.13238 -0.00297759 -0.0901349 -0.0251538 0.0240241 0.0463104 0.0219919 -0.0152162 0.0107326 0.133758 0.0126324 -0.014397 0.120304 -0.0474026 0.0325093 0.0490679 0.0165667 0.0586829 0.0855534 -0.0271126 -0.0243975 0.103863 0.00174308 -0.0305373 0.0592775 0.000418526 0.0126454 0.0354417
age -0.0254164 0.00198394 -0.0117723 0.0326628 -0.0138604 0.0767988 0.0196687 0.0110766 0.0689322 0.0934745 0.145025 0.0657449 0.0214899 0.0571896 -0.0270873 -0.0533468 -0.132812 -0.0276965 0.0159427 0.0466942 -0.0290517 0.0277252 0.0476146 -0.0337576 -0.0944104 -0.0193983 -0.0400394 -0.0677447 -0.0407678 0.0303297 -0.00190798 0.109495 -0.0208779 0.0343535 -0.0517664 -0.097666 0.082531 0.0624208 -0.0360376 0.101184 -0.0347839 -0.0227787 -0.0185722 0.0128956 0.133505 -0.0148011 -0.0182278 0.0220879 0.0842482 -4.74513e-05 -0.0419729 -0.0370817 -0.0031515 0.0565319 -0.0996503 -0.0127543 0.033943 0.0614916 0.0969796 -0.00410393 -0.0209754 0.00752515 0.121771 -0.0404676 -0.0499124 -0.0201874 -0.0114651 0.126833 -0.0384943 0.00993193 0.0018534 -0.0677491 0.0655882 0.03438 0.0490449 0.0295793 0.0588539 0.063158 0.0579158 -0.0292724 0.000769533 0.104199 0.046447 0.0253149 -0.0355145 0.0197773 -0.0779885 -0.00784079 -0.0259329 -0.00593395 -0.0805621 -0.034444 0.0980302 -0.161722 0.0311641 0.0445708 0.118496 -0.0197681 -0.0983768 0.0540509 0.00881396 -0.0194297 -0.0862281 0.00826634 -0.0719164 -0.029449 -0.0377637 0.00390196 -0.0150287 0.0262485 -0.0772866 -0.0502567 -0.0127168 0.123422 0.0170324 -0.0608183 -0.0235535 0.0225536 -0.0606969 0.0223373 0.0729339 0.113975 0.00407236 -0.0298309 0.101555 -0.0775492 -0.0360862 0.00853055 0.0937173 0.112538 0.0039567 0.0555739 0.0580129 0.0296256 -0.0332366 0.0195952 0.0356757 0.00860052 -0.0244099 0.0244033 0.0740971 0.00870029 0.0690293 0.0392558 0.000731325 0.0513007 0.00597832 0.0306122 -0.0560198 0.0906625 0.0261006 -0.0554812 0.0504068 0.0594962 -0.0881815 -0.0545233 -0.105959 -0.0206499 0.0271756 -0.0189333 -0.00556225 -0.00139471 0.056949 -0.0191966 0.106711 0.0285661 0.0895368 -0.0729471 0.0721945 -0.00101727 0.0320293 0.00516671 -0.125892 0.112073 0.0825464 0.0357993 -0.13731 0.0549272 -0.0684841 -0.0093554 -0.00227721 -0.0462903 -0.034859 -0.00765957 0.00751146 0.0909251 0.0377328 0.0666477 -0.0203331 0.0177588 -0.0484335 0.00247675 0.140701 0.0201501 -0.024443 0.03979 -0.0942558 0.02799 -0.0448865 0.00809219 -0.060527 -0.0663298 -0.0295947 0.0379337 -0.00993237 -0.02652 -0.0540002 -0.054307 0.0710511 0.0245114 0.0674048 -0.108795 -0.000287471 -0.0563023 -0.0215566 -0.0207682 -0.114551 -0.0979177 -0.0637076 0.0290782 0.00559072 0.00180457 -0.0288862 0.0291775 0.0811007 -0.0467759 -0.029619 -0.0353887 0.127128 0.0227655 -0.011692 -0.0234321 0.027628 -0.0274912 0.0720157 0.103354 0.046394 -0.0624627 -0.0135829 -0.0622266 0.0031451 0.0204391 -0.00267672 -0.0472394 -0.0544019 -0.0305416 -0.0486035 -0.0356227 0.0108989 0.0422356 -0.029555 -0.00588208 -0.0226485 0.0169686 -0.0906139 -0.057353 0.0188315 -0.0450123 -0.0748321 0.0364813 0.00650452 0.08857 0.10367 0.0211657 -0.0227765 0.00105756 -0.0451734 0.0349384 0.0886252 0.0531349 0.0595315 -0.0234828 -0.0578717 -0.0451999 -0.0831291 -0.0260057 0.00294115 -0.0155489 0.0986306 0.0401895 0.175939 0.0311442 -0.00311883 0.0143519 0.0360685 0.0544703 0.0203801 0.0859103 0.0694774 -0.0258711 -0.0697797 0.095291 -0.0699254 -0.0462152 -0.0303407 -0.0525147 -0.0262551 -0.0291246 0.00225713 0.0484953
agency -0.0127464 -0.0428754 0.00457969 0.0709717 -0.00897223 0.044717 0.00742409 -0.047865 -0.015748 -0.0558791 -0.0643531 0.0984594 0.0219826 -0.0438294 -0.0105824 -0.105169 0.0271629 -0.0900381 0.0431659 0.154034 0.0424887 0.0748037 -0.0530652 -0.0374853 -0.00754191 -0.0441451 -0.0848905 -0.0481052 0.0413265 0.069496 -0.0728614 0.0943688 -0.0193647 0.00373435 -0.00167633 0.0309514 -0.0145535 0.0248019 0.0097526 0.0604295 0.0261837 -0.00128121 0.0230883 -0.0716649 0.0455704 -0.0547398 0.0427999 0.0151971 0.0117018 0.0281786 0.0600543 0.0753459 -0.0647169 -0.0392904 -0.083209 -0.0233674 0.0901136 -0.00979561 -0.0297984 -0.0267854 -0.0102937 -0.0223148 -0.0494459 -0.061459 -0.108693 -0.0505806 -0.0540306 -0.0860596 -0.120049 -0.070235 0.00796126 0.0112138 0.0148573 0.0211881 -0.135224 0.000278446 0.0693725 0.00416995 0.0885258 0.0403085 -0.0635821 0.071372 0.0358748 -0.0520448 -0.0675537 0.00377805 -0.0425917 0.0143156 0.0075021 0.0648724 -0.120724 -0.0887409 0.0705599 -0.00887706 -0.0685169 0.0282587 0.0929252 0.0471101 -0.0621957 -0.0710975 -0.086007 -0.0993425 0.0818409 0.00833234 -0.0347949 -0.0738085 0.0111619 0.0340011 -0.00861145 -0.0307066 -0.0593177 -0.0497067 0.0328892 -0.0595121 -0.00881827 0.0807039 -0.0294255 -0.00524131 -0.0262386 -0.130525 0.0830351 0.0214473 -0.0758401 0.0305076 0.062015 -0.0327107 -0.110479 0.0835202 0.0114783 0.0593108 -0.0727493 0.0271217 0.0498074 -0.0766888 0.0342207 -0.0099887 0.0630536 -0.0613607 0.0618068 0.0685169 0.0299311 0.132483 -0.0652888 0.0369271 0.0103072 -0.0143524 0.0696081 -0.0351449 0.0440307 0.0448909 -0.0179385 0.0132113 0.0961808 -0.0247035 -0.0270622 -0.0313518 -0.100896 -0.030892 0.0455429 -0.0231295 0.075943 0.0439049 -0.0771601 -6.80845e-05 0.126544 -0.0252503 0.0154833 -0.077883 -0.0621248 0.0496975 0.0372612 -0.0564511 -0.0507362 -0.00473617 -0.0807657 0.0527449 -0.0264537 -0.0252823 -0.0555566 -0.0302056 -0.0696859 0.055767 -0.0236488 0.0825341 -0.0722734 -0.00110502 0.00376295 -0.0188129 0.000931632 0.000138557 0.0901387 -0.0872195 -0.0220087 -0.0414203 -0.0709328 -0.031043 0.0609168 -0.000252205 -0.0350923 0.11002 0.0904041 0.0394345 -0.0281535 -0.0549526 0.00733052 -0.0111571 -0.0902874 0.00161241 0.102911 -0.0302903 0.134794 -0.0462155 0.0461286 0.0168116 -0.0760917 0.0204523 0.016448 -0.0231158 -0.025852 0.0657715 -0.0836254 -0.000484484 -0.0874277 0.0227365 -0.0836483 0.00369981 -0.0250581 -0.0703837 -0.011568 0.0442252 -0.0114131 0.0102275 -0.143822 0.0610221 -0.0687319 0.0568377 -0.0813376 0.0511045 -0.00545911 0.00240927 0.144327 0.00736438 -0.0129656 0.0590248 -0.0477895 0.0504319 -0.00183437 -0.0245845 -0.0451471 -0.012211 -0.00697889 -0.0160557 -0.0122307 -0.0211025 0.0246372 0.0237014 0.0380756 -0.0369935 -0.0154247 -0.0323516 0.121669 -0.0462338 0.0588761 -0.0557808 -0.0739206 -0.0340994 0.0143101 -0.111077 -0.00153341 -0.163558 -0.00324431 0.129894 0.0159406 -0.0137109 -0.1337 0.0977387 -0.00972354 0.0581646 0.0723809 0.0809189 0.00303314 0.0173634 0.00403908 -0.00323447 0.0802875 0.000848928 0.0268723 -0.048421 -0.0295994 0.0625732 0.0135995 -0.0211849 0.0642501 0.00701503 0.0438545 -0.0304069 -0.0506127 0.0429371 0.0372291 0.0240515
agent -0.0497415 -0.000462927 -0.086452 -0.0431701 -0.000293612 0.00579759 0.0429198 -0.0868543 -0.0703766 -0.0179605 -0.0320613 0.0608146 0.00123444 -0.00316076 0.0748783 -0.0468514 -0.064896 -0.138042 0.0326894 0.194724 -0.0246092 0.0440731 -0.0938012 -0.0671155 -0.00339344 0.0318601 0.0144797 -0.0370346 -0.0016551 0.00228904 -0.00859737 0.0863514 -0.0634387 -0.0166932 -0.0065609 -0.0217952 -0.0563375 0.00832132 0.0707052 -0.0291288 0.000995657 0.0046572 0.019501 -0.0566259 -0.044091 -0.0246048 -0.03663 0.100784 -0.0808685 0.0227988 0.052873 0.111019 -0.051134 -0.0546723 -0.0213584 -0.0201677 0.067614 -0.0899634 0.0835776 -0.00291377 -0.0314086 -0.0033655 -0.0284739 -0.0518918 -0.0930547 0.0214483 -0.106155 -0.0374101 -0.0505015 -0.0277452 0.107391 0.0288382 0.0534787 -0.0205218 -0.0459708 -0.00517174 0.0804774 0.0247836 -0.0125941 -0.0372447 0.0497996 0.0180079 -0.0559397 -0.0408567 -0.0550992 0.0174878 0.0805243 -0.088068 -0.0348217 -0.0566996 -0.0839039 -0.0753789 0.078982 -0.016509 -0.00520795 0.0846683 0.0824667 -0.00746659 -0.0855065 -0.0550344 -0.0291332 -0.101182 0.0967382 0.0474035 -0.00181559 0.0255324 0.0640869 -0.0751286 0.087127 0.0273406 -0.0285901 -0.0438451 0.0197158 -0.0352911 0.0452332 0.112306 -0.0371396 0.0184205 -0.0455483 -0.0506289 0.0769033 0.0286102 0.00791989 0.110985 -0.0769257 0.00279151 -0.0743821 0.127125 -0.0101028 -0.0481568 -0.103142 0.0415273 -0.0500299 -0.012388 -0.109097 -0.000559933 0.035984 -0.124644 -0.0217601 0.0409126 0.0342674 0.120243 -0.0302642 -0.0325061 -0.0438518 0.116893 0.00940739 -0.0303022 -0.0460848 0.00934458 0.061655 -0.0845141 0.033874 -0.059384 -0.00908061 -0.0263773 -0.11844 -0.0240236 0.0568516 0.0289499 -0.0251747 0.00475689 -0.113227 -0.0136511 -0.0378348 0.0300944 0.00153424 -0.0932357 0.0147649 0.0645853 -0.0125277 0.016882 -0.00497639 0.0487044 -0.0383556 0.0886447 -0.070998 -0.0195426 -0.0257648 -0.017378 0.0039006 0.00266254 0.0409685 0.0636018 -0.110637 0.0295289 -0.0399001 -0.0559173 -0.0520773 -0.0518649 -0.0119159 -0.0541962 0.0519722 0.0461272 0.0819101 -0.00857837 -0.0200779 0.0225462 -0.00299491 0.115552 0.0325508 0.00807746 -0.0210234 0.0167752 0.0812373 0.0415608 -0.166565 -0.0149142 0.0704705 -0.0131323 0.0858261 -0.019309 0.0321082 -0.0107145 -0.0262208 0.00875025 0.0607274 0.0874444 0.0194907 -0.000691942 -0.110596 0.00113817 0.0468023 0.0193211 -0.0509083 -0.0404164 0.00538229 -0.0189967 0.0530004 0.0747307 0.00148679 -0.0738926 -0.0700212 0.036221 -0.0207225 0.0590577 0.00277027 0.0711746 0.0520505 0.0196628 0.0476896 -0.00827952 -0.035946 0.0328481 -0.0555261 0.0214514 0.0301324 -0.0465877 -0.0047627 -0.0613063 -0.0536084 -0.0380113 -0.00593908 -0.0500589 -0.0024455 -0.0595919 -0.00640645 -0.0574484 0.0561073 -0.0116064 0.0272803 0.0446632 0.0686913 -0.0667892 -0.0972032 -0.0388629 -0.0610001 -0.0853366 0.0877417 -0.111779 -0.0285946 0.0649139 0.00671535 -0.0966846 -0.146048 -0.010358 0.0438854 -0.0358879 0.103757 0.10181 0.101841 0.0142224 0.0548914 -0.0171435 0.0617936 0.0111412 0.0240348 0.0884502 -0.0715724 0.0716037 0.00939242 -0.0425353 0.0591427 -0.0286482 -0.0107939 -0.1308 0.023856 -0.0196422 0.0147785 -0.0295736
ago -0.00751903 0.00257141 -0.110965 0.0647056 -0.0527663 0.123763 -0.0141615 -0.109851 0.00386193 0.109335 0.111203 -0.0339073 -0.0860258 0.0403115 -0.0143412 -0.00431128 -0.00990555 -0.0537648 0.000462406 0.0497787 0.0153778 -0.0346144 -0.0207454 -0.0561181 -0.0455444 -0.0856318 -0.0425946 -0.0328656 -0.0718006 0.0211041 -0.0182113 0.0682976 -0.0627004 0.0636153 -0.0132941 0.00136217 0.0500405 0.00527663 -0.064657 -0.025098 -0.0191494 -0.0268533 -0.0331408 -0.0247188 0.0565202 -0.0250367 0.0131203 0.0291197 -0.0154704 -0.0247636 -0.0337454 -0.122384 0.0238077 -0.0436282 -0.0319264 0.061208 -0.115197 0.128386 0.0336266 0.0364657 -0.0659254 0.0126963 0.0363254 0.0290441 0.0444676 -0.0763508 -0.0128102 0.102672 -0.00172068 0.0450883 0.0802613 0.0260979 0.10224 -0.0608949 0.0415718 -0.0193774 0.121423 0.0527015 0.0426837 -0.0367329 -0.0228974 -0.0534922 0.0267232 0.0836617 0.0387138 -0.00885519 -0.0749933 -0.00267234 -0.00715173 0.00739731 -0.0406137 0.0256828 0.0341718 -0.0241202 0.0855724 -0.0368759 0.0021809 -0.000266079 -0.0777649 -0.0080631 0.0249393 0.0397717 0.0263453 0.00265418 -0.0288336 -0.0169518 -0.0542938 0.0155913 -0.00465672 0.00971933 -0.0477951 -0.0206825 0.00720165 0.0619771 0.0168082 -0.0920063 0.107082 0.0289119 -0.0194206 0.107538 0.0954526 0.073428 0.0317348 0.0869434 0.107505 0.0426108 0.0152577 -0.00215669 0.0711475 0.0823042 -0.025702 0.00210668 -0.0385249 -0.0318643 0.0524181 -0.0632186 0.0432423 0.00954229 0.0270335 0.0144948 0.035845 -0.0428105 0.0249576 0.0504345 0.0280024 0.0584148 -0.106663 -0.0459546 -0.0636315 0.0811195 0.0489772 -0.0423301 0.0227924 0.00491553 -0.0622551 -0.0582286 -0.00392158 0.0224964 0.0300427 -0.0503536 0.0156995 0.110317 -0.135006 -0.00165645 0.0358342 -0.00802586 0.0753306 -0.0575161 0.0430723 -0.0301398 0.0681006 -0.0482917 -0.0574351 0.021351 -0.0853538 0.00554569 0.0021361 0.0339855 0.0156841 -0.129762 0.0260598 0.0241647 0.0246235 -0.0646003 -0.0948643 -0.0150799 -0.00706213 -0.0444082 0.124057 0.0300723 -0.066789 -0.12586 0.0379554 0.0204359 -0.0118476 -0.106585 -0.00891726 -0.00320343 -0.0158253 -0.027379 -0.0242821 0.00209357 -0.058825 0.0496492 -0.0407001 0.0679738 0.0524532 -0.0129506 0.0328278 0.0594295 0.117755 -0.0142449 0.0390565 -0.0411859 -0.0196168 -0.0141863 -0.0266641 -0.0374858 -0.039966 0.12617 0.00425649 -0.0443542 0.0402629 -0.0266268 0.053638 -0.0474065 0.0758866 -0.00554596 0.0196678 0.036911 -0.0115513 -0.0260757 -0.0981784 0.0277217 0.0716171 0.0574216 0.0647029 -0.0279808 -0.000278162 -0.0385249 0.0714984 0.000967885 0.103681 -0.098459 0.0459114 0.0568684 0.0659362 0.0803045 -0.0323123 -0.0431991 0.0832434 -0.0317024 -0.0887543 0.0374939 0.0600502 -0.0410455 -0.0259438 -0.0597264 0.0467993 0.0302343 0.0228591 0.0954229 -0.0277568 -0.0934852 -0.0404032 -0.0877989 0.0601663 -0.0177841 -0.0501215 -0.030237 0.0737869 0.0483295 0.125279 -0.0931506 -0.0164179 -0.0270497 0.127266 -0.0282669 0.0942706 -0.0339694 0.0496546 -0.0532736 0.102008 -0.062301 0.00670022 -0.0243361 0.0349598 0.0350947 0.134304 0.179673 -0.00264546 0.0372187 0.0424435 -0.0336752 -0.00965645 -0.0461786 0.0123914 0.170721 0.00580154 0.0967561
agree -0.108198 -0.0787442 0.0351797 0.117214 -0.0867244 -0.0358247 -0.0299944 -0.105517 -0.100591 0.085426 0.0096566 -0.0281327 -0.0158634 -0.0131726 0.03858 -0.0482406 0.0160051 0.0508714 -0.00224108 0.0691741 0.0138835 0.0275927 0.0823566 -0.0421302 -0.0537257 -0.0858559 -0.0269308 0.0618361 -0.0572562 0.0751798 -0.0102823 -0.0190626 0.0365913 0.00561982 -0.0176541 -0.0480906 -0.0223194 0.047853 0.00183941 -0.0611289 0.0624895 0.0571373 -0.0364867 -0.0504386 0.080532 0.132699 0.0780596 0.0309675 -0.0139534 -0.026703 0.0609648 -0.0653297 0.00717314 -0.156461 -0.0510525 0.0104628 0.026303 0.0252363 -0.02886 0.0754344 -0.0697173 -0.0182363 0.0255706 -0.0321359 -0.0532901 -0.0059143 0.0190886 0.0579407 0.0312108 0.00338275 0.113983 -0.0245605 -0.00646763 0.0258351 -0.0613297 0.0372476 0.0431062 0.0532279 0.0406111 0.113287 0.0091508 -0.0153508 -0.0141005 0.0647074 0.0862492 0.118048 0.0282213 0.0842661 -0.0563085 -0.0633439 0.0667272 -0.039191 0.0251571 -0.00344782 0.0469817 0.0514966 0.0619888 0.00118846 0.049324 -0.0488488 0.0422802 0.0151669 0.0145791 -0.0336238 -0.0922775 -0.0202145 -0.060416 0.0217808 0.0114945 -0.0188558 0.0130696 0.031918 0.0159214 0.0455164 0.0765744 -0.0509025 0.0492109 0.0737569 0.0345885 -0.0176824 -0.0199995 -0.0514938 -0.0389563 0.135254 0.00608601 -0.0575136 -0.00144886 -0.017488 -0.000351062 0.0515843 0.0175508 0.00778757 -0.107777 0.00101434 0.0905858 0.00589874 0.0794033 -0.00506423 0.066399 -0.0292391 0.0125751 -0.0308487 -0.00629789 -0.0430751 -0.0108122 0.0208756 -0.00827923 -0.0400765 -0.11163 -0.0516607 0.0182688 -0.0165607 0.00825688 0.0391656 0.016828 -0.0174331 -0.0381981 -0.0242855 0.0853835 0.103966 -0.0281602 0.0943227 -0.0237138 -0.0252524 -0.0248408 0.0196518 -0.089491 -0.120781 0.177126 0.0124227 -0.0756777 0.0222597 -0.0716522 0.00733439 -0.143409 0.0227834 -0.0315475 0.0466027 0.0178945 -0.142306 -0.0296153 -0.0808913 0.0481189 -0.0243582 -0.0480906 0.0829083 0.0198962 -0.0354117 0.0798672 -0.0203064 0.0112826 -0.158159 -0.00758587 0.0561953 -0.0152974 -0.0256366 -0.00533014 -0.0258756 -0.12718 0.018976 0.0279842 -0.00962718 0.150085 -0.0238699 0.0632788 0.0103228 0.00523566 -0.0233364 0.0226592 -0.0202843 0.0862435 -0.00661586 0.0917796 -0.083276 0.0473947 -0.084003 -0.0243061 -0.125717 -0.0258629 0.0488658 -0.0413891 -0.0711826 -0.0718276 -0.0707725 0.0299944 0.0972874 -0.0374371 0.0665886 -0.0516861 -0.00335079 0.0195802 0.0100939 0.0190529 0.0442547 -0.0348742 0.00976382 0.0474853 -0.0541925 0.0135896 0.0406564 0.0523792 0.0812392 0.0751063 0.0227296 -0.0444499 0.0649676 0.0319972 0.0698361 -0.0352844 0.00699634 0.0271868 -0.115174 -0.0440539 0.011363 0.0171763 -0.0739521 0.0418671 -0.0929762 -0.0123474 -0.0239831 0.111799 0.0724302 0.016937 -0.0105491 -0.0338049 -0.0520991 -0.0263098 0.109474 -0.0413042 -0.0635985 0.03901 0.0313608 0.0570808 -0.0236671 0.00469336 0.0108846 0.00156196 0.0678389 0.0171565 0.055044 -0.0674683 0.122855 -0.0133613 -0.0488035 -0.0308091 -0.0313013 -0.0318615 0.162501 -0.0411854 0.00673212 0.0424216 0.0883114 0.0180617 -0.0385291 0.00803453 -0.0457993 -0.0638729 0.0931884 0.0490129 -0.0719549
agreement -0.136226 0.00952216 0.0416434 0.0199363 -0.0479932 0.0479956 -0.0135718 -0.0750549 -0.027597 -0.00391913 -0.0461479 -0.00230841 0.00986802 -0.00336951 -0.0517083 -0.068044 -0.0128956 0.0436983 0.0509312 0.127459 -0.0543898 0.0723906 0.0834891 -0.027042 0.0457409 -0.0542393 -0.0510126 0.0788687 0.000863137 -0.00552137 0.0110065 0.0511853 0.0218102 -0.0442016 -0.0171211 0.0246163 0.0396453 -0.0589091 0.121746 -0.0254385 0.0746306 -0.0414214 -0.0041113 -0.110144 0.106337 0.0482793 0.053112 0.0546686 -0.0710807 0.0126748 0.0357821 0.0446185 -0.0537953 0.0197392 -0.0306732 -0.166714 -0.0212857 0.0131813 0.0618768 0.0765523 -0.0339912 -0.0545551 0.0293978 -0.066929 -0.0568073 -0.0473444 -0.0795323 0.0618373 -0.160468 -0.0120228 0.1449 0.0344475 -0.0298123 0.0466981 -0.0643609 0.0349557 0.03482 0.0722944 0.0833485 0.117863 -0.0115455 -0.0117443 -0.0343637 -0.0181703 0.0276661 0.0397908 0.0836396 0.136031 -0.0664084 0.0438932 -0.0552014 -0.0467474 0.0602708 0.00233698 -0.0584182 0.0269211 -0.0105913 -0.00343711 -0.0421713 0.0137941 -0.00437279 0.0462639 0.129099 -0.00745196 -0.103619 -0.000726867 0.016851 -0.0240225 0.0202299 -0.0321336 0.036986 0.0140326 0.0222599 -0.0399265 -0.00115465 -0.0913757 -0.0173192 0.118445 -0.0936255 -0.0174302 0.00404347 0.0262748 -0.0944643 0.0996077 0.0282409 -0.0860424 -0.00710634 0.116928 -0.0960209 0.0751141 -0.0587512 -0.0373979 0.0361867 -0.0582233 0.0343094 0.0344031 0.0776821 0.020299 0.00574265 0.0451587 0.0162234 -0.0232471 0.0197486 0.0368281 0.0682241 0.0147507 0.0105718 -0.00553124 0.0106579 0.0464119 -0.0508523 2.43067e-05 -0.090093 -0.0358833 0.0246688 -0.00469447 -0.0381997 -0.0038096 0.0860942 0.130496 -0.00712879 0.0706737 -0.0940721 0.025658 0.0636801 -0.0579643 -0.061751 -0.0206769 0.0960184 -0.014527 -0.0733009 -0.0129738 -0.0426647 0.0357698 -0.118815 0.0544786 0.00814638 0.0425611 -0.0755285 0.0236374 -0.064916 -0.0505439 0.028004 0.0547228 0.000371093 0.00877075 0.00367171 -0.0484323 0.0449786 -0.0050872 -0.0360535 -0.096978 0.044056 -0.00542196 0.0685645 -0.00854355 0.0903594 -0.038698 0.0180465 0.0296914 -0.00119032 -0.0242085 0.00886622 -0.0191344 0.00203644 -0.0604361 0.0208197 -0.129748 0.0458322 0.0308089 0.0542813 0.0159102 0.00641759 -0.00932234 0.012198 0.012218 0.0192567 -0.187658 0.00499198 0.0388953 0.100259 -0.019031 0.00613513 -0.0253053 -0.0241093 0.000126129 -0.0401288 -0.067484 -0.0938229 0.0154022 0.0606532 0.00268372 0.111693 0.085285 -0.0576609 -0.0339665 0.0051918 -0.0357747 0.0439796 0.00544959 -0.00553568 -0.0644818 0.0348028 0.0110501 -0.0691763 -0.0258381 0.10762 0.0854651 -0.0847571 0.0220727 0.0650714 -0.0636973 0.00727952 0.0179739 -0.0603152 -0.0586501 -0.0267829 -0.14657 0.0574561 -0.0439179 0.0325752 0.0198564 -0.0413277 0.0166144 -0.056161 -0.0470212 0.0499963 -0.0183894 0.0296396 -0.0529097 -0.0359523 -0.00779707 0.0352369 -0.0804647 -0.125246 -0.080704 0.0121168 0.0763105 0.0988405 0.0206586 0.0447813 -0.0278437 0.0531292 0.00872955 0.0735377 -0.0441078 0.0611935 0.0892345 -0.0379135 -0.041974 0.0912919 0.0549967 0.0489503 0.0133049 -0.0142124 -0.0265683 -0.0292967 0.0899499 -0.0591583 -0.06089
ahead -0.0941836 -0.00499756 0.0214062 0.0352518 0.0404407 0.000253289 -0.0371031 -0.00664469 -0.0762571 0.0434635 -0.0514365 -0.00830558 -0.00264911 -0.0907197 0.111627 -0.0621626 -0.0713941 -0.0563725 -0.0348472 0.0908096 0.0825754 0.0304337 0.0132832 -0.0486833 -0.0461099 -0.0248117 0.0142538 0.0397945 -0.0348585 0.0237045 -0.0403199 0.0438484 -0.131565 -0.0130877 -0.00968525 -0.0564793 -0.0209229 -0.071779 0.0579598 -0.115007 0.0998866 -0.0148193 0.0545099 -0.0141985 0.0369739 -0.0355945 -0.0178046 0.00785439 -0.00862331 -0.0498155 -0.00744226 -0.121165 -0.0683263 -0.000580413 -0.00127576 0.00333807 -0.00441631 0.165243 -0.0858735 -0.015168 0.0474809 -0.0733663 0.00339314 -0.0346056 -0.0200245 0.0129101 0.0713997 0.0461408 -0.0177284 0.0994708 0.0148988 -0.030032 0.0535912 -0.00606708 0.00123103 0.021943 0.05753 0.0297483 0.119656 0.0106952 0.0659636 0.00182431 -0.0575075 0.0561534 -0.0495851 -0.0535575 -0.0849577 -0.11942 0.0703266 0.006416 -0.0665424 -0.016844 0.0357125 0.0676183 0.0110068 0.102103 0.0527878 -0.0730151 0.0333246 -1.04913e-05 0.127792 -0.0439411 0.000465735 0.0753132 -0.0875451 0.031771 0.0464471 0.0122738 0.0496301 0.0705345 0.022774 0.0635083 -0.00639381 0.00429326 -0.0166971 -0.0166859 0.00673009 0.0492845 -0.0107958 -0.00804515 -0.0230513 0.0279396 -0.0268057 0.0883289 0.0558724 -0.088652 0.0335044 0.0398676 0.071543 0.00248912 0.0170008 0.0783641 -0.0273617 -0.0472983 -0.0353894 0.0455003 0.0523523 0.0382269 0.019616 0.156009 -0.0355833 0.00160844 0.0644045 -0.0255862 0.0449047 0.102648 -0.0124508 -0.0271931 0.0105578 0.0260233 0.0442024 -0.00254674 0.030768 -0.023439 -0.0850532 0.0382915 0.0233868 -0.00993669 0.0035322 0.0430786 -0.0333442 -0.0434691 -0.0318806 0.0768948 0.0437838 0.0104432 -0.00124963 0.0176751 -0.00644859 -0.0187238 -0.0428567 -0.0259671 -0.0597634 -0.0582295 -0.0818449 0.103564 -0.0878176 0.149657 -0.0671267 -0.104323 0.0502284 -0.0322177 -0.00731865 -0.0115731 -0.0920148 -0.0118813 -0.00586593 0.0467336 -0.0290993 0.0200402 0.0674048 -0.0619491 0.0370385 0.0515938 0.0293212 -0.0551223 -0.00588869 0.0245869 -0.0391484 -0.0302343 -0.0317008 0.00170281 -0.0165252 -0.00424774 0.0186867 -0.139243 0.00181448 0.0809768 0.0823422 0.0438344 0.0706216 -0.0710935 -0.0345382 -0.0632638 0.0532373 -0.0146171 -0.0460341 -0.138097 -0.00601455 0.0220992 -0.11084 -0.0693573 -0.0173169 0.0851487 0.0433877 0.072088 -0.0167418 -0.00645646 -0.0162024 -0.0401625 -0.0490401 0.000906242 0.0817831 0.031181 -0.0888262 -0.00704698 0.00912815 0.0724504 0.0587576 -0.0947005 0.108053 0.00327515 -0.0307371 0.0744788 -0.0376144 0.122867 0.0301079 0.00447755 0.0614602 0.0230673 0.0157905 -0.0535294 -0.120662 -0.0168407 0.0437894 0.0735264 -0.0013116 -0.152582 -0.0322064 0.109231 0.0985802 0.0133152 0.0544593 -0.0977768 -0.102614 -0.0461886 0.0646095 -0.0189084 -0.0637414 -0.0386623 -0.0851571 -0.0997546 0.077718 -0.00142389 -0.0238377 -0.0618732 -0.0241051 0.186218 -0.0482366 0.0348248 0.0410952 -0.0671211 -0.0481664 -0.030754 0.0168334 -0.0188075 0.0105955 -0.0177475 0.0746586 -0.00490457 0.0627104 -0.0269347 0.0331335 0.0216076 -0.00812184 0.00876294 -0.0104443 -0.111984 0.0620867 -0.0230673
air 0.0377524 0.0196364 -0.0310295 0.0328056 0.0871943 -0.0995262 -0.123232 0.00794956 0.0117735 0.0280122 -0.0218686 -0.0267339 -0.00601622 0.0113244 -0.0546935 0.0655147 -0.0170839 -0.0685692 0.0309505 0.0797719 -0.0394671 0.0575397 -0.117382 0.0536695 -0.0973818 -0.0381208 0.0609779 -0.0397894 -0.0363512 0.015463 -0.0267558 0.116853 -0.0628658 -0.0492095 0.0130953 -0.010191 0.0160452 -0.173419 0.0261133 -0.0198803 0.0251069 0.0840762 0.0481942 -0.0359829 0.0174485 -0.125392 -0.0239316 0.00210757 0.0719613 0.0332025 0.0221818 0.0521916 -0.0221883 0.0182004 -0.0941014 0.0108828 0.0554741 0.000921586 0.030455 -0.0388838 -0.0581668 0.0516061 -0.0217171 0.0137342 -0.00623922 -0.0611972 -0.120195 -0.0374301 0.00462975 -0.103138 -0.0558535 -0.0330139 -0.00569498 -0.0424317 0.0703694 0.0238373 0.0515688 0.0486591 0.0283192 0.00366692 -0.0154185 0.0328604 -0.0143813 -0.067418 -0.123315 -0.0383401 -0.0219318 0.0214314 0.0927244 0.00653941 -0.0610875 0.001132 0.0544676 0.0498497 0.108622 0.0984036 0.0221138 0.0411928 0.0590965 -0.00410656 0.0276307 -0.00991732 0.017072 -0.0876679 0.0414735 -0.0195706 -0.113753 0.0851134 0.00668698 0.0496195 0.103769 -0.0446222 -0.0696348 -0.0260761 -0.0373533 -0.0610985 0.0858151 0.0236838 -0.019334 -6.92467e-05 0.0483236 -0.0590549 -0.168021 -0.00944742 0.0269488 0.0184865 -0.0236509 0.0821883 0.0821773 0.0322903 -0.00428089 0.0473347 -0.00686876 0.0455322 -0.0332792 0.0216483 -0.103486 -0.0161905 0.042572 0.0454073 -0.0590505 -0.0127275 -0.0251288 0.0833745 0.0188918 0.0448525 0.137298 0.0355487 0.0880319 0.0250762 0.0523253 -0.112963 -0.103885 -0.0195467 0.0745531 0.0630522 0.0414713 0.00468852 0.0293389 0.0194187 -0.0145543 -0.00392413 -0.104567 -0.0749084 0.0766757 0.0394189 -0.0631399 -0.0527354 0.0619865 0.0147479 -0.027964 0.020499 0.0232408 -0.0265563 -0.0489946 0.114351 -0.0675671 -0.091264 -0.0367284 -0.0129685 -0.0543383 0.046087 0.0327376 0.00227869 0.0283455 0.0272097 0.0181607 0.0225085 -0.00972041 -0.0963205 -0.0294288 -0.0509746 0.000361122 0.090468 -0.007181 -0.0179265 -0.0457888 0.018141 -0.0193448 -0.00858063 0.0811248 0.0199629 0.0391536 -0.086065 5.86273e-05 -0.0867908 -0.0861878 -0.0575243 0.0315733 0.0452253 0.0554697 -0.143991 -0.0403661 0.0598574 -0.0387698 0.0259642 -0.0590834 -0.160509 -0.0311018 0.057794 0.0477096 0.0456835 -0.0963731 -0.077987 0.0358886 0.046815 -0.0725336 0.0119377 -0.0725906 0.0877271 -0.024949 0.0341716 -0.00976712 -0.0687029 0.0383094 0.0974848 -0.07586 0.0374366 0.0280802 0.00328626 0.0368117 -0.0376888 -0.0229777 -0.032731 -0.0202107 0.0216544 -0.0415919 -0.0252998 -0.0690231 -0.0579914 0.0782391 -0.0329744 -0.00364938 -0.0136062 -0.0149714 -0.00197855 0.0172987 -0.0321916 -0.0492029 0.0594737 0.062401 0.0465036 -0.0719416 -0.105015 -0.0367372 -0.106473 0.03388 -0.0897488 0.0151849 0.0357175 -0.0708386 0.0169233 -0.003661 0.0236312 -0.0162561 -0.0634316 0.0141208 0.0286043 0.0187554 -0.0853568 0.0621839 -0.00986141 -0.0852976 -0.0866812 0.0662843 -0.0894002 0.044335 0.0685933 -0.127497 0.0678192 0.0125416 -0.0485889 0.0198195 0.0788399 -0.0611577 -0.0473434 -0.0235412 0.120987 0.0494879 -0.0184473
all -0.162625 0.00336121 -0.0769655 0.120176 0.0176414 0.0329846 -0.0151369 -0.104241 -0.00544255 0.0613635 0.0505533 0.0201059 -0.00722872 -0.047336 -0.00943693 0.00758754 -0.0293013 -0.0183761 -0.0296374 0.00905274 -0.115838 0.0905161 -0.0626391 -0.005653 -0.0254258 0.0348423 0.04142 0.0294482 -0.00074316 0.06477 -0.00883359 0.0298384 -0.0337181 0.0920642 -0.0396902 -0.0485056 0.0906069 -0.00663749 -0.0336401 -0.0209155 0.00888279 -0.0685702 -0.0454889 0.0591492 0.00765643 0.092295 0.0220548 -0.0730556 0.00231786 -0.0541643 -0.0463027 -0.0872231 -0.0253069 -0.0123961 -0.109672 -0.0120952 -0.0592628 -0.00175805 -0.131073 0.0608336 0.0378809 -0.0329183 0.140437 -0.135377 0.0809588 -0.0391981 -0.0012828 -0.0121289 -0.0705196 0.0677678 -0.0104332 -0.0689185 0.0172349 -0.108805 -0.0513104 -0.0245829 0.098688 0.0448379 0.0179897 -0.0171282 -0.014163 0.0688276 -0.103593 0.0829876 -0.0509697 0.0713636 0.0178352 0.0645429 0.0513293 -0.0672114 -0.0621735 0.0714318 0.0757013 -0.0987524 0.00276745 -0.0267559 0.0392738 0.0215253 0.0228228 -0.0261374 0.078173 0.00463898 0.0546791 -0.0308456 -0.123518 -0.0986047 -0.0734454 0.0219163 -0.0685967 0.0352745 0.0229239 -0.0349169 -0.0176293 0.00637443 0.0352019 -0.0276972 0.151535 0.0302185 -0.00557919 0.0648798 0.0447319 -0.0227233 -0.0343457 0.0744485 0.0303225 0.0235435 0.104589 0.00875637 0.0535927 0.106224 0.103094 0.0538804 -0.063044 0.0824312 0.0779421 -0.0080497 -0.0264637 0.0627564 0.101054 0.0327083 0.0317397 0.0573892 0.0703227 0.00672114 0.0713826 0.0638919 -0.031044 0.00368491 0.014504 0.00713371 -0.0160419 -0.0272767 0.00316753 -0.0479908 0.00155343 0.0458182 -0.0152845 -0.0582635 0.0773554 0.106122 -0.0680403 -0.0813789 -0.0622454 0.103272 -0.0358124 0.0284849 -0.0246976 0.0191078 0.0303577 0.0284944 0.0159718 -0.0637481 -0.055561 0.0231237 -0.101852 0.0767195 -0.0170392 0.01747 0.0301844 -0.00134589 0.0493308 -0.0635626 -0.0267093 0.100342 -0.0648798 0.0847628 -0.00396069 -0.0743576 0.0221547 -0.0704741 0.0146119 -0.0051598 0.0397091 0.0378885 -0.0550084 -0.0227036 -0.0751487 0.0295814 -0.115797 -0.0595807 0.0652848 -0.0512763 0.00645884 -0.015859 0.052003 -0.0194151 -0.0573702 -0.0166948 0.106886 -0.00146304 0.0934949 -0.13471 0.0569198 0.0278111 0.117129 -0.0126364 -0.0150627 -0.0657844 -0.0149605 0.00728549 -0.0360512 0.0684643 0.00774387 -0.0121501 -0.0215143 0.123961 -0.000336981 -0.0834683 0.0231487 -0.0268702 0.109487 0.0326008 -0.0141338 -0.0257551 0.0452202 0.0308377 0.0137156 -0.0337866 0.0395691 0.0189779 0.0398189 0.00185828 0.00335932 0.0465904 -0.0256817 0.0412231 0.0985404 -0.00210741 0.0625936 0.0444102 0.0273588 0.00773895 -0.0523853 -0.0572718 0.0159109 0.0783433 -0.030388 -0.0385698 0.0286571 -0.0413897 0.0500537 -0.009809 -0.00305107 -0.038214 -0.000992179 0.0224004 -0.0639487 -0.0175093 -0.0714923 -0.0445994 0.00999787 0.0413556 0.0227543 -0.00199439 0.00564088 0.00176115 -0.0861935 0.0313343 -0.0172228 -0.0183303 0.0663068 0.0157307 0.00333517 -0.0550613 0.0319592 -0.00161486 0.0496487 0.133469 -0.171569 0.0705461 0.0890626 0.00912731 0.119918 0.0684416 0.0834493 -0.00724954 -0.0631652 -0.0664393 0.0498531 -0.0108726
